{"learner":{"attributes":{},"feature_names":[],"feature_types":[],"gradient_booster":{"model":{"gbtree_model_param":{"num_parallel_tree":"1","num_trees":"1000"},"iteration_indptr":[0,2,4,6,8,10,12,14,16,18,20,22,24,26,28,30,32,34,36,38,40,42,44,46,48,50,52,54,56,58,60,62,64,66,68,70,72,74,76,78,80,82,84,86,88,90,92,94,96,98,100,102,104,106,108,110,112,114,116,118,120,122,124,126,128,130,132,134,136,138,140,142,144,146,148,150,152,154,156,158,160,162,164,166,168,170,172,174,176,178,180,182,184,186,188,190,192,194,196,198,200,202,204,206,208,210,212,214,216,218,220,222,224,226,228,230,232,234,236,238,240,242,244,246,248,250,252,254,256,258,260,262,264,266,268,270,272,274,276,278,280,282,284,286,288,290,292,294,296,298,300,302,304,306,308,310,312,314,316,318,320,322,324,326,328,330,332,334,336,338,340,342,344,346,348,350,352,354,356,358,360,362,364,366,368,370,372,374,376,378,380,382,384,386,388,390,392,394,396,398,400,402,404,406,408,410,412,414,416,418,420,422,424,426,428,430,432,434,436,438,440,442,444,446,448,450,452,454,456,458,460,462,464,466,468,470,472,474,476,478,480,482,484,486,488,490,492,494,496,498,500,502,504,506,508,510,512,514,516,518,520,522,524,526,528,530,532,534,536,538,540,542,544,546,548,550,552,554,556,558,560,562,564,566,568,570,572,574,576,578,580,582,584,586,588,590,592,594,596,598,600,602,604,606,608,610,612,614,616,618,620,622,624,626,628,630,632,634,636,638,640,642,644,646,648,650,652,654,656,658,660,662,664,666,668,670,672,674,676,678,680,682,684,686,688,690,692,694,696,698,700,702,704,706,708,710,712,714,716,718,720,722,724,726,728,730,732,734,736,738,740,742,744,746,748,750,752,754,756,758,760,762,764,766,768,770,772,774,776,778,780,782,784,786,788,790,792,794,796,798,800,802,804,806,808,810,812,814,816,818,820,822,824,826,828,830,832,834,836,838,840,842,844,846,848,850,852,854,856,858,860,862,864,866,868,870,872,874,876,878,880,882,884,886,888,890,892,894,896,898,900,902,904,906,908,910,912,914,916,918,920,922,924,926,928,930,932,934,936,938,940,942,944,946,948,950,952,954,956,958,960,962,964,966,968,970,972,974,976,978,980,982,984,986,988,990,992,994,996,998,1000],"tree_info":[0,1,0,1,0,1,0,1,0,1,0,1,0,1,0,1,0,1,0,1,0,1,0,1,0,1,0,1,0,1,0,1,0,1,0,1,0,1,0,1,0,1,0,1,0,1,0,1,0,1,0,1,0,1,0,1,0,1,0,1,0,1,0,1,0,1,0,1,0,1,0,1,0,1,0,1,0,1,0,1,0,1,0,1,0,1,0,1,0,1,0,1,0,1,0,1,0,1,0,1,0,1,0,1,0,1,0,1,0,1,0,1,0,1,0,1,0,1,0,1,0,1,0,1,0,1,0,1,0,1,0,1,0,1,0,1,0,1,0,1,0,1,0,1,0,1,0,1,0,1,0,1,0,1,0,1,0,1,0,1,0,1,0,1,0,1,0,1,0,1,0,1,0,1,0,1,0,1,0,1,0,1,0,1,0,1,0,1,0,1,0,1,0,1,0,1,0,1,0,1,0,1,0,1,0,1,0,1,0,1,0,1,0,1,0,1,0,1,0,1,0,1,0,1,0,1,0,1,0,1,0,1,0,1,0,1,0,1,0,1,0,1,0,1,0,1,0,1,0,1,0,1,0,1,0,1,0,1,0,1,0,1,0,1,0,1,0,1,0,1,0,1,0,1,0,1,0,1,0,1,0,1,0,1,0,1,0,1,0,1,0,1,0,1,0,1,0,1,0,1,0,1,0,1,0,1,0,1,0,1,0,1,0,1,0,1,0,1,0,1,0,1,0,1,0,1,0,1,0,1,0,1,0,1,0,1,0,1,0,1,0,1,0,1,0,1,0,1,0,1,0,1,0,1,0,1,0,1,0,1,0,1,0,1,0,1,0,1,0,1,0,1,0,1,0,1,0,1,0,1,0,1,0,1,0,1,0,1,0,1,0,1,0,1,0,1,0,1,0,1,0,1,0,1,0,1,0,1,0,1,0,1,0,1,0,1,0,1,0,1,0,1,0,1,0,1,0,1,0,1,0,1,0,1,0,1,0,1,0,1,0,1,0,1,0,1,0,1,0,1,0,1,0,1,0,1,0,1,0,1,0,1,0,1,0,1,0,1,0,1,0,1,0,1,0,1,0,1,0,1,0,1,0,1,0,1,0,1,0,1,0,1,0,1,0,1,0,1,0,1,0,1,0,1,0,1,0,1,0,1,0,1,0,1,0,1,0,1,0,1,0,1,0,1,0,1,0,1,0,1,0,1,0,1,0,1,0,1,0,1,0,1,0,1,0,1,0,1,0,1,0,1,0,1,0,1,0,1,0,1,0,1,0,1,0,1,0,1,0,1,0,1,0,1,0,1,0,1,0,1,0,1,0,1,0,1,0,1,0,1,0,1,0,1,0,1,0,1,0,1,0,1,0,1,0,1,0,1,0,1,0,1,0,1,0,1,0,1,0,1,0,1,0,1,0,1,0,1,0,1,0,1,0,1,0,1,0,1,0,1,0,1,0,1,0,1,0,1,0,1,0,1,0,1,0,1,0,1,0,1,0,1,0,1,0,1,0,1,0,1,0,1,0,1,0,1,0,1,0,1,0,1,0,1,0,1,0,1,0,1,0,1,0,1,0,1,0,1,0,1,0,1,0,1,0,1,0,1,0,1,0,1,0,1,0,1,0,1,0,1,0,1,0,1,0,1,0,1,0,1,0,1,0,1,0,1,0,1,0,1,0,1,0,1,0,1,0,1,0,1,0,1,0,1,0,1,0,1,0,1,0,1,0,1,0,1,0,1,0,1,0,1,0,1,0,1,0,1,0,1,0,1,0,1,0,1,0,1,0,1,0,1,0,1,0,1,0,1,0,1,0,1,0,1,0,1,0,1,0,1,0,1,0,1,0,1,0,1,0,1,0,1,0,1,0,1,0,1,0,1,0,1,0,1,0,1,0,1,0,1,0,1,0,1,0,1,0,1,0,1,0,1,0,1,0,1,0,1,0,1,0,1,0,1,0,1,0,1,0,1,0,1,0,1,0,1,0,1,0,1,0,1,0,1,0,1,0,1,0,1,0,1,0,1,0,1,0,1,0,1,0,1,0,1,0,1,0,1,0,1,0,1,0,1,0,1,0,1,0,1,0,1,0,1,0,1,0,1,0,1,0,1,0,1,0,1,0,1,0,1,0,1,0,1,0,1,0,1,0,1,0,1,0,1,0,1,0,1,0,1,0,1,0,1,0,1,0,1,0,1,0,1,0,1,0,1,0,1,0,1,0,1,0,1,0,1,0,1,0,1,0,1,0,1,0,1,0,1,0,1],"trees":[{"base_weights":[1.3800424E-1,5.527426E-1,-2.658228E-1,6.7407405E-1,7.04762E-2,-0E0,-7.674419E-2,1.4736842E-1,3.3333335E-2,3.508772E-3,-0E0],"categories":[],"categories_nodes":[],"categories_segments":[],"categories_sizes":[],"default_left":[0,0,0,0,0,0,0,0,0,0,0],"id":0,"left_children":[1,3,5,7,-1,9,-1,-1,-1,-1,-1],"loss_changes":[4.0092922E1,9.8477554E-1,4.2893724E0,6.103325E-1,0E0,8.77193E-3,0E0,0E0,0E0,0E0,0E0],"parents":[2147483647,0,0,1,1,2,2,3,3,5,5],"right_children":[2,4,6,8,-1,10,-1,-1,-1,-1,-1],"split_conditions":[1E0,1E0,1E0,1E0,7.04762E-2,1E0,-7.674419E-2,1.4736842E-1,3.3333335E-2,3.508772E-3,-0E0],"split_indices":[0,1,1,2,0,2,0,0,0,0,0],"split_type":[0,0,0,0,0,0,0,0,0,0,0],"sum_hessian":[2.34E2,1.17E2,1.17E2,6.6E1,5.1E1,3.25E1,8.45E1,5.55E1,1.05E1,2.7E1,5.5E0],"tree_param":{"num_deleted":"0","num_feature":"3","num_nodes":"11","size_leaf_vector":"1"}},{"base_weights":[-1.3800424E-1,-5.527426E-1,2.658228E-1,-6.7407405E-1,-7.04762E-2,-0E0,7.674419E-2,-1.4736842E-1,-3.3333335E-2,-3.508772E-3,-0E0],"categories":[],"categories_nodes":[],"categories_segments":[],"categories_sizes":[],"default_left":[0,0,0,0,0,0,0,0,0,0,0],"id":1,"left_children":[1,3,5,7,-1,9,-1,-1,-1,-1,-1],"loss_changes":[4.0092922E1,9.8477554E-1,4.2893724E0,6.103325E-1,0E0,8.77193E-3,0E0,0E0,0E0,0E0,0E0],"parents":[2147483647,0,0,1,1,2,2,3,3,5,5],"right_children":[2,4,6,8,-1,10,-1,-1,-1,-1,-1],"split_conditions":[1E0,1E0,1E0,1E0,-7.04762E-2,1E0,7.674419E-2,-1.4736842E-1,-3.3333335E-2,-3.508772E-3,-0E0],"split_indices":[0,1,1,2,0,2,0,0,0,0,0],"split_type":[0,0,0,0,0,0,0,0,0,0,0],"sum_hessian":[2.34E2,1.17E2,1.17E2,6.6E1,5.1E1,3.25E1,8.45E1,5.55E1,1.05E1,2.7E1,5.5E0],"tree_param":{"num_deleted":"0","num_feature":"3","num_nodes":"11","size_leaf_vector":"1"}},{"base_weights":[1.14831045E-1,4.5657882E-1,-2.1289589E-1,5.5851793E-1,5.7080805E-2,-0E0,-3.1025138E-1,1.2140689E-1,2.75289E-2,2.8440014E-3,-0E0,-4.264619E-2,-9.9268146E-2],"categories":[],"categories_nodes":[],"categories_segments":[],"categories_sizes":[],"default_left":[0,0,0,0,0,0,0,0,0,0,0,0,0],"id":2,"left_children":[1,3,5,7,-1,9,11,-1,-1,-1,-1,-1,-1],"loss_changes":[2.666911E1,5.374279E-1,2.8818045E0,1.114521E-1,0E0,5.762878E-3,3.206234E-1,0E0,0E0,0E0,0E0,0E0,0E0],"parents":[2147483647,0,0,1,1,2,2,3,3,5,5,6,6],"right_children":[2,4,6,8,-1,10,12,-1,-1,-1,-1,-1,-1],"split_conditions":[1E0,1E0,1E0,1E0,5.7080805E-2,1E0,1E0,1.2140689E-1,2.75289E-2,2.8440014E-3,-0E0,-4.264619E-2,-9.9268146E-2],"split_indices":[0,1,1,2,0,2,2,0,0,0,0,0,0],"split_type":[0,0,0,0,0,0,0,0,0,0,0,0,0],"sum_hessian":[2.3205173E2,1.1554779E2,1.1650394E2,6.480026E1,5.0747528E1,3.249967E1,8.4004265E1,5.431192E1,1.0488341E1,2.6999666E1,5.5E0,6.26304E1,2.1373867E1],"tree_param":{"num_deleted":"0","num_feature":"3","num_nodes":"13","size_leaf_vector":"1"}},{"base_weights":[-1.14831E-1,-4.5657876E-1,2.128959E-1,-5.585178E-1,-5.7080805E-2,-0E0,3.1025138E-1,-1.2140687E-1,-2.75289E-2,-2.8439846E-3,-0E0,4.264619E-2,9.9268146E-2],"categories":[],"categories_nodes":[],"categories_segments":[],"categories_sizes":[],"default_left":[0,0,0,0,0,0,0,0,0,0,0,0,0],"id":3,"left_children":[1,3,5,7,-1,9,11,-1,-1,-1,-1,-1,-1],"loss_changes":[2.6669106E1,5.37426E-1,2.8818035E0,1.1145401E-1,0E0,5.76281E-3,3.206234E-1,0E0,0E0,0E0,0E0,0E0,0E0],"parents":[2147483647,0,0,1,1,2,2,3,3,5,5,6,6],"right_children":[2,4,6,8,-1,10,12,-1,-1,-1,-1,-1,-1],"split_conditions":[1E0,1E0,1E0,1E0,-5.7080805E-2,1E0,1E0,-1.2140687E-1,-2.75289E-2,-2.8439846E-3,-0E0,4.264619E-2,9.9268146E-2],"split_indices":[0,1,1,2,0,2,2,0,0,0,0,0,0],"split_type":[0,0,0,0,0,0,0,0,0,0,0,0,0],"sum_hessian":[2.3205173E2,1.1554778E2,1.1650394E2,6.480026E1,5.0747524E1,3.249967E1,8.4004265E1,5.431192E1,1.0488341E1,2.6999668E1,5.5E0,6.26304E1,2.1373867E1],"tree_param":{"num_deleted":"0","num_feature":"3","num_nodes":"13","size_leaf_vector":"1"}},{"base_weights":[9.544799E-2,3.8503632E-1,-1.7476362E-1,9.5207684E-2,4.6555165E-2,-0E0,-2.5774112E-1,2.3051975E-3,-0E0,-3.4629334E-2,-8.282232E-2],"categories":[],"categories_nodes":[],"categories_segments":[],"categories_sizes":[],"default_left":[0,0,0,0,0,0,0,0,0,0,0],"id":4,"left_children":[1,3,5,-1,-1,7,9,-1,-1,-1,-1],"loss_changes":[1.8357006E1,3.4760666E-1,2.0384471E0,0E0,0E0,3.7860346E-3,1.2877464E-1,0E0,0E0,0E0,0E0],"parents":[2147483647,0,0,1,1,2,2,5,5,6,6],"right_children":[2,4,6,-1,-1,8,10,-1,-1,-1,-1],"split_conditions":[1E0,1E0,1E0,9.5207684E-2,4.6555165E-2,1E0,1E0,2.3051975E-3,-0E0,-3.4629334E-2,-8.282232E-2],"split_indices":[0,1,1,0,0,2,2,0,0,0,0],"split_type":[0,0,0,0,0,0,0,0,0,0,0],"sum_hessian":[2.2777327E2,1.1231645E2,1.1545682E2,6.2137344E1,5.0179108E1,3.249891E1,8.29579E1,2.699891E1,5.5E0,6.2110462E1,2.084744E1],"tree_param":{"num_deleted":"0","num_feature":"3","num_nodes":"11","size_leaf_vector":"1"}},{"base_weights":[-9.5447995E-2,-3.8503632E-1,1.7476362E-1,-9.5207684E-2,-4.655517E-2,-0E0,2.5774112E-1,-2.3051975E-3,-0E0,3.4629326E-2,8.2822345E-2],"categories":[],"categories_nodes":[],"categories_segments":[],"categories_sizes":[],"default_left":[0,0,0,0,0,0,0,0,0,0,0],"id":5,"left_children":[1,3,5,-1,-1,7,9,-1,-1,-1,-1],"loss_changes":[1.835701E1,3.4760666E-1,2.038447E0,0E0,0E0,3.7860346E-3,1.2877607E-1,0E0,0E0,0E0,0E0],"parents":[2147483647,0,0,1,1,2,2,5,5,6,6],"right_children":[2,4,6,-1,-1,8,10,-1,-1,-1,-1],"split_conditions":[1E0,1E0,1E0,-9.5207684E-2,-4.655517E-2,1E0,1E0,-2.3051975E-3,-0E0,3.4629326E-2,8.2822345E-2],"split_indices":[0,1,1,0,0,2,2,0,0,0,0],"split_type":[0,0,0,0,0,0,0,0,0,0,0],"sum_hessian":[2.2777327E2,1.1231645E2,1.1545681E2,6.2137344E1,5.017911E1,3.249891E1,8.29579E1,2.699891E1,5.5E0,6.211046E1,2.0847443E1],"tree_param":{"num_deleted":"0","num_feature":"3","num_nodes":"11","size_leaf_vector":"1"}},{"base_weights":[7.8377545E-2,3.2486144E-1,-1.440799E-1,4.05304E-1,3.8085707E-2,-0E0,-2.156195E-1,9.0132274E-2,6.374398E-3,1.8684994E-3,-0E0,-2.8154612E-2,-6.989396E-2],"categories":[],"categories_nodes":[],"categories_segments":[],"categories_sizes":[],"default_left":[0,0,0,0,0,0,0,0,0,0,0,0,0],"id":6,"left_children":[1,3,5,7,-1,9,11,-1,-1,-1,-1,-1,-1],"loss_changes":[1.2631044E1,1.800108E-1,1.4650629E0,2.7938557E-1,0E0,2.4873677E-3,2.3860693E-2,0E0,0E0,0E0,0E0,0E0,0E0],"parents":[2147483647,0,0,1,1,2,2,3,3,5,5,6,6],"right_children":[2,4,6,8,-1,10,12,-1,-1,-1,-1,-1,-1],"split_conditions":[1E0,1E0,1E0,1E0,3.8085707E-2,1E0,1E0,9.0132274E-2,6.374398E-3,1.8684994E-3,-0E0,-2.8154612E-2,-6.989396E-2],"split_indices":[0,1,1,2,0,2,2,0,0,0,0,0,0],"split_type":[0,0,0,0,0,0,0,0,0,0,0,0,0],"sum_hessian":[2.2263235E2,1.0848397E2,1.1414838E2,5.899932E1,4.948465E1,3.2497974E1,8.1650406E1,4.875098E1,1.024834E1,2.6997976E1,5.5E0,6.152883E1,2.0121574E1],"tree_param":{"num_deleted":"0","num_feature":"3","num_nodes":"13","size_leaf_vector":"1"}},{"base_weights":[-7.837754E-2,-3.248615E-1,1.4407997E-1,-4.0530407E-1,-3.8085725E-2,-0E0,2.156196E-1,-9.013229E-2,-6.3743913E-3,-1.8684935E-3,-0E0,2.8154632E-2,6.989398E-2],"categories":[],"categories_nodes":[],"categories_segments":[],"categories_sizes":[],"default_left":[0,0,0,0,0,0,0,0,0,0,0,0,0],"id":7,"left_children":[1,3,5,7,-1,9,11,-1,-1,-1,-1,-1,-1],"loss_changes":[1.2631054E1,1.8000984E-1,1.4650636E0,2.7938557E-1,0E0,2.4873517E-3,2.3859978E-2,0E0,0E0,0E0,0E0,0E0,0E0],"parents":[2147483647,0,0,1,1,2,2,3,3,5,5,6,6],"right_children":[2,4,6,8,-1,10,12,-1,-1,-1,-1,-1,-1],"split_conditions":[1E0,1E0,1E0,1E0,-3.8085725E-2,1E0,1E0,-9.013229E-2,-6.3743913E-3,-1.8684935E-3,-0E0,2.8154632E-2,6.989398E-2],"split_indices":[0,1,1,2,0,2,2,0,0,0,0,0,0],"split_type":[0,0,0,0,0,0,0,0,0,0,0,0,0],"sum_hessian":[2.2263235E2,1.0848396E2,1.14148384E2,5.8999317E1,4.9484646E1,3.2497974E1,8.1650406E1,4.875098E1,1.0248339E1,2.6997974E1,5.5E0,6.1528835E1,2.0121574E1],"tree_param":{"num_deleted":"0","num_feature":"3","num_nodes":"13","size_leaf_vector":"1"}},{"base_weights":[6.59893E-2,2.7881852E-1,-1.1907756E-1,3.5331982E-1,3.1181002E-2,-0E0,-3.6251087E-2,7.834876E-2,5.272645E-3,1.5145194E-3,-0E0],"categories":[],"categories_nodes":[],"categories_segments":[],"categories_sizes":[],"default_left":[0,0,0,0,0,0,0,0,0,0,0],"id":8,"left_children":[1,3,5,7,-1,9,-1,-1,-1,-1,-1],"loss_changes":[8.905331E0,1.23841286E-1,1.0665416E0,7.582426E-2,0E0,1.6341389E-3,0E0,0E0,0E0,0E0,0E0],"parents":[2147483647,0,0,1,1,2,2,3,3,5,5],"right_children":[2,4,6,8,-1,10,-1,-1,-1,-1,-1],"split_conditions":[1E0,1E0,1E0,1E0,3.1181002E-2,1E0,-3.6251087E-2,7.834876E-2,5.272645E-3,1.5145194E-3,-0E0],"split_indices":[0,1,1,2,0,2,0,0,0,0,0],"split_type":[0,0,0,0,0,0,0,0,0,0,0],"sum_hessian":[2.1724675E2,1.0446081E2,1.12785934E2,5.5690018E1,4.8770794E1,3.249701E1,8.0288925E1,4.546229E1,1.0227726E1,2.6997007E1,5.5E0],"tree_param":{"num_deleted":"0","num_feature":"3","num_nodes":"11","size_leaf_vector":"1"}},{"base_weights":[-6.598928E-2,-2.7881852E-1,1.1907761E-1,-3.5331982E-1,-3.1181002E-2,-0E0,3.6251098E-2,-7.834876E-2,-5.272645E-3,-1.5145194E-3,-0E0],"categories":[],"categories_nodes":[],"categories_segments":[],"categories_sizes":[],"default_left":[0,0,0,0,0,0,0,0,0,0,0],"id":9,"left_children":[1,3,5,7,-1,9,-1,-1,-1,-1,-1],"loss_changes":[8.905333E0,1.23841286E-1,1.0665423E0,7.582426E-2,0E0,1.6341389E-3,0E0,0E0,0E0,0E0,0E0],"parents":[2147483647,0,0,1,1,2,2,3,3,5,5],"right_children":[2,4,6,8,-1,10,-1,-1,-1,-1,-1],"split_conditions":[1E0,1E0,1E0,1E0,-3.1181002E-2,1E0,3.6251098E-2,-7.834876E-2,-5.272645E-3,-1.5145194E-3,-0E0],"split_indices":[0,1,1,2,0,2,0,0,0,0,0],"split_type":[0,0,0,0,0,0,0,0,0,0,0],"sum_hessian":[2.1724675E2,1.0446081E2,1.12785934E2,5.5690018E1,4.8770794E1,3.249701E1,8.0288925E1,4.546229E1,1.0227726E1,2.6997007E1,5.5E0],"tree_param":{"num_deleted":"0","num_feature":"3","num_nodes":"11","size_leaf_vector":"1"}},{"base_weights":[5.7478853E-2,2.4028108E-1,-9.528315E-2,6.185932E-2,2.5515253E-2,-0E0,-1.4836857E-1,1.227606E-3,-0E0,-1.6087523E-2,-5.383522E-2],"categories":[],"categories_nodes":[],"categories_segments":[],"categories_sizes":[],"default_left":[0,0,0,0,0,0,0,0,0,0,0],"id":10,"left_children":[1,3,5,-1,-1,7,9,-1,-1,-1,-1],"loss_changes":[6.2162046E0,7.9889774E-2,7.4566674E-1,0E0,0E0,1.0736018E-3,1.0340035E-1,0E0,0E0,0E0,0E0],"parents":[2147483647,0,0,1,1,2,2,5,5,6,6],"right_children":[2,4,6,-1,-1,8,10,-1,-1,-1,-1],"split_conditions":[1E0,1E0,1E0,6.185932E-2,2.5515253E-2,1E0,1E0,1.227606E-3,-0E0,-1.6087523E-2,-5.383522E-2],"split_indices":[0,1,1,0,0,2,2,0,0,0,0],"split_type":[0,0,0,0,0,0,0,0,0,0,0],"sum_hessian":[2.1208337E2,1.0062753E2,1.1145583E2,5.2533024E1,4.8094513E1,3.2496086E1,7.895975E1,2.6996086E1,5.5E0,6.008737E1,1.8872374E1],"tree_param":{"num_deleted":"0","num_feature":"3","num_nodes":"11","size_leaf_vector":"1"}},{"base_weights":[-5.7478853E-2,-2.4028113E-1,9.52832E-2,-6.185934E-2,-2.5515253E-2,-0E0,1.4836864E-1,-1.227606E-3,-0E0,1.608754E-2,5.3835224E-2],"categories":[],"categories_nodes":[],"categories_segments":[],"categories_sizes":[],"default_left":[0,0,0,0,0,0,0,0,0,0,0],"id":11,"left_children":[1,3,5,-1,-1,7,9,-1,-1,-1,-1],"loss_changes":[6.216209E0,7.9889774E-2,7.4566746E-1,0E0,0E0,1.0736018E-3,1.03399634E-1,0E0,0E0,0E0,0E0],"parents":[2147483647,0,0,1,1,2,2,5,5,6,6],"right_children":[2,4,6,-1,-1,8,10,-1,-1,-1,-1],"split_conditions":[1E0,1E0,1E0,-6.185934E-2,-2.5515253E-2,1E0,1E0,-1.227606E-3,-0E0,1.608754E-2,5.3835224E-2],"split_indices":[0,1,1,0,0,2,2,0,0,0,0],"split_type":[0,0,0,0,0,0,0,0,0,0,0],"sum_hessian":[2.1208337E2,1.0062754E2,1.1145583E2,5.253303E1,4.8094513E1,3.2496086E1,7.895975E1,2.6996086E1,5.5E0,6.008737E1,1.8872377E1],"tree_param":{"num_deleted":"0","num_feature":"3","num_nodes":"11","size_leaf_vector":"1"}},{"base_weights":[4.6997134E-2,2.0426409E-1,-7.9049386E-2,2.2132556E-1,-0E0,-0E0,-1.2584712E-1,6.023602E-2,2.1383928E-2,9.950473E-4,-0E0,-1.305037E-2,-4.572142E-2],"categories":[],"categories_nodes":[],"categories_segments":[],"categories_sizes":[],"default_left":[0,0,0,0,0,0,0,0,0,0,0,0,0],"id":12,"left_children":[1,3,5,7,-1,9,11,-1,-1,-1,-1,-1,-1],"loss_changes":[4.354349E0,2.3156166E-2,5.57212E-1,1.1176872E-1,0E0,7.0534233E-4,3.0544162E-2,0E0,0E0,0E0,0E0,0E0,0E0],"parents":[2147483647,0,0,1,1,2,2,3,3,5,5,6,6],"right_children":[2,4,6,8,-1,10,12,-1,-1,-1,-1,-1,-1],"split_conditions":[1E0,1E0,1E0,1E0,-0E0,1E0,1E0,6.023602E-2,2.1383928E-2,9.950473E-4,-0E0,-1.305037E-2,-4.572142E-2],"split_indices":[0,2,1,1,0,2,2,0,0,0,0,0,0],"split_type":[0,0,0,0,0,0,0,0,0,0,0,0,0],"sum_hessian":[2.0746516E2,9.718188E1,1.1028329E2,8.302671E1,1.41551695E1,3.2495247E1,7.778804E1,3.973318E1,4.3293526E1,2.6995247E1,5.5E0,5.9658417E1,1.8129622E1],"tree_param":{"num_deleted":"0","num_feature":"3","num_nodes":"13","size_leaf_vector":"1"}},{"base_weights":[-4.699717E-2,-2.0426415E-1,7.9049364E-2,-2.213256E-1,-0E0,-0E0,1.2584709E-1,-6.023602E-2,-2.1383945E-2,-9.950473E-4,-0E0,1.3050364E-2,4.572142E-2],"categories":[],"categories_nodes":[],"categories_segments":[],"categories_sizes":[],"default_left":[0,0,0,0,0,0,0,0,0,0,0,0,0],"id":13,"left_children":[1,3,5,7,-1,9,11,-1,-1,-1,-1,-1,-1],"loss_changes":[4.35435E0,2.315569E-2,5.572118E-1,1.1176777E-1,0E0,7.0534233E-4,3.05444E-2,0E0,0E0,0E0,0E0,0E0,0E0],"parents":[2147483647,0,0,1,1,2,2,3,3,5,5,6,6],"right_children":[2,4,6,8,-1,10,12,-1,-1,-1,-1,-1,-1],"split_conditions":[1E0,1E0,1E0,1E0,-0E0,1E0,1E0,-6.023602E-2,-2.1383945E-2,-9.950473E-4,-0E0,1.3050364E-2,4.572142E-2],"split_indices":[0,2,1,1,0,2,2,0,0,0,0,0,0],"split_type":[0,0,0,0,0,0,0,0,0,0,0,0,0],"sum_hessian":[2.0746516E2,9.718188E1,1.1028328E2,8.302671E1,1.415517E1,3.2495247E1,7.778803E1,3.973318E1,4.3293526E1,2.6995247E1,5.5E0,5.9658413E1,1.8129622E1],"tree_param":{"num_deleted":"0","num_feature":"3","num_nodes":"13","size_leaf_vector":"1"}},{"base_weights":[3.976976E-2,3.5393126E-2,-6.568018E-2,-0E0,-2.1441026E-2,8.0654817E-4,-0E0],"categories":[],"categories_nodes":[],"categories_segments":[],"categories_sizes":[],"default_left":[0,0,0,0,0,0,0],"id":14,"left_children":[1,-1,3,5,-1,-1,-1],"loss_changes":[3.1480594E0,0E0,4.215537E-1,4.6340612E-4,0E0,0E0,0E0],"parents":[2147483647,0,0,2,2,3,3],"right_children":[2,-1,4,6,-1,-1,-1],"split_conditions":[1E0,3.5393126E-2,1E0,1E0,-2.1441026E-2,8.0654817E-4,-0E0],"split_indices":[0,0,1,2,0,0,0],"split_type":[0,0,0,0,0,0,0],"sum_hessian":[2.033549E2,9.41145E1,1.09240395E2,3.2494507E1,7.674589E1,2.6994507E1,5.5E0],"tree_param":{"num_deleted":"0","num_feature":"3","num_nodes":"7","size_leaf_vector":"1"}},{"base_weights":[-3.976975E-2,-3.5393137E-2,6.5680265E-2,-0E0,2.144104E-2,-8.065255E-4,-0E0],"categories":[],"categories_nodes":[],"categories_segments":[],"categories_sizes":[],"default_left":[0,0,0,0,0,0,0],"id":15,"left_children":[1,-1,3,5,-1,-1,-1],"loss_changes":[3.1480632E0,0E0,4.2155385E-1,4.6338016E-4,0E0,0E0,0E0],"parents":[2147483647,0,0,2,2,3,3],"right_children":[2,-1,4,6,-1,-1,-1],"split_conditions":[1E0,-3.5393137E-2,1E0,1E0,2.144104E-2,-8.065255E-4,-0E0],"split_indices":[0,0,1,2,0,0,0],"split_type":[0,0,0,0,0,0,0],"sum_hessian":[2.033549E2,9.41145E1,1.09240395E2,3.2494507E1,7.674589E1,2.6994507E1,5.5E0],"tree_param":{"num_deleted":"0","num_feature":"3","num_nodes":"7","size_leaf_vector":"1"}},{"base_weights":[3.218315E-2,1.4669374E-1,-5.1561028E-2,2.0435353E-1,1.0699379E-2,-4.095195E-3,-3.1526413E-2,4.7441296E-2,-0E0,6.5373216E-4,-6.4835954E-3],"categories":[],"categories_nodes":[],"categories_segments":[],"categories_sizes":[],"default_left":[0,0,0,0,0,0,0,0,0,0,0],"id":16,"left_children":[1,3,5,7,-1,9,-1,-1,-1,-1,-1],"loss_changes":[2.0837557E0,9.634948E-2,3.0911922E-1,1.2992406E-1,0E0,6.2058557E-2,0E0,0E0,0E0,0E0,0E0],"parents":[2147483647,0,0,1,1,2,2,3,3,5,5],"right_children":[2,4,6,8,-1,10,-1,-1,-1,-1,-1],"split_conditions":[1E0,1E0,1E0,1E0,1.0699379E-2,1E0,-3.1526413E-2,4.7441296E-2,-0E0,6.5373216E-4,-6.4835954E-3],"split_indices":[0,1,2,2,0,1,0,0,0,0,0],"split_type":[0,0,0,0,0,0,0,0,0,0,0],"sum_hessian":[1.997297E2,9.145695E1,1.0827275E2,4.5452183E1,4.6004765E1,8.5646225E1,2.262653E1,3.5656197E1,9.795988E0,2.6993868E1,5.8652355E1],"tree_param":{"num_deleted":"0","num_feature":"3","num_nodes":"11","size_leaf_vector":"1"}},{"base_weights":[-3.218318E-2,-1.4669378E-1,5.1561013E-2,-2.0435354E-1,-1.0699394E-2,4.0951665E-3,3.1526424E-2,-4.74413E-2,-0E0,-6.5373216E-4,6.483588E-3],"categories":[],"categories_nodes":[],"categories_segments":[],"categories_sizes":[],"default_left":[0,0,0,0,0,0,0,0,0,0,0],"id":17,"left_children":[1,3,5,7,-1,9,-1,-1,-1,-1,-1],"loss_changes":[2.0837564E0,9.634924E-2,3.0911958E-1,1.299243E-1,0E0,6.205842E-2,0E0,0E0,0E0,0E0,0E0],"parents":[2147483647,0,0,1,1,2,2,3,3,5,5],"right_children":[2,4,6,8,-1,10,-1,-1,-1,-1,-1],"split_conditions":[1E0,1E0,1E0,1E0,-1.0699394E-2,1E0,3.1526424E-2,-4.74413E-2,-0E0,-6.5373216E-4,6.483588E-3],"split_indices":[0,1,2,2,0,1,0,0,0,0,0],"split_type":[0,0,0,0,0,0,0,0,0,0,0],"sum_hessian":[1.997297E2,9.1456955E1,1.0827275E2,4.5452187E1,4.6004765E1,8.564622E1,2.2626532E1,3.56562E1,9.795988E0,2.6993868E1,5.865235E1],"tree_param":{"num_deleted":"0","num_feature":"3","num_nodes":"11","size_leaf_vector":"1"}},{"base_weights":[2.729245E-2,1.2690955E-1,-4.2105157E-2,1.769363E-1,8.69109E-3,-0E0,-7.6273344E-2,4.0805947E-2,-0E0,5.298709E-4,-0E0,-5.238947E-3,-3.056168E-2],"categories":[],"categories_nodes":[],"categories_segments":[],"categories_sizes":[],"default_left":[0,0,0,0,0,0,0,0,0,0,0,0,0],"id":18,"left_children":[1,3,5,7,-1,9,11,-1,-1,-1,-1,-1,-1],"loss_changes":[1.505434E0,3.625703E-2,2.52169E-1,5.604458E-2,0E0,1.9999694E-4,1.9019574E-2,0E0,0E0,0E0,0E0,0E0,0E0],"parents":[2147483647,0,0,1,1,2,2,3,3,5,5,6,6],"right_children":[2,4,6,8,-1,10,12,-1,-1,-1,-1,-1,-1],"split_conditions":[1E0,1E0,1E0,1E0,8.69109E-3,1E0,1E0,4.0805947E-2,-0E0,5.298709E-4,-0E0,-5.238947E-3,-3.056168E-2],"split_indices":[0,1,1,2,0,2,2,0,0,0,0,0,0],"split_type":[0,0,0,0,0,0,0,0,0,0,0,0,0],"sum_hessian":[1.967026E2,8.913083E1,1.0757177E2,4.343777E1,4.5693058E1,3.248786E1,7.508391E1,3.3641785E1,9.795988E0,2.6993326E1,5.4945374E0,5.8450607E1,1.66333E1],"tree_param":{"num_deleted":"0","num_feature":"3","num_nodes":"13","size_leaf_vector":"1"}},{"base_weights":[-2.7292488E-2,-1.2690963E-1,4.210515E-2,-1.7693642E-1,-8.69109E-3,-0E0,7.627333E-2,-4.0805977E-2,-0E0,-5.298709E-4,-0E0,5.238947E-3,3.056167E-2],"categories":[],"categories_nodes":[],"categories_segments":[],"categories_sizes":[],"default_left":[0,0,0,0,0,0,0,0,0,0,0,0,0],"id":19,"left_children":[1,3,5,7,-1,9,11,-1,-1,-1,-1,-1,-1],"loss_changes":[1.505435E0,3.6257625E-2,2.5216895E-1,5.6045055E-2,0E0,1.9999694E-4,1.9019455E-2,0E0,0E0,0E0,0E0,0E0,0E0],"parents":[2147483647,0,0,1,1,2,2,3,3,5,5,6,6],"right_children":[2,4,6,8,-1,10,12,-1,-1,-1,-1,-1,-1],"split_conditions":[1E0,1E0,1E0,1E0,-8.69109E-3,1E0,1E0,-4.0805977E-2,-0E0,-5.298709E-4,-0E0,5.238947E-3,3.056167E-2],"split_indices":[0,1,1,2,0,2,2,0,0,0,0,0,0],"split_type":[0,0,0,0,0,0,0,0,0,0,0,0,0],"sum_hessian":[1.967026E2,8.913084E1,1.0757177E2,4.343778E1,4.5693058E1,3.248786E1,7.508391E1,3.364179E1,9.795988E0,2.6993326E1,5.4945374E0,5.8450607E1,1.6633299E1],"tree_param":{"num_deleted":"0","num_feature":"3","num_nodes":"13","size_leaf_vector":"1"}},{"base_weights":[2.2845319E-2,2.2034815E-2,-3.5050683E-2,-0E0,-1.326126E-2,4.2950019E-4,-0E0],"categories":[],"categories_nodes":[],"categories_segments":[],"categories_sizes":[],"default_left":[0,0,0,0,0,0,0],"id":20,"left_children":[1,-1,3,5,-1,-1,-1],"loss_changes":[1.107318E0,0E0,2.006312E-1,1.3140227E-4,0E0,0E0,0E0],"parents":[2147483647,0,0,2,2,3,3],"right_children":[2,-1,4,6,-1,-1,-1],"split_conditions":[1E0,2.2034815E-2,1E0,1E0,-1.326126E-2,4.2950019E-4,-0E0],"split_indices":[0,0,1,2,0,0,0],"split_type":[0,0,0,0,0,0,0],"sum_hessian":[1.9407817E2,8.716099E1,1.0691718E2,3.2487408E1,7.442978E1,2.6992868E1,5.4945374E0],"tree_param":{"num_deleted":"0","num_feature":"3","num_nodes":"7","size_leaf_vector":"1"}},{"base_weights":[-2.2845278E-2,-2.2034809E-2,3.5050735E-2,-0E0,1.3261266E-2,-4.294776E-4,-0E0],"categories":[],"categories_nodes":[],"categories_segments":[],"categories_sizes":[],"default_left":[0,0,0,0,0,0,0],"id":21,"left_children":[1,-1,3,5,-1,-1,-1],"loss_changes":[1.1073183E0,0E0,2.0063116E-1,1.3138846E-4,0E0,0E0,0E0],"parents":[2147483647,0,0,2,2,3,3],"right_children":[2,-1,4,6,-1,-1,-1],"split_conditions":[1E0,-2.2034809E-2,1E0,1E0,1.3261266E-2,-4.294776E-4,-0E0],"split_indices":[0,0,1,2,0,0,0],"split_type":[0,0,0,0,0,0,0],"sum_hessian":[1.9407817E2,8.716099E1,1.0691718E2,3.2487404E1,7.442978E1,2.6992867E1,5.4945374E0],"tree_param":{"num_deleted":"0","num_feature":"3","num_nodes":"7","size_leaf_vector":"1"}},{"base_weights":[1.8306628E-2,9.046166E-2,-2.624919E-2,1.3520044E-1,1.4290245E-2,-0E0,-2.0798093E-2,3.1605225E-2,-0E0,3.1124428E-3,-0E0,3.4810344E-4,-1.6663192E-3],"categories":[],"categories_nodes":[],"categories_segments":[],"categories_sizes":[],"default_left":[0,0,0,0,0,0,0,0,0,0,0,0,0],"id":22,"left_children":[1,3,5,7,9,11,-1,-1,-1,-1,-1,-1,-1],"loss_changes":[7.210968E-1,6.91998E-2,1.7365608E-1,4.0694594E-2,7.8722555E-4,4.206402E-3,0E0,0E0,0E0,0E0,0E0,0E0,0E0],"parents":[2147483647,0,0,1,1,2,2,3,3,4,4,5,5],"right_children":[2,4,6,8,10,12,-1,-1,-1,-1,-1,-1,-1],"split_conditions":[1E0,1E0,1E0,1E0,1E0,1E0,-2.0798093E-2,3.1605225E-2,-0E0,3.1124428E-3,-0E0,3.4810344E-4,-1.6663192E-3],"split_indices":[0,1,2,2,2,1,0,0,0,0,0,0,0],"split_type":[0,0,0,0,0,0,0,0,0,0,0,0,0],"sum_hessian":[1.9172876E2,8.545712E1,1.06271645E2,4.0698357E1,4.475877E1,8.48465E1,2.1425144E1,3.1017887E1,9.6804695E0,4.0756474E1,4.002294E0,2.6992487E1,5.785401E1],"tree_param":{"num_deleted":"0","num_feature":"3","num_nodes":"13","size_leaf_vector":"1"}},{"base_weights":[-1.830667E-2,-9.0461686E-2,2.6249148E-2,-1.3520056E-1,-1.42901745E-2,-0E0,2.0798093E-2,-3.1605255E-2,-0E0,-3.1124258E-3,-0E0,-3.4811997E-4,1.6663108E-3],"categories":[],"categories_nodes":[],"categories_segments":[],"categories_sizes":[],"default_left":[0,0,0,0,0,0,0,0,0,0,0,0,0],"id":23,"left_children":[1,3,5,7,9,11,-1,-1,-1,-1,-1,-1,-1],"loss_changes":[7.210967E-1,6.9200754E-2,1.7365631E-1,4.0694892E-2,7.8720506E-4,4.2063696E-3,0E0,0E0,0E0,0E0,0E0,0E0,0E0],"parents":[2147483647,0,0,1,1,2,2,3,3,4,4,5,5],"right_children":[2,4,6,8,10,12,-1,-1,-1,-1,-1,-1,-1],"split_conditions":[1E0,1E0,1E0,1E0,1E0,1E0,2.0798093E-2,-3.1605255E-2,-0E0,-3.1124258E-3,-0E0,-3.4811997E-4,1.6663108E-3],"split_indices":[0,1,2,2,2,1,0,0,0,0,0,0,0],"split_type":[0,0,0,0,0,0,0,0,0,0,0,0,0],"sum_hessian":[1.9172878E2,8.545714E1,1.0627164E2,4.0698368E1,4.475877E1,8.484649E1,2.1425144E1,3.1017899E1,9.6804695E0,4.0756474E1,4.002294E0,2.6992485E1,5.7854008E1],"tree_param":{"num_deleted":"0","num_feature":"3","num_nodes":"13","size_leaf_vector":"1"}},{"base_weights":[1.5564649E-2,7.9224445E-2,-2.142133E-2,1.1600491E-1,1.15733985E-2,-0E0,-4.8439667E-2,2.6764784E-2,-0E0,2.518039E-3,-0E0,2.8215765E-4,-0E0,-1.342879E-3,-2.0237925E-2],"categories":[],"categories_nodes":[],"categories_segments":[],"categories_sizes":[],"default_left":[0,0,0,0,0,0,0,0,0,0,0,0,0,0,0],"id":24,"left_children":[1,3,5,7,9,11,13,-1,-1,-1,-1,-1,-1,-1,-1],"loss_changes":[5.400089E-1,1.955229E-2,1.264554E-1,8.738697E-3,4.9994E-4,5.670864E-5,1.959771E-3,0E0,0E0,0E0,0E0,0E0,0E0,0E0,0E0],"parents":[2147483647,0,0,1,1,2,2,3,3,4,4,5,5,6,6],"right_children":[2,4,6,8,10,12,14,-1,-1,-1,-1,-1,-1,-1,-1],"split_conditions":[1E0,1E0,1E0,1E0,1E0,1E0,1E0,2.6764784E-2,-0E0,2.518039E-3,-0E0,2.8215765E-4,-0E0,-1.342879E-3,-2.0237925E-2],"split_indices":[0,1,1,2,2,2,2,0,0,0,0,0,0,0,0],"split_type":[0,0,0,0,0,0,0,0,0,0,0,0,0,0,0],"sum_hessian":[1.8994395E2,8.407611E1,1.0586784E2,3.940675E1,4.4669357E1,3.247714E1,7.339071E1,2.972628E1,9.6804695E0,4.0667065E1,4.002294E0,2.6992168E1,5.4849696E0,5.779878E1,1.5591926E1],"tree_param":{"num_deleted":"0","num_feature":"3","num_nodes":"15","size_leaf_vector":"1"}},{"base_weights":[-1.5564641E-2,-7.922444E-2,2.142133E-2,-1.1600491E-1,-1.1573366E-2,-0E0,4.843968E-2,-2.6764784E-2,-0E0,-2.51803E-3,-0E0,-2.821637E-4,-0E0,1.342879E-3,2.0237936E-2],"categories":[],"categories_nodes":[],"categories_segments":[],"categories_sizes":[],"default_left":[0,0,0,0,0,0,0,0,0,0,0,0,0,0,0],"id":25,"left_children":[1,3,5,7,9,11,13,-1,-1,-1,-1,-1,-1,-1,-1],"loss_changes":[5.400087E-1,1.955247E-2,1.264555E-1,8.738697E-3,4.9992744E-4,5.6711076E-5,1.9598603E-3,0E0,0E0,0E0,0E0,0E0,0E0,0E0,0E0],"parents":[2147483647,0,0,1,1,2,2,3,3,4,4,5,5,6,6],"right_children":[2,4,6,8,10,12,14,-1,-1,-1,-1,-1,-1,-1,-1],"split_conditions":[1E0,1E0,1E0,1E0,1E0,1E0,1E0,-2.6764784E-2,-0E0,-2.51803E-3,-0E0,-2.821637E-4,-0E0,1.342879E-3,2.0237936E-2],"split_indices":[0,1,1,2,2,2,2,0,0,0,0,0,0,0,0],"split_type":[0,0,0,0,0,0,0,0,0,0,0,0,0,0,0],"sum_hessian":[1.8994395E2,8.40761E1,1.0586784E2,3.940675E1,4.4669353E1,3.247714E1,7.339071E1,2.972628E1,9.6804695E0,4.066706E1,4.002294E0,2.699217E1,5.484969E0,5.779878E1,1.5591927E1],"tree_param":{"num_deleted":"0","num_feature":"3","num_nodes":"15","size_leaf_vector":"1"}},{"base_weights":[1.3049969E-2,1.39675215E-2,-1.7924827E-2,-0E0,-8.690694E-3,2.2870417E-4,-0E0],"categories":[],"categories_nodes":[],"categories_segments":[],"categories_sizes":[],"default_left":[0,0,0,0,0,0,0],"id":26,"left_children":[1,-1,3,5,-1,-1,-1],"loss_changes":[4.1381133E-1,0E0,1.0632182E-1,3.7257156E-5,0E0,0E0,0E0],"parents":[2147483647,0,0,2,2,3,3],"right_children":[2,-1,4,6,-1,-1,-1],"split_conditions":[1E0,1.39675215E-2,1E0,1E0,-8.690694E-3,2.2870417E-4,-0E0],"split_indices":[0,0,1,2,0,0,0],"split_type":[0,0,0,0,0,0,0],"sum_hessian":[1.884188E2,8.292773E1,1.0549106E2,3.247688E1,7.301418E1,2.6991909E1,5.4849696E0],"tree_param":{"num_deleted":"0","num_feature":"3","num_nodes":"7","size_leaf_vector":"1"}},{"base_weights":[-1.3049929E-2,-1.3967501E-2,1.7924808E-2,-0E0,8.690689E-3,-2.2870417E-4,-0E0],"categories":[],"categories_nodes":[],"categories_segments":[],"categories_sizes":[],"default_left":[0,0,0,0,0,0,0],"id":27,"left_children":[1,-1,3,5,-1,-1,-1],"loss_changes":[4.138101E-1,0E0,1.0632174E-1,3.7257156E-5,0E0,0E0,0E0],"parents":[2147483647,0,0,2,2,3,3],"right_children":[2,-1,4,6,-1,-1,-1],"split_conditions":[1E0,-1.3967501E-2,1E0,1E0,8.690689E-3,-2.2870417E-4,-0E0],"split_indices":[0,0,1,2,0,0,0],"split_type":[0,0,0,0,0,0,0],"sum_hessian":[1.8841878E2,8.292772E1,1.0549106E2,3.247688E1,7.3014175E1,2.6991909E1,5.484969E0],"tree_param":{"num_deleted":"0","num_feature":"3","num_nodes":"7","size_leaf_vector":"1"}},{"base_weights":[1.0372004E-2,6.623013E-2,-1.0936616E-2,1.6002452E-2,-0E0,-0E0,-3.5168845E-2,-0E0,-1.547004E-2],"categories":[],"categories_nodes":[],"categories_segments":[],"categories_sizes":[],"default_left":[0,0,0,0,0,0,0,0,0],"id":28,"left_children":[1,3,5,-1,-1,-1,7,-1,-1],"loss_changes":[3.0827752E-1,4.7870755E-2,7.748226E-2,0E0,0E0,0E0,7.797189E-3,0E0,0E0],"parents":[2147483647,0,0,1,1,2,2,6,6],"right_children":[2,4,6,-1,-1,-1,8,-1,-1],"split_conditions":[1E0,1E0,1E0,1.6002452E-2,-0E0,-0E0,1E0,-0E0,-1.547004E-2],"split_indices":[1,2,0,0,0,0,2,0,0],"split_type":[0,0,0,0,0,0,0,0,0],"sum_hessian":[1.8690488E2,7.017663E1,1.1672824E2,5.508817E1,1.5088461E1,4.4150017E1,7.2578224E1,5.7461178E1,1.5117048E1],"tree_param":{"num_deleted":"0","num_feature":"3","num_nodes":"9","size_leaf_vector":"1"}},{"base_weights":[-1.0371958E-2,-6.623009E-2,1.0936659E-2,-1.600244E-2,-0E0,-0E0,3.5168856E-2,-0E0,1.5470022E-2],"categories":[],"categories_nodes":[],"categories_segments":[],"categories_sizes":[],"default_left":[0,0,0,0,0,0,0,0,0],"id":29,"left_children":[1,3,5,-1,-1,-1,7,-1,-1],"loss_changes":[3.0827737E-1,4.7870666E-2,7.748221E-2,0E0,0E0,0E0,7.7968985E-3,0E0,0E0],"parents":[2147483647,0,0,1,1,2,2,6,6],"right_children":[2,4,6,-1,-1,-1,8,-1,-1],"split_conditions":[1E0,1E0,1E0,-1.600244E-2,-0E0,-0E0,1E0,-0E0,1.5470022E-2],"split_indices":[1,2,0,0,0,0,2,0,0],"split_type":[0,0,0,0,0,0,0,0,0],"sum_hessian":[1.8690488E2,7.017663E1,1.1672825E2,5.5088165E1,1.508846E1,4.4150017E1,7.257823E1,5.746118E1,1.5117048E1],"tree_param":{"num_deleted":"0","num_feature":"3","num_nodes":"9","size_leaf_vector":"1"}},{"base_weights":[6.9849426E-3,5.199214E-2,-1.4031204E-2,1.5496607E-2,-0E0,-0E0,-6.429858E-3],"categories":[],"categories_nodes":[],"categories_segments":[],"categories_sizes":[],"default_left":[0,0,0,0,0,0,0],"id":30,"left_children":[1,3,5,-1,-1,-1,-1],"loss_changes":[2.353871E-1,7.957682E-3,5.5378392E-2,0E0,0E0,0E0,0E0],"parents":[2147483647,0,0,1,1,2,2],"right_children":[2,4,6,-1,-1,-1,-1],"split_conditions":[1E0,1E0,1E0,1.5496607E-2,-0E0,-0E0,-6.429858E-3],"split_indices":[0,1,1,0,0,0,0],"split_type":[0,0,0,0,0,0,0],"sum_hessian":[1.8599928E2,8.1221634E1,1.0477764E2,3.7071617E1,4.4150017E1,3.2454613E1,7.232303E1],"tree_param":{"num_deleted":"0","num_feature":"3","num_nodes":"7","size_leaf_vector":"1"}},{"base_weights":[-6.984919E-3,-5.1992092E-2,1.4031207E-2,-1.5496607E-2,-0E0,-0E0,6.4298618E-3],"categories":[],"categories_nodes":[],"categories_segments":[],"categories_sizes":[],"default_left":[0,0,0,0,0,0,0],"id":31,"left_children":[1,3,5,-1,-1,-1,-1],"loss_changes":[2.3538676E-1,7.958114E-3,5.5378467E-2,0E0,0E0,0E0,0E0],"parents":[2147483647,0,0,1,1,2,2],"right_children":[2,4,6,-1,-1,-1,-1],"split_conditions":[1E0,1E0,1E0,-1.5496607E-2,-0E0,-0E0,6.4298618E-3],"split_indices":[0,1,1,0,0,0,0],"split_type":[0,0,0,0,0,0,0],"sum_hessian":[1.8599928E2,8.1221634E1,1.0477764E2,3.7071617E1,4.4150017E1,3.2454613E1,7.232303E1],"tree_param":{"num_deleted":"0","num_feature":"3","num_nodes":"7","size_leaf_vector":"1"}},{"base_weights":[6.459146E-3,4.54916E-2,-9.695319E-3,1.0211787E-2,-0E0,-0E0,-1.076975E-2],"categories":[],"categories_nodes":[],"categories_segments":[],"categories_sizes":[],"default_left":[0,0,0,0,0,0,0],"id":32,"left_children":[1,3,5,-1,-1,-1,-1],"loss_changes":[1.7194188E-1,8.953229E-3,5.3081628E-2,0E0,0E0,0E0,0E0],"parents":[2147483647,0,0,1,1,2,2],"right_children":[2,4,6,-1,-1,-1,-1],"split_conditions":[1E0,1E0,1E0,1.0211787E-2,-0E0,-0E0,-1.076975E-2],"split_indices":[0,2,2,0,0,0,0],"split_type":[0,0,0,0,0,0,0],"sum_hessian":[1.8498195E2,8.053139E1,1.0445057E2,6.7051956E1,1.3479426E1,8.4209984E1,2.0240582E1],"tree_param":{"num_deleted":"0","num_feature":"3","num_nodes":"7","size_leaf_vector":"1"}},{"base_weights":[-6.459161E-3,-4.549161E-2,9.6953055E-3,-1.0211791E-2,-0E0,-0E0,1.0769766E-2],"categories":[],"categories_nodes":[],"categories_segments":[],"categories_sizes":[],"default_left":[0,0,0,0,0,0,0],"id":33,"left_children":[1,3,5,-1,-1,-1,-1],"loss_changes":[1.7194195E-1,8.953229E-3,5.3081848E-2,0E0,0E0,0E0,0E0],"parents":[2147483647,0,0,1,1,2,2],"right_children":[2,4,6,-1,-1,-1,-1],"split_conditions":[1E0,1E0,1E0,-1.0211791E-2,-0E0,-0E0,1.0769766E-2],"split_indices":[0,2,2,0,0,0,0],"split_type":[0,0,0,0,0,0,0],"sum_hessian":[1.8498195E2,8.053139E1,1.0445056E2,6.705196E1,1.3479427E1,8.4209984E1,2.0240583E1],"tree_param":{"num_deleted":"0","num_feature":"3","num_nodes":"7","size_leaf_vector":"1"}},{"base_weights":[3.988977E-3,4.4159442E-2,-7.2378586E-3,1.0767619E-2,-0E0,-0E0,-4.777621E-3],"categories":[],"categories_nodes":[],"categories_segments":[],"categories_sizes":[],"default_left":[0,0,0,0,0,0,0],"id":34,"left_children":[1,3,5,-1,-1,-1,-1],"loss_changes":[1.3956486E-1,2.287598E-2,3.570044E-2,0E0,0E0,0E0,0E0],"parents":[2147483647,0,0,1,1,2,2],"right_children":[2,4,6,-1,-1,-1,-1],"split_conditions":[1E0,1E0,1E0,1.0767619E-2,-0E0,-0E0,-4.777621E-3],"split_indices":[1,2,0,0,0,0,0],"split_type":[0,0,0,0,0,0,0],"sum_hessian":[1.840996E2,6.843661E1,1.1566299E2,5.3443615E1,1.49929905E1,4.3845123E1,7.181786E1],"tree_param":{"num_deleted":"0","num_feature":"3","num_nodes":"7","size_leaf_vector":"1"}},{"base_weights":[-3.9889645E-3,-4.415937E-2,7.2378335E-3,-1.07676005E-2,-0E0,-0E0,4.7776117E-3],"categories":[],"categories_nodes":[],"categories_segments":[],"categories_sizes":[],"default_left":[0,0,0,0,0,0,0],"id":35,"left_children":[1,3,5,-1,-1,-1,-1],"loss_changes":[1.3956438E-1,2.287583E-2,3.5700317E-2,0E0,0E0,0E0,0E0],"parents":[2147483647,0,0,1,1,2,2],"right_children":[2,4,6,-1,-1,-1,-1],"split_conditions":[1E0,1E0,1E0,-1.07676005E-2,-0E0,-0E0,4.7776117E-3],"split_indices":[1,2,0,0,0,0,0],"split_type":[0,0,0,0,0,0,0],"sum_hessian":[1.8409958E2,6.84366E1,1.1566298E2,5.3443607E1,1.4992992E1,4.3845123E1,7.1817856E1],"tree_param":{"num_deleted":"0","num_feature":"3","num_nodes":"7","size_leaf_vector":"1"}},{"base_weights":[2.7565695E-3,3.420191E-2,-7.1848594E-3,7.520868E-3,-0E0,-0E0,-8.234568E-3],"categories":[],"categories_nodes":[],"categories_segments":[],"categories_sizes":[],"default_left":[0,0,0,0,0,0,0],"id":36,"left_children":[1,3,5,-1,-1,-1,-1],"loss_changes":[9.870265E-2,7.0979446E-4,3.096122E-2,0E0,0E0,0E0,0E0],"parents":[2147483647,0,0,1,1,2,2],"right_children":[2,4,6,-1,-1,-1,-1],"split_conditions":[1E0,1E0,1E0,7.520868E-3,-0E0,-0E0,-8.234568E-3],"split_indices":[0,2,2,0,0,0,0],"split_type":[0,0,0,0,0,0,0],"sum_hessian":[1.8342108E2,7.942338E1,1.0399771E2,6.594395E1,1.3479426E1,8.402108E1,1.997663E1],"tree_param":{"num_deleted":"0","num_feature":"3","num_nodes":"7","size_leaf_vector":"1"}},{"base_weights":[-2.7565877E-3,-3.420189E-2,7.184813E-3,-7.5208643E-3,-0E0,-0E0,8.23459E-3],"categories":[],"categories_nodes":[],"categories_segments":[],"categories_sizes":[],"default_left":[0,0,0,0,0,0,0],"id":37,"left_children":[1,3,5,-1,-1,-1,-1],"loss_changes":[9.870245E-2,7.09787E-4,3.0961495E-2,0E0,0E0,0E0,0E0],"parents":[2147483647,0,0,1,1,2,2],"right_children":[2,4,6,-1,-1,-1,-1],"split_conditions":[1E0,1E0,1E0,-7.5208643E-3,-0E0,-0E0,8.23459E-3],"split_indices":[0,2,2,0,0,0,0],"split_type":[0,0,0,0,0,0,0],"sum_hessian":[1.8342108E2,7.942338E1,1.039977E2,6.594395E1,1.3479427E1,8.402107E1,1.9976633E1],"tree_param":{"num_deleted":"0","num_feature":"3","num_nodes":"7","size_leaf_vector":"1"}},{"base_weights":[9.74816E-4,3.417521E-2,-5.883426E-3,8.077232E-3,-0E0,-0E0,-1.7687587E-2,-0E0,-7.7162716E-3],"categories":[],"categories_nodes":[],"categories_segments":[],"categories_sizes":[],"default_left":[0,0,0,0,0,0,0,0,0],"id":38,"left_children":[1,3,5,-1,-1,-1,7,-1,-1],"loss_changes":[8.4696084E-2,7.6078996E-3,1.8783674E-2,0E0,0E0,0E0,7.930603E-4,0E0,0E0],"parents":[2147483647,0,0,1,1,2,2,6,6],"right_children":[2,4,6,-1,-1,-1,8,-1,-1],"split_conditions":[1E0,1E0,1E0,8.077232E-3,-0E0,-0E0,1E0,-0E0,-7.7162716E-3],"split_indices":[1,2,0,0,0,0,2,0,0],"split_type":[0,0,0,0,0,0,0,0,0],"sum_hessian":[1.827665E2,6.7712776E1,1.1505373E2,5.2725838E1,1.4986939E1,4.3617508E1,7.143622E1,5.7074024E1,1.436219E1],"tree_param":{"num_deleted":"0","num_feature":"3","num_nodes":"9","size_leaf_vector":"1"}},{"base_weights":[-9.7489706E-4,-3.4175236E-2,5.883314E-3,-8.077237E-3,-0E0,-0E0,1.7687479E-2,-0E0,7.7162655E-3],"categories":[],"categories_nodes":[],"categories_segments":[],"categories_sizes":[],"default_left":[0,0,0,0,0,0,0,0,0],"id":39,"left_children":[1,3,5,-1,-1,-1,7,-1,-1],"loss_changes":[8.4696025E-2,7.607892E-3,1.8783547E-2,0E0,0E0,0E0,7.9330057E-4,0E0,0E0],"parents":[2147483647,0,0,1,1,2,2,6,6],"right_children":[2,4,6,-1,-1,-1,8,-1,-1],"split_conditions":[1E0,1E0,1E0,-8.077237E-3,-0E0,-0E0,1E0,-0E0,7.7162655E-3],"split_indices":[1,2,0,0,0,0,2,0,0],"split_type":[0,0,0,0,0,0,0,0,0],"sum_hessian":[1.8276651E2,6.771278E1,1.1505372E2,5.272584E1,1.498694E1,4.3617516E1,7.14362E1,5.7074017E1,1.4362189E1],"tree_param":{"num_deleted":"0","num_feature":"3","num_nodes":"9","size_leaf_vector":"1"}},{"base_weights":[-0E0,2.5799198E-2,-6.666089E-3,8.015241E-3,-0E0,-0E0,-3.2406535E-3],"categories":[],"categories_nodes":[],"categories_segments":[],"categories_sizes":[],"default_left":[0,0,0,0,0,0,0],"id":40,"left_children":[1,3,5,-1,-1,-1,-1],"loss_changes":[5.7994418E-2,5.287111E-3,1.444053E-2,0E0,0E0,0E0,0E0],"parents":[2147483647,0,0,1,1,2,2],"right_children":[2,4,6,-1,-1,-1,-1],"split_conditions":[1E0,1E0,1E0,8.015241E-3,-0E0,-0E0,-3.2406535E-3],"split_indices":[0,1,1,0,0,0,0],"split_type":[0,0,0,0,0,0,0],"sum_hessian":[1.8231406E2,7.86074E1,1.0370665E2,3.498989E1,4.3617508E1,3.239814E1,7.130851E1],"tree_param":{"num_deleted":"0","num_feature":"3","num_nodes":"7","size_leaf_vector":"1"}},{"base_weights":[-0E0,-2.5799247E-2,6.666018E-3,-8.015235E-3,-0E0,-0E0,3.240633E-3],"categories":[],"categories_nodes":[],"categories_segments":[],"categories_sizes":[],"default_left":[0,0,0,0,0,0,0],"id":41,"left_children":[1,3,5,-1,-1,-1,-1],"loss_changes":[5.7994515E-2,5.2868277E-3,1.4440389E-2,0E0,0E0,0E0,0E0],"parents":[2147483647,0,0,1,1,2,2],"right_children":[2,4,6,-1,-1,-1,-1],"split_conditions":[1E0,1E0,1E0,-8.015235E-3,-0E0,-0E0,3.240633E-3],"split_indices":[0,1,1,0,0,0,0],"split_type":[0,0,0,0,0,0,0],"sum_hessian":[1.8231404E2,7.860741E1,1.0370664E2,3.498989E1,4.3617516E1,3.239814E1,7.13085E1],"tree_param":{"num_deleted":"0","num_feature":"3","num_nodes":"7","size_leaf_vector":"1"}},{"base_weights":[-0E0,2.2412606E-2,-4.4793077E-3,4.9214805E-3,-0E0,-0E0,-5.3322925E-3],"categories":[],"categories_nodes":[],"categories_segments":[],"categories_sizes":[],"default_left":[0,0,0,0,0,0,0],"id":42,"left_children":[1,3,5,-1,-1,-1,-1],"loss_changes":[4.2173415E-2,9.771064E-5,1.2928713E-2,0E0,0E0,0E0,0E0],"parents":[2147483647,0,0,1,1,2,2],"right_children":[2,4,6,-1,-1,-1,-1],"split_conditions":[1E0,1E0,1E0,4.9214805E-3,-0E0,-0E0,-5.3322925E-3],"split_indices":[0,2,2,0,0,0,0],"split_type":[0,0,0,0,0,0,0],"sum_hessian":[1.8180005E2,7.826091E1,1.0353914E2,6.4828636E1,1.343227E1,8.388617E1,1.9652966E1],"tree_param":{"num_deleted":"0","num_feature":"3","num_nodes":"7","size_leaf_vector":"1"}},{"base_weights":[-0E0,-2.241258E-2,4.4792313E-3,-4.921473E-3,-0E0,-0E0,5.3322874E-3],"categories":[],"categories_nodes":[],"categories_segments":[],"categories_sizes":[],"default_left":[0,0,0,0,0,0,0],"id":43,"left_children":[1,3,5,-1,-1,-1,-1],"loss_changes":[4.2173244E-2,9.768456E-5,1.2928758E-2,0E0,0E0,0E0,0E0],"parents":[2147483647,0,0,1,1,2,2],"right_children":[2,4,6,-1,-1,-1,-1],"split_conditions":[1E0,1E0,1E0,-4.921473E-3,-0E0,-0E0,5.3322874E-3],"split_indices":[0,2,2,0,0,0,0],"split_type":[0,0,0,0,0,0,0],"sum_hessian":[1.8180003E2,7.82609E1,1.0353913E2,6.482863E1,1.343227E1,8.388616E1,1.9652966E1],"tree_param":{"num_deleted":"0","num_feature":"3","num_nodes":"7","size_leaf_vector":"1"}},{"base_weights":[-0E0,2.293119E-2,-3.999196E-3,5.3874804E-3,-0E0,-0E0,-2.40801E-3],"categories":[],"categories_nodes":[],"categories_segments":[],"categories_sizes":[],"default_left":[0,0,0,0,0,0,0],"id":44,"left_children":[1,3,5,-1,-1,-1,-1],"loss_changes":[3.779904E-2,2.818592E-3,8.661879E-3,0E0,0E0,0E0,0E0],"parents":[2147483647,0,0,1,1,2,2],"right_children":[2,4,6,-1,-1,-1,-1],"split_conditions":[1E0,1E0,1E0,5.3874804E-3,-0E0,-0E0,-2.40801E-3],"split_indices":[1,2,0,0,0,0,0],"split_type":[0,0,0,0,0,0,0],"sum_hessian":[1.8137442E2,6.685444E1,1.1451998E2,5.1918964E1,1.4935475E1,4.346721E1,7.105277E1],"tree_param":{"num_deleted":"0","num_feature":"3","num_nodes":"7","size_leaf_vector":"1"}},{"base_weights":[-0E0,-2.2931192E-2,3.999149E-3,-5.387475E-3,-0E0,-0E0,2.4079937E-3],"categories":[],"categories_nodes":[],"categories_segments":[],"categories_sizes":[],"default_left":[0,0,0,0,0,0,0],"id":45,"left_children":[1,3,5,-1,-1,-1,-1],"loss_changes":[3.7798997E-2,2.8185137E-3,8.661779E-3,0E0,0E0,0E0,0E0],"parents":[2147483647,0,0,1,1,2,2],"right_children":[2,4,6,-1,-1,-1,-1],"split_conditions":[1E0,1E0,1E0,-5.387475E-3,-0E0,-0E0,2.4079937E-3],"split_indices":[1,2,0,0,0,0,0],"split_type":[0,0,0,0,0,0,0],"sum_hessian":[1.8137442E2,6.685444E1,1.1451997E2,5.1918964E1,1.4935474E1,4.346721E1,7.1052765E1],"tree_param":{"num_deleted":"0","num_feature":"3","num_nodes":"7","size_leaf_vector":"1"}},{"base_weights":[-0E0,1.8907016E-2,-2.5285075E-3,4.359951E-3,-0E0,-0E0,-4.0839594E-3],"categories":[],"categories_nodes":[],"categories_segments":[],"categories_sizes":[],"default_left":[0,0,0,0,0,0,0],"id":46,"left_children":[1,3,5,-1,-1,-1,-1],"loss_changes":[2.5099069E-2,9.258948E-4,7.3971725E-3,0E0,0E0,0E0,0E0],"parents":[2147483647,0,0,1,1,2,2],"right_children":[2,4,6,-1,-1,-1,-1],"split_conditions":[1E0,1E0,1E0,4.359951E-3,-0E0,-0E0,-4.0839594E-3],"split_indices":[1,2,2,0,0,0,0],"split_type":[0,0,0,0,0,0,0],"sum_hessian":[1.8103426E2,6.663929E1,1.1439497E2,5.1703815E1,1.4935475E1,9.637758E1,1.8017391E1],"tree_param":{"num_deleted":"0","num_feature":"3","num_nodes":"7","size_leaf_vector":"1"}},{"base_weights":[-0E0,-1.8907126E-2,2.5284945E-3,-4.359973E-3,-0E0,-0E0,4.083944E-3],"categories":[],"categories_nodes":[],"categories_segments":[],"categories_sizes":[],"default_left":[0,0,0,0,0,0,0],"id":47,"left_children":[1,3,5,-1,-1,-1,-1],"loss_changes":[2.5099345E-2,9.2587434E-4,7.3971194E-3,0E0,0E0,0E0,0E0],"parents":[2147483647,0,0,1,1,2,2],"right_children":[2,4,6,-1,-1,-1,-1],"split_conditions":[1E0,1E0,1E0,-4.359973E-3,-0E0,-0E0,4.083944E-3],"split_indices":[1,2,2,0,0,0,0],"split_type":[0,0,0,0,0,0,0],"sum_hessian":[1.8103426E2,6.663929E1,1.14394966E2,5.170382E1,1.4935474E1,9.637758E1,1.801739E1],"tree_param":{"num_deleted":"0","num_feature":"3","num_nodes":"7","size_leaf_vector":"1"}},{"base_weights":[-0E0,3.1456116E-3,-3.8202265E-3,-0E0,-3.515288E-3],"categories":[],"categories_nodes":[],"categories_segments":[],"categories_sizes":[],"default_left":[0,0,0,0,0],"id":48,"left_children":[1,-1,3,-1,-1],"loss_changes":[2.1090334E-2,0E0,4.944695E-3,0E0,0E0],"parents":[2147483647,0,0,2,2],"right_children":[2,-1,4,-1,-1],"split_conditions":[1E0,3.1456116E-3,1E0,-0E0,-3.515288E-3],"split_indices":[0,0,2,0,0],"split_type":[0,0,0,0,0],"sum_hessian":[1.8080328E2,7.7579254E1,1.0322404E2,8.377099E1,1.9453049E1],"tree_param":{"num_deleted":"0","num_feature":"3","num_nodes":"5","size_leaf_vector":"1"}},{"base_weights":[-0E0,-3.1456233E-3,3.8202496E-3,-0E0,3.5153104E-3],"categories":[],"categories_nodes":[],"categories_segments":[],"categories_sizes":[],"default_left":[0,0,0,0,0],"id":49,"left_children":[1,-1,3,-1,-1],"loss_changes":[2.1090498E-2,0E0,4.94476E-3,0E0,0E0],"parents":[2147483647,0,0,2,2],"right_children":[2,-1,4,-1,-1],"split_conditions":[1E0,-3.1456233E-3,1E0,-0E0,3.5153104E-3],"split_indices":[0,0,2,0,0],"split_type":[0,0,0,0,0],"sum_hessian":[1.808033E2,7.757926E1,1.03224045E2,8.377099E1,1.9453054E1],"tree_param":{"num_deleted":"0","num_feature":"3","num_nodes":"5","size_leaf_vector":"1"}},{"base_weights":[-0E0,1.4380881E-2,-2.654956E-3,4.009023E-3,-0E0,-0E0,-1.6494085E-3],"categories":[],"categories_nodes":[],"categories_segments":[],"categories_sizes":[],"default_left":[0,0,0,0,0,0,0],"id":50,"left_children":[1,3,5,-1,-1,-1,-1],"loss_changes":[1.4842772E-2,2.2337586E-4,4.102162E-3,0E0,0E0,0E0,0E0],"parents":[2147483647,0,0,1,1,2,2],"right_children":[2,4,6,-1,-1,-1,-1],"split_conditions":[1E0,1E0,1E0,4.009023E-3,-0E0,-0E0,-1.6494085E-3],"split_indices":[1,0,0,0,0,0,0],"split_type":[0,0,0,0,0,0,0],"sum_hessian":[1.8050282E2,6.6327576E1,1.1417525E2,3.396676E1,3.2360817E1,4.3373154E1,7.080209E1],"tree_param":{"num_deleted":"0","num_feature":"3","num_nodes":"7","size_leaf_vector":"1"}},{"base_weights":[-0E0,-1.4381009E-2,2.654965E-3,-4.0090713E-3,-0E0,-0E0,1.6494014E-3],"categories":[],"categories_nodes":[],"categories_segments":[],"categories_sizes":[],"default_left":[0,0,0,0,0,0,0],"id":51,"left_children":[1,3,5,-1,-1,-1,-1],"loss_changes":[1.4843033E-2,2.2347178E-4,4.102114E-3,0E0,0E0,0E0,0E0],"parents":[2147483647,0,0,1,1,2,2],"right_children":[2,4,6,-1,-1,-1,-1],"split_conditions":[1E0,1E0,1E0,-4.0090713E-3,-0E0,-0E0,1.6494014E-3],"split_indices":[1,0,0,0,0,0,0],"split_type":[0,0,0,0,0,0,0],"sum_hessian":[1.8050282E2,6.632758E1,1.1417524E2,3.396677E1,3.2360817E1,4.3373154E1,7.080209E1],"tree_param":{"num_deleted":"0","num_feature":"3","num_nodes":"7","size_leaf_vector":"1"}},{"base_weights":[-0E0,1.2409524E-2,-1.6472177E-3,2.8785996E-3,-0E0,-0E0,-2.7423473E-3],"categories":[],"categories_nodes":[],"categories_segments":[],"categories_sizes":[],"default_left":[0,0,0,0,0,0,0],"id":52,"left_children":[1,3,5,-1,-1,-1,-1],"loss_changes":[1.0732542E-2,5.1226374E-4,3.3275953E-3,0E0,0E0,0E0,0E0],"parents":[2147483647,0,0,1,1,2,2],"right_children":[2,4,6,-1,-1,-1,-1],"split_conditions":[1E0,1E0,1E0,2.8785996E-3,-0E0,-0E0,-2.7423473E-3],"split_indices":[1,2,2,0,0,0,0],"split_type":[0,0,0,0,0,0,0],"sum_hessian":[1.8024626E2,6.615688E1,1.1408938E2,5.126724E1,1.4889648E1,9.622235E1,1.7867022E1],"tree_param":{"num_deleted":"0","num_feature":"3","num_nodes":"7","size_leaf_vector":"1"}},{"base_weights":[-0E0,-1.240962E-2,1.6472972E-3,-2.878624E-3,-0E0,-0E0,2.7423527E-3],"categories":[],"categories_nodes":[],"categories_segments":[],"categories_sizes":[],"default_left":[0,0,0,0,0,0,0],"id":53,"left_children":[1,3,5,-1,-1,-1,-1],"loss_changes":[1.0732734E-2,5.122917E-4,3.3275792E-3,0E0,0E0,0E0,0E0],"parents":[2147483647,0,0,1,1,2,2],"right_children":[2,4,6,-1,-1,-1,-1],"split_conditions":[1E0,1E0,1E0,-2.878624E-3,-0E0,-0E0,2.7423527E-3],"split_indices":[1,2,2,0,0,0,0],"split_type":[0,0,0,0,0,0,0],"sum_hessian":[1.8024628E2,6.61569E1,1.1408938E2,5.1267246E1,1.4889648E1,9.622235E1,1.7867023E1],"tree_param":{"num_deleted":"0","num_feature":"3","num_nodes":"7","size_leaf_vector":"1"}},{"base_weights":[-0E0,2.0494924E-3,-2.434307E-3,-0E0,-2.2959353E-3],"categories":[],"categories_nodes":[],"categories_segments":[],"categories_sizes":[],"default_left":[0,0,0,0,0],"id":54,"left_children":[1,-1,3,-1,-1],"loss_changes":[8.870238E-3,0E0,2.1242527E-3,0E0,0E0],"parents":[2147483647,0,0,2,2],"right_children":[2,-1,4,-1,-1],"split_conditions":[1E0,2.0494924E-3,1E0,-0E0,-2.2959353E-3],"split_indices":[0,0,2,0,0],"split_type":[0,0,0,0,0],"sum_hessian":[1.8009364E2,7.707176E1,1.0302189E2,8.370255E1,1.9319338E1],"tree_param":{"num_deleted":"0","num_feature":"3","num_nodes":"5","size_leaf_vector":"1"}},{"base_weights":[-0E0,-2.0494885E-3,2.4343468E-3,-0E0,2.2959353E-3],"categories":[],"categories_nodes":[],"categories_segments":[],"categories_sizes":[],"default_left":[0,0,0,0,0],"id":55,"left_children":[1,-1,3,-1,-1],"loss_changes":[8.870226E-3,0E0,2.1242325E-3,0E0,0E0],"parents":[2147483647,0,0,2,2],"right_children":[2,-1,4,-1,-1],"split_conditions":[1E0,-2.0494885E-3,1E0,-0E0,2.2959353E-3],"split_indices":[0,0,2,0,0],"split_type":[0,0,0,0,0],"sum_hessian":[1.8009364E2,7.707176E1,1.0302189E2,8.370255E1,1.9319338E1],"tree_param":{"num_deleted":"0","num_feature":"3","num_nodes":"5","size_leaf_vector":"1"}},{"base_weights":[-0E0,9.425304E-3,-1.7196849E-3,2.1393558E-3,-0E0,-0E0,-1.1360833E-3],"categories":[],"categories_nodes":[],"categories_segments":[],"categories_sizes":[],"default_left":[0,0,0,0,0,0,0],"id":56,"left_children":[1,3,5,-1,-1,-1,-1],"loss_changes":[6.3336985E-3,2.373103E-5,1.986117E-3,0E0,0E0,0E0,0E0],"parents":[2147483647,0,0,1,1,2,2],"right_children":[2,4,6,-1,-1,-1,-1],"split_conditions":[1E0,1E0,1E0,2.1393558E-3,-0E0,-0E0,-1.1360833E-3],"split_indices":[1,2,0,0,0,0,0],"split_type":[0,0,0,0,0,0,0],"sum_hessian":[1.7989798E2,6.5953156E1,1.1394483E2,5.107793E1,1.4875223E1,4.3311863E1,7.063297E1],"tree_param":{"num_deleted":"0","num_feature":"3","num_nodes":"7","size_leaf_vector":"1"}},{"base_weights":[-0E0,-9.425295E-3,1.7197301E-3,-2.1393534E-3,-0E0,-0E0,1.1360988E-3],"categories":[],"categories_nodes":[],"categories_segments":[],"categories_sizes":[],"default_left":[0,0,0,0,0,0,0],"id":57,"left_children":[1,3,5,-1,-1,-1,-1],"loss_changes":[6.3337046E-3,2.3729634E-5,1.9861623E-3,0E0,0E0,0E0,0E0],"parents":[2147483647,0,0,1,1,2,2],"right_children":[2,4,6,-1,-1,-1,-1],"split_conditions":[1E0,1E0,1E0,-2.1393534E-3,-0E0,-0E0,1.1360988E-3],"split_indices":[1,2,0,0,0,0,0],"split_type":[0,0,0,0,0,0,0],"sum_hessian":[1.79898E2,6.5953156E1,1.1394483E2,5.107793E1,1.4875223E1,4.3311863E1,7.063297E1],"tree_param":{"num_deleted":"0","num_feature":"3","num_nodes":"7","size_leaf_vector":"1"}},{"base_weights":[-0E0,1.5208208E-3,-1.7950101E-3,-0E0,-1.7244375E-3],"categories":[],"categories_nodes":[],"categories_segments":[],"categories_sizes":[],"default_left":[0,0,0,0,0],"id":58,"left_children":[1,-1,3,-1,-1],"loss_changes":[4.866145E-3,0E0,1.2069554E-3,0E0,0E0],"parents":[2147483647,0,0,2,2],"right_children":[2,-1,4,-1,-1],"split_conditions":[1E0,1.5208208E-3,1E0,-0E0,-1.7244375E-3],"split_indices":[0,0,2,0,0],"split_type":[0,0,0,0,0],"sum_hessian":[1.7975346E2,7.68384E1,1.0291507E2,8.3654465E1,1.9260603E1],"tree_param":{"num_deleted":"0","num_feature":"3","num_nodes":"5","size_leaf_vector":"1"}},{"base_weights":[-0E0,-1.520818E-3,1.7949505E-3,-0E0,1.7244274E-3],"categories":[],"categories_nodes":[],"categories_segments":[],"categories_sizes":[],"default_left":[0,0,0,0,0],"id":59,"left_children":[1,-1,3,-1,-1],"loss_changes":[4.866106E-3,0E0,1.2069594E-3,0E0,0E0],"parents":[2147483647,0,0,2,2],"right_children":[2,-1,4,-1,-1],"split_conditions":[1E0,-1.520818E-3,1E0,-0E0,1.7244274E-3],"split_indices":[0,0,2,0,0],"split_type":[0,0,0,0,0],"sum_hessian":[1.7975346E2,7.6838394E1,1.0291506E2,8.3654465E1,1.9260601E1],"tree_param":{"num_deleted":"0","num_feature":"3","num_nodes":"5","size_leaf_vector":"1"}},{"base_weights":[-0E0,1.4414373E-3,-1.3909359E-3,-0E0,-1.6591385E-3],"categories":[],"categories_nodes":[],"categories_segments":[],"categories_sizes":[],"default_left":[0,0,0,0,0],"id":60,"left_children":[1,-1,3,-1,-1],"loss_changes":[3.7189848E-3,0E0,1.1005905E-3,0E0,0E0],"parents":[2147483647,0,0,2,2],"right_children":[2,-1,4,-1,-1],"split_conditions":[1E0,1.4414373E-3,1E0,-0E0,-1.6591385E-3],"split_indices":[1,0,2,0,0],"split_type":[0,0,0,0,0],"sum_hessian":[1.7960791E2,6.580197E1,1.1380594E2,9.607168E1,1.7734262E1],"tree_param":{"num_deleted":"0","num_feature":"3","num_nodes":"5","size_leaf_vector":"1"}},{"base_weights":[-0E0,-1.4414579E-3,1.3908602E-3,-0E0,1.6591629E-3],"categories":[],"categories_nodes":[],"categories_segments":[],"categories_sizes":[],"default_left":[0,0,0,0,0],"id":61,"left_children":[1,-1,3,-1,-1],"loss_changes":[3.7190618E-3,0E0,1.1006542E-3,0E0,0E0],"parents":[2147483647,0,0,2,2],"right_children":[2,-1,4,-1,-1],"split_conditions":[1E0,-1.4414579E-3,1E0,-0E0,1.6591629E-3],"split_indices":[1,0,2,0,0],"split_type":[0,0,0,0,0],"sum_hessian":[1.7960793E2,6.580199E1,1.1380594E2,9.607167E1,1.7734264E1],"tree_param":{"num_deleted":"0","num_feature":"3","num_nodes":"5","size_leaf_vector":"1"}},{"base_weights":[-0E0,1.1189402E-3,-1.7060378E-3,-0E0,-7.857624E-4],"categories":[],"categories_nodes":[],"categories_segments":[],"categories_sizes":[],"default_left":[0,0,0,0,0],"id":62,"left_children":[1,-1,3,-1,-1],"loss_changes":[2.7503925E-3,0E0,8.0790755E-4,0E0,0E0],"parents":[2147483647,0,0,2,2],"right_children":[2,-1,4,-1,-1],"split_conditions":[1E0,1.1189402E-3,1E0,-0E0,-7.857624E-4],"split_indices":[0,0,1,0,0],"split_type":[0,0,0,0,0],"sum_hessian":[1.7952019E2,7.66665E1,1.0285368E2,3.2335854E1,7.051783E1],"tree_param":{"num_deleted":"0","num_feature":"3","num_nodes":"5","size_leaf_vector":"1"}},{"base_weights":[-0E0,-1.1189345E-3,1.7059364E-3,-0E0,7.857359E-4],"categories":[],"categories_nodes":[],"categories_segments":[],"categories_sizes":[],"default_left":[0,0,0,0,0],"id":63,"left_children":[1,-1,3,-1,-1],"loss_changes":[2.750331E-3,0E0,8.078689E-4,0E0,0E0],"parents":[2147483647,0,0,2,2],"right_children":[2,-1,4,-1,-1],"split_conditions":[1E0,-1.1189345E-3,1E0,-0E0,7.857359E-4],"split_indices":[0,0,1,0,0],"split_type":[0,0,0,0,0],"sum_hessian":[1.7952017E2,7.666649E1,1.0285368E2,3.2335857E1,7.051782E1],"tree_param":{"num_deleted":"0","num_feature":"3","num_nodes":"5","size_leaf_vector":"1"}},{"base_weights":[-0E0,5.2524274E-3,-1.0761148E-3,1.2089302E-3,-0E0,-0E0,-1.2899486E-3],"categories":[],"categories_nodes":[],"categories_segments":[],"categories_sizes":[],"default_left":[0,0,0,0,0,0,0],"id":64,"left_children":[1,3,5,-1,-1,-1,-1],"loss_changes":[1.9870414E-3,5.8744452E-5,6.651026E-4,0E0,0E0,0E0,0E0],"parents":[2147483647,0,0,1,1,2,2],"right_children":[2,4,6,-1,-1,-1,-1],"split_conditions":[1E0,1E0,1E0,1.2089302E-3,-0E0,-0E0,-1.2899486E-3],"split_indices":[1,2,2,0,0,0,0],"split_type":[0,0,0,0,0,0,0],"sum_hessian":[1.7939417E2,6.568981E1,1.13704346E2,5.083968E1,1.4850136E1,9.600897E1,1.7695374E1],"tree_param":{"num_deleted":"0","num_feature":"3","num_nodes":"7","size_leaf_vector":"1"}},{"base_weights":[-0E0,-5.252508E-3,1.0761009E-3,-1.2089502E-3,-0E0,-0E0,1.2899203E-3],"categories":[],"categories_nodes":[],"categories_segments":[],"categories_sizes":[],"default_left":[0,0,0,0,0,0,0],"id":65,"left_children":[1,3,5,-1,-1,-1,-1],"loss_changes":[1.987095E-3,5.875097E-5,6.6507084E-4,0E0,0E0,0E0,0E0],"parents":[2147483647,0,0,1,1,2,2],"right_children":[2,4,6,-1,-1,-1,-1],"split_conditions":[1E0,1E0,1E0,-1.2089502E-3,-0E0,-0E0,1.2899203E-3],"split_indices":[1,2,2,0,0,0,0],"split_type":[0,0,0,0,0,0,0],"sum_hessian":[1.7939417E2,6.568982E1,1.1370434E2,5.0839687E1,1.4850136E1,9.6008965E1,1.769537E1],"tree_param":{"num_deleted":"0","num_feature":"3","num_nodes":"7","size_leaf_vector":"1"}},{"base_weights":[-0E0,4.19968E-3,-1.3177568E-3,1.2585407E-3,-0E0,-0E0,-5.8329187E-4],"categories":[],"categories_nodes":[],"categories_segments":[],"categories_sizes":[],"default_left":[0,0,0,0,0,0,0],"id":66,"left_children":[1,3,5,-1,-1,-1,-1],"loss_changes":[1.5575326E-3,1.98232E-6,4.3094193E-4,0E0,0E0,0E0,0E0],"parents":[2147483647,0,0,1,1,2,2],"right_children":[2,4,6,-1,-1,-1,-1],"split_conditions":[1E0,1E0,1E0,1.2585407E-3,-0E0,-0E0,-5.8329187E-4],"split_indices":[0,1,1,0,0,0,0],"split_type":[0,0,0,0,0,0,0],"sum_hessian":[1.7932825E2,7.654138E1,1.02786865E2,3.331031E1,4.323107E1,3.2331367E1,7.0455505E1],"tree_param":{"num_deleted":"0","num_feature":"3","num_nodes":"7","size_leaf_vector":"1"}},{"base_weights":[-0E0,-4.199627E-3,1.3177296E-3,-1.2585407E-3,-0E0,-0E0,5.832821E-4],"categories":[],"categories_nodes":[],"categories_segments":[],"categories_sizes":[],"default_left":[0,0,0,0,0,0,0],"id":67,"left_children":[1,3,5,-1,-1,-1,-1],"loss_changes":[1.5574903E-3,2.0170119E-6,4.3092892E-4,0E0,0E0,0E0,0E0],"parents":[2147483647,0,0,1,1,2,2],"right_children":[2,4,6,-1,-1,-1,-1],"split_conditions":[1E0,1E0,1E0,-1.2585407E-3,-0E0,-0E0,5.832821E-4],"split_indices":[0,1,1,0,0,0,0],"split_type":[0,0,0,0,0,0,0],"sum_hessian":[1.7932823E2,7.654138E1,1.0278686E2,3.331031E1,4.323107E1,3.2331364E1,7.045549E1],"tree_param":{"num_deleted":"0","num_feature":"3","num_nodes":"7","size_leaf_vector":"1"}},{"base_weights":[-0E0,7.330933E-4,-9.240619E-4,-0E0,-9.136471E-4],"categories":[],"categories_nodes":[],"categories_segments":[],"categories_sizes":[],"default_left":[0,0,0,0,0],"id":68,"left_children":[1,-1,3,-1,-1],"loss_changes":[1.1368464E-3,0E0,3.4213747E-4,0E0,0E0],"parents":[2147483647,0,0,2,2],"right_children":[2,-1,4,-1,-1],"split_conditions":[1E0,7.330933E-4,1E0,-0E0,-9.136471E-4],"split_indices":[0,0,2,0,0],"split_type":[0,0,0,0,0],"sum_hessian":[1.7924466E2,7.648829E1,1.0275637E2,8.359579E1,1.9160583E1],"tree_param":{"num_deleted":"0","num_feature":"3","num_nodes":"5","size_leaf_vector":"1"}},{"base_weights":[-0E0,-7.330757E-4,9.240017E-4,-0E0,9.1365055E-4],"categories":[],"categories_nodes":[],"categories_segments":[],"categories_sizes":[],"default_left":[0,0,0,0,0],"id":69,"left_children":[1,-1,3,-1,-1],"loss_changes":[1.1367844E-3,0E0,3.421524E-4,0E0,0E0],"parents":[2147483647,0,0,2,2],"right_children":[2,-1,4,-1,-1],"split_conditions":[1E0,-7.330757E-4,1E0,-0E0,9.1365055E-4],"split_indices":[0,0,2,0,0],"split_type":[0,0,0,0,0],"sum_hessian":[1.7924464E2,7.648829E1,1.0275636E2,8.359578E1,1.9160583E1],"tree_param":{"num_deleted":"0","num_feature":"3","num_nodes":"5","size_leaf_vector":"1"}},{"base_weights":[-0E0,3.4330767E-3,-6.884316E-4,7.9422275E-4,-0E0,-0E0,-8.7096955E-4],"categories":[],"categories_nodes":[],"categories_segments":[],"categories_sizes":[],"default_left":[0,0,0,0,0,0,0],"id":70,"left_children":[1,3,5,-1,-1,-1,-1],"loss_changes":[8.4489083E-4,3.3158867E-5,3.0863297E-4,0E0,0E0,0E0,0E0],"parents":[2147483647,0,0,1,1,2,2],"right_children":[2,4,6,-1,-1,-1,-1],"split_conditions":[1E0,1E0,1E0,7.9422275E-4,-0E0,-0E0,-8.7096955E-4],"split_indices":[1,2,2,0,0,0,0],"split_type":[0,0,0,0,0,0,0],"sum_hessian":[1.7917311E2,6.555684E1,1.1361627E2,5.0719723E1,1.4837111E1,9.596538E1,1.7650898E1],"tree_param":{"num_deleted":"0","num_feature":"3","num_nodes":"7","size_leaf_vector":"1"}},{"base_weights":[-0E0,-3.4331293E-3,6.883526E-4,-7.942362E-4,-0E0,-0E0,8.7097316E-4],"categories":[],"categories_nodes":[],"categories_segments":[],"categories_sizes":[],"default_left":[0,0,0,0,0,0,0],"id":71,"left_children":[1,3,5,-1,-1,-1,-1],"loss_changes":[8.449026E-4,3.3162592E-5,3.0864854E-4,0E0,0E0,0E0,0E0],"parents":[2147483647,0,0,1,1,2,2],"right_children":[2,4,6,-1,-1,-1,-1],"split_conditions":[1E0,1E0,1E0,-7.942362E-4,-0E0,-0E0,8.7097316E-4],"split_indices":[1,2,2,0,0,0,0],"split_type":[0,0,0,0,0,0,0],"sum_hessian":[1.7917311E2,6.555684E1,1.1361628E2,5.071973E1,1.4837111E1,9.596538E1,1.76509E1],"tree_param":{"num_deleted":"0","num_feature":"3","num_nodes":"7","size_leaf_vector":"1"}},{"base_weights":[-0E0,5.5024575E-4,-8.469229E-4,-0E0,-4.0155518E-4],"categories":[],"categories_nodes":[],"categories_segments":[],"categories_sizes":[],"default_left":[0,0,0,0,0],"id":72,"left_children":[1,-1,3,-1,-1],"loss_changes":[6.644509E-4,0E0,2.1506583E-4,0E0,0E0],"parents":[2147483647,0,0,2,2],"right_children":[2,-1,4,-1,-1],"split_conditions":[1E0,5.5024575E-4,1E0,-0E0,-4.0155518E-4],"split_indices":[0,0,1,0,0],"split_type":[0,0,0,0,0],"sum_hessian":[1.7912953E2,7.640644E1,1.027231E2,3.2327545E1,7.039555E1],"tree_param":{"num_deleted":"0","num_feature":"3","num_nodes":"5","size_leaf_vector":"1"}},{"base_weights":[-0E0,-5.502328E-4,8.468838E-4,-0E0,4.0154145E-4],"categories":[],"categories_nodes":[],"categories_segments":[],"categories_sizes":[],"default_left":[0,0,0,0,0],"id":73,"left_children":[1,-1,3,-1,-1],"loss_changes":[6.6441647E-4,0E0,2.1505286E-4,0E0,0E0],"parents":[2147483647,0,0,2,2],"right_children":[2,-1,4,-1,-1],"split_conditions":[1E0,-5.502328E-4,1E0,-0E0,4.0154145E-4],"split_indices":[0,0,1,0,0],"split_type":[0,0,0,0,0],"sum_hessian":[1.7912953E2,7.640643E1,1.027231E2,3.2327545E1,7.039555E1],"tree_param":{"num_deleted":"0","num_feature":"3","num_nodes":"5","size_leaf_vector":"1"}},{"base_weights":[-0E0,2.5623795E-3,-5.161051E-4,5.904048E-4,-0E0,-0E0,-6.766906E-4],"categories":[],"categories_nodes":[],"categories_segments":[],"categories_sizes":[],"default_left":[0,0,0,0,0,0,0],"id":74,"left_children":[1,3,5,-1,-1,-1,-1],"loss_changes":[4.705706E-4,1.4696707E-5,1.8835528E-4,0E0,0E0,0E0,0E0],"parents":[2147483647,0,0,1,1,2,2],"right_children":[2,4,6,-1,-1,-1,-1],"split_conditions":[1E0,1E0,1E0,5.904048E-4,-0E0,-0E0,-6.766906E-4],"split_indices":[1,2,2,0,0,0,0],"split_type":[0,0,0,0,0,0,0],"sum_hessian":[1.7906677E2,6.5502075E1,1.135647E2,5.0668343E1,1.4833733E1,9.593392E1,1.7630775E1],"tree_param":{"num_deleted":"0","num_feature":"3","num_nodes":"7","size_leaf_vector":"1"}},{"base_weights":[-0E0,-2.562357E-3,5.1604916E-4,-5.903958E-4,-0E0,-0E0,6.767017E-4],"categories":[],"categories_nodes":[],"categories_segments":[],"categories_sizes":[],"default_left":[0,0,0,0,0,0,0],"id":75,"left_children":[1,3,5,-1,-1,-1,-1],"loss_changes":[4.7055632E-4,1.4690566E-5,1.8836913E-4,0E0,0E0,0E0,0E0],"parents":[2147483647,0,0,1,1,2,2],"right_children":[2,4,6,-1,-1,-1,-1],"split_conditions":[1E0,1E0,1E0,-5.903958E-4,-0E0,-0E0,6.767017E-4],"split_indices":[1,2,2,0,0,0,0],"split_type":[0,0,0,0,0,0,0],"sum_hessian":[1.7906677E2,6.550207E1,1.135647E2,5.066834E1,1.4833733E1,9.593392E1,1.763078E1],"tree_param":{"num_deleted":"0","num_feature":"3","num_nodes":"7","size_leaf_vector":"1"}},{"base_weights":[-0E0,4.134798E-4,-6.394551E-4,-0E0,-2.973523E-4],"categories":[],"categories_nodes":[],"categories_segments":[],"categories_sizes":[],"default_left":[0,0,0,0,0],"id":76,"left_children":[1,-1,3,-1,-1],"loss_changes":[3.7532454E-4,0E0,1.1624808E-4,0E0,0E0],"parents":[2147483647,0,0,2,2],"right_children":[2,-1,4,-1,-1],"split_conditions":[1E0,4.134798E-4,1E0,-0E0,-2.973523E-4],"split_indices":[0,0,1,0,0],"split_type":[0,0,0,0,0],"sum_hessian":[1.7903397E2,7.634528E1,1.0268868E2,3.2325302E1,7.036338E1],"tree_param":{"num_deleted":"0","num_feature":"3","num_nodes":"5","size_leaf_vector":"1"}},{"base_weights":[-0E0,-4.1349456E-4,6.3939334E-4,-0E0,2.973344E-4],"categories":[],"categories_nodes":[],"categories_segments":[],"categories_sizes":[],"default_left":[0,0,0,0,0],"id":77,"left_children":[1,-1,3,-1,-1],"loss_changes":[3.7534014E-4,0E0,1.16237155E-4,0E0,0E0],"parents":[2147483647,0,0,2,2],"right_children":[2,-1,4,-1,-1],"split_conditions":[1E0,-4.1349456E-4,1E0,-0E0,2.973344E-4],"split_indices":[0,0,1,0,0],"split_type":[0,0,0,0,0],"sum_hessian":[1.7903397E2,7.634529E1,1.0268868E2,3.2325302E1,7.036338E1],"tree_param":{"num_deleted":"0","num_feature":"3","num_nodes":"5","size_leaf_vector":"1"}},{"base_weights":[-0E0,1.9126254E-3,-3.8593338E-4,4.3837764E-4,-0E0,-0E0,-5.271534E-4],"categories":[],"categories_nodes":[],"categories_segments":[],"categories_sizes":[],"default_left":[0,0,0,0,0,0,0],"id":78,"left_children":[1,3,5,-1,-1,-1,-1],"loss_changes":[2.6208555E-4,5.4988777E-6,1.1566747E-4,0E0,0E0,0E0,0E0],"parents":[2147483647,0,0,1,1,2,2],"right_children":[2,4,6,-1,-1,-1,-1],"split_conditions":[1E0,1E0,1E0,4.3837764E-4,-0E0,-0E0,-5.271534E-4],"split_indices":[1,2,2,0,0,0,0],"split_type":[0,0,0,0,0,0,0],"sum_hessian":[1.7898705E2,6.546119E1,1.13525856E2,5.0629997E1,1.4831191E1,9.591042E1,1.7615427E1],"tree_param":{"num_deleted":"0","num_feature":"3","num_nodes":"7","size_leaf_vector":"1"}},{"base_weights":[-0E0,-1.9125972E-3,3.8597535E-4,-4.38372E-4,-0E0,-0E0,5.2714034E-4],"categories":[],"categories_nodes":[],"categories_segments":[],"categories_sizes":[],"default_left":[0,0,0,0,0,0,0],"id":79,"left_children":[1,3,5,-1,-1,-1,-1],"loss_changes":[2.620821E-4,5.4996053E-6,1.1565717E-4,0E0,0E0,0E0,0E0],"parents":[2147483647,0,0,1,1,2,2],"right_children":[2,4,6,-1,-1,-1,-1],"split_conditions":[1E0,1E0,1E0,-4.38372E-4,-0E0,-0E0,5.2714034E-4],"split_indices":[1,2,2,0,0,0,0],"split_type":[0,0,0,0,0,0,0],"sum_hessian":[1.7898705E2,6.546118E1,1.13525856E2,5.0629993E1,1.483119E1,9.591043E1,1.7615425E1],"tree_param":{"num_deleted":"0","num_feature":"3","num_nodes":"7","size_leaf_vector":"1"}},{"base_weights":[-0E0,3.1121564E-4,-4.8279035E-4,-0E0,-2.1918821E-4],"categories":[],"categories_nodes":[],"categories_segments":[],"categories_sizes":[],"default_left":[0,0,0,0,0],"id":80,"left_children":[1,-1,3,-1,-1],"loss_changes":[2.1266131E-4,0E0,6.2006104E-5,0E0,0E0],"parents":[2147483647,0,0,2,2],"right_children":[2,-1,4,-1,-1],"split_conditions":[1E0,3.1121564E-4,1E0,-0E0,-2.1918821E-4],"split_indices":[0,0,1,0,0],"split_type":[0,0,0,0,0],"sum_hessian":[1.7896236E2,7.629961E1,1.0266274E2,3.2323624E1,7.033912E1],"tree_param":{"num_deleted":"0","num_feature":"3","num_nodes":"5","size_leaf_vector":"1"}},{"base_weights":[-0E0,-3.111959E-4,4.8280577E-4,-0E0,2.1919925E-4],"categories":[],"categories_nodes":[],"categories_segments":[],"categories_sizes":[],"default_left":[0,0,0,0,0],"id":81,"left_children":[1,-1,3,-1,-1],"loss_changes":[2.1263893E-4,0E0,6.201323E-5,0E0,0E0],"parents":[2147483647,0,0,2,2],"right_children":[2,-1,4,-1,-1],"split_conditions":[1E0,-3.111959E-4,1E0,-0E0,2.1919925E-4],"split_indices":[0,0,1,0,0],"split_type":[0,0,0,0,0],"sum_hessian":[1.7896236E2,7.629961E1,1.0266275E2,3.232362E1,7.033913E1],"tree_param":{"num_deleted":"0","num_feature":"3","num_nodes":"5","size_leaf_vector":"1"}},{"base_weights":[-0E0,1.4279584E-3,-2.8808345E-4,3.2506662E-4,-0E0,-0E0,-4.1192365E-4],"categories":[],"categories_nodes":[],"categories_segments":[],"categories_sizes":[],"default_left":[0,0,0,0,0,0,0],"id":82,"left_children":[1,3,5,-1,-1,-1,-1],"loss_changes":[1.4601978E-4,1.1606462E-6,7.149462E-5,0E0,0E0,0E0,0E0],"parents":[2147483647,0,0,1,1,2,2],"right_children":[2,4,6,-1,-1,-1,-1],"split_conditions":[1E0,1E0,1E0,3.2506662E-4,-0E0,-0E0,-4.1192365E-4],"split_indices":[1,2,2,0,0,0,0],"split_type":[0,0,0,0,0,0,0],"sum_hessian":[1.7892728E2,6.5430664E1,1.13496605E2,5.0601387E1,1.4829277E1,9.58929E1,1.7603704E1],"tree_param":{"num_deleted":"0","num_feature":"3","num_nodes":"7","size_leaf_vector":"1"}},{"base_weights":[-0E0,-1.4279716E-3,2.8808942E-4,-3.2507002E-4,-0E0,-0E0,4.1191056E-4],"categories":[],"categories_nodes":[],"categories_segments":[],"categories_sizes":[],"default_left":[0,0,0,0,0,0,0],"id":83,"left_children":[1,3,5,-1,-1,-1,-1],"loss_changes":[1.4602272E-4,1.1609809E-6,7.1489085E-5,0E0,0E0,0E0,0E0],"parents":[2147483647,0,0,1,1,2,2],"right_children":[2,4,6,-1,-1,-1,-1],"split_conditions":[1E0,1E0,1E0,-3.2507002E-4,-0E0,-0E0,4.1191056E-4],"split_indices":[1,2,2,0,0,0,0],"split_type":[0,0,0,0,0,0,0],"sum_hessian":[1.7892726E2,6.543066E1,1.134966E2,5.0601383E1,1.4829277E1,9.58929E1,1.7603703E1],"tree_param":{"num_deleted":"0","num_feature":"3","num_nodes":"7","size_leaf_vector":"1"}},{"base_weights":[-0E0,2.3463792E-4,-3.6476523E-4,-0E0,-1.6068183E-4],"categories":[],"categories_nodes":[],"categories_segments":[],"categories_sizes":[],"default_left":[0,0,0,0,0],"id":84,"left_children":[1,-1,3,-1,-1],"loss_changes":[1.2089097E-4,0E0,3.2501295E-5,0E0,0E0],"parents":[2147483647,0,0,2,2],"right_children":[2,-1,4,-1,-1],"split_conditions":[1E0,2.3463792E-4,1E0,-0E0,-1.6068183E-4],"split_indices":[0,0,1,0,0],"split_type":[0,0,0,0,0],"sum_hessian":[1.7890866E2,7.626544E1,1.0264322E2,3.232237E1,7.0320854E1],"tree_param":{"num_deleted":"0","num_feature":"3","num_nodes":"5","size_leaf_vector":"1"}},{"base_weights":[-0E0,-2.346433E-4,3.648013E-4,-0E0,1.6068332E-4],"categories":[],"categories_nodes":[],"categories_segments":[],"categories_sizes":[],"default_left":[0,0,0,0,0],"id":85,"left_children":[1,-1,3,-1,-1],"loss_changes":[1.2089861E-4,0E0,3.2499418E-5,0E0,0E0],"parents":[2147483647,0,0,2,2],"right_children":[2,-1,4,-1,-1],"split_conditions":[1E0,-2.346433E-4,1E0,-0E0,1.6068332E-4],"split_indices":[0,0,1,0,0],"split_type":[0,0,0,0,0],"sum_hessian":[1.7890866E2,7.626544E1,1.0264322E2,3.232237E1,7.0320854E1],"tree_param":{"num_deleted":"0","num_feature":"3","num_nodes":"5","size_leaf_vector":"1"}},{"base_weights":[-0E0,1.0666897E-3,-2.1494609E-4,2.9871616E-4,-0E0,-0E0,-3.230119E-4],"categories":[],"categories_nodes":[],"categories_segments":[],"categories_sizes":[],"default_left":[0,0,0,0,0,0,0],"id":86,"left_children":[1,3,5,-1,-1,-1,-1],"loss_changes":[8.144163E-5,1.0231815E-6,4.4495016E-5,0E0,0E0,0E0,0E0],"parents":[2147483647,0,0,1,1,2,2],"right_children":[2,4,6,-1,-1,-1,-1],"split_conditions":[1E0,1E0,1E0,2.9871616E-4,-0E0,-0E0,-3.230119E-4],"split_indices":[1,0,2,0,0,0,0],"split_type":[0,0,0,0,0,0,0],"sum_hessian":[1.7888246E2,6.5407875E1,1.1347459E2,3.3085506E1,3.232237E1,9.5879845E1,1.7594744E1],"tree_param":{"num_deleted":"0","num_feature":"3","num_nodes":"7","size_leaf_vector":"1"}},{"base_weights":[-0E0,-1.0665634E-3,2.1487869E-4,-2.9868592E-4,-0E0,-0E0,3.229888E-4],"categories":[],"categories_nodes":[],"categories_segments":[],"categories_sizes":[],"default_left":[0,0,0,0,0,0,0],"id":87,"left_children":[1,3,5,-1,-1,-1,-1],"loss_changes":[8.1420265E-5,1.0255826E-6,4.449123E-5,0E0,0E0,0E0,0E0],"parents":[2147483647,0,0,1,1,2,2],"right_children":[2,4,6,-1,-1,-1,-1],"split_conditions":[1E0,1E0,1E0,-2.9868592E-4,-0E0,-0E0,3.229888E-4],"split_indices":[1,0,2,0,0,0,0],"split_type":[0,0,0,0,0,0,0],"sum_hessian":[1.7888246E2,6.540787E1,1.13474594E2,3.30855E1,3.232237E1,9.587985E1,1.7594742E1],"tree_param":{"num_deleted":"0","num_feature":"3","num_nodes":"7","size_leaf_vector":"1"}},{"base_weights":[-0E0,9.1914576E-4,-1.655262E-4,2.1351816E-4,-0E0,-0E0,-2.6355145E-4],"categories":[],"categories_nodes":[],"categories_segments":[],"categories_sizes":[],"default_left":[0,0,0,0,0,0,0],"id":88,"left_children":[1,3,5,-1,-1,-1,-1],"loss_changes":[5.966515E-5,2.8309114E-6,2.9999943E-5,0E0,0E0,0E0,0E0],"parents":[2147483647,0,0,1,1,2,2],"right_children":[2,4,6,-1,-1,-1,-1],"split_conditions":[1E0,1E0,1E0,2.1351816E-4,-0E0,-0E0,-2.6355145E-4],"split_indices":[1,2,2,0,0,0,0],"split_type":[0,0,0,0,0,0,0],"sum_hessian":[1.7886545E2,6.539531E1,1.1347014E2,5.0569317E1,1.48259945E1,9.5879845E1,1.7590298E1],"tree_param":{"num_deleted":"0","num_feature":"3","num_nodes":"7","size_leaf_vector":"1"}},{"base_weights":[-0E0,-9.1904594E-4,1.6547488E-4,-2.1349732E-4,-0E0,-0E0,2.6354773E-4],"categories":[],"categories_nodes":[],"categories_segments":[],"categories_sizes":[],"default_left":[0,0,0,0,0,0,0],"id":89,"left_children":[1,3,5,-1,-1,-1,-1],"loss_changes":[5.9650927E-5,2.8315953E-6,3.0000958E-5,0E0,0E0,0E0,0E0],"parents":[2147483647,0,0,1,1,2,2],"right_children":[2,4,6,-1,-1,-1,-1],"split_conditions":[1E0,1E0,1E0,-2.1349732E-4,-0E0,-0E0,2.6354773E-4],"split_indices":[1,2,2,0,0,0,0],"split_type":[0,0,0,0,0,0,0],"sum_hessian":[1.7886545E2,6.53953E1,1.13470146E2,5.0569313E1,1.4825993E1,9.587985E1,1.7590296E1],"tree_param":{"num_deleted":"0","num_feature":"3","num_nodes":"7","size_leaf_vector":"1"}},{"base_weights":[-0E0,1.5624591E-4,-2.3468042E-4,-0E0,-1.06998676E-4],"categories":[],"categories_nodes":[],"categories_segments":[],"categories_sizes":[],"default_left":[0,0,0,0,0],"id":90,"left_children":[1,-1,3,-1,-1],"loss_changes":[5.3174175E-5,0E0,1.4816599E-5,0E0,0E0],"parents":[2147483647,0,0,2,2],"right_children":[2,-1,4,-1,-1],"split_conditions":[1E0,1.5624591E-4,1E0,-0E0,-1.06998676E-4],"split_indices":[0,0,1,0,0],"split_type":[0,0,0,0,0],"sum_hessian":[1.7885333E2,7.622901E1,1.0262431E2,3.2321545E1,7.0302765E1],"tree_param":{"num_deleted":"0","num_feature":"3","num_nodes":"5","size_leaf_vector":"1"}},{"base_weights":[-0E0,-1.5627015E-4,2.3468558E-4,-0E0,1.0700017E-4],"categories":[],"categories_nodes":[],"categories_segments":[],"categories_sizes":[],"default_left":[0,0,0,0,0],"id":91,"left_children":[1,-1,3,-1,-1],"loss_changes":[5.3189156E-5,0E0,1.4816922E-5,0E0,0E0],"parents":[2147483647,0,0,2,2],"right_children":[2,-1,4,-1,-1],"split_conditions":[1E0,-1.5627015E-4,1E0,-0E0,1.0700017E-4],"split_indices":[0,0,1,0,0],"split_type":[0,0,0,0,0],"sum_hessian":[1.7885333E2,7.622903E1,1.0262431E2,3.2321545E1,7.0302765E1],"tree_param":{"num_deleted":"0","num_feature":"3","num_nodes":"5","size_leaf_vector":"1"}},{"base_weights":[-0E0,6.2820304E-4,-1.6249222E-4,1.4076776E-4,-0E0,-0E0,-1.8233711E-4],"categories":[],"categories_nodes":[],"categories_segments":[],"categories_sizes":[],"default_left":[0,0,0,0,0,0,0],"id":92,"left_children":[1,3,5,-1,-1,-1,-1],"loss_changes":[3.3419354E-5,1.223947E-6,1.4351731E-5,0E0,0E0,0E0,0E0],"parents":[2147483647,0,0,1,1,2,2],"right_children":[2,4,6,-1,-1,-1,-1],"split_conditions":[1E0,1E0,1E0,1.4076776E-4,-0E0,-0E0,-1.8233711E-4],"split_indices":[0,2,2,0,0,0,0],"split_type":[0,0,0,0,0,0,0],"sum_hessian":[1.7883588E2,7.621717E1,1.0261871E2,6.2882084E1,1.3335087E1,8.354429E1,1.9074423E1],"tree_param":{"num_deleted":"0","num_feature":"3","num_nodes":"7","size_leaf_vector":"1"}},{"base_weights":[-0E0,-6.2819826E-4,1.624098E-4,-1.407692E-4,-0E0,-0E0,1.823267E-4],"categories":[],"categories_nodes":[],"categories_segments":[],"categories_sizes":[],"default_left":[0,0,0,0,0,0,0],"id":93,"left_children":[1,3,5,-1,-1,-1,-1],"loss_changes":[3.3416098E-5,1.2250639E-6,1.4352564E-5,0E0,0E0,0E0,0E0],"parents":[2147483647,0,0,1,1,2,2],"right_children":[2,4,6,-1,-1,-1,-1],"split_conditions":[1E0,1E0,1E0,-1.407692E-4,-0E0,-0E0,1.823267E-4],"split_indices":[0,2,2,0,0,0,0],"split_type":[0,0,0,0,0,0,0],"sum_hessian":[1.7883588E2,7.621717E1,1.02618706E2,6.2882088E1,1.3335087E1,8.354428E1,1.907442E1],"tree_param":{"num_deleted":"0","num_feature":"3","num_nodes":"7","size_leaf_vector":"1"}},{"base_weights":[-0E0,1.2914455E-4,-1.4485732E-4,-0E0,-1.8030452E-4],"categories":[],"categories_nodes":[],"categories_segments":[],"categories_sizes":[],"default_left":[0,0,0,0,0],"id":94,"left_children":[1,-1,3,-1,-1],"loss_changes":[3.0296102E-5,0E0,1.30963E-5,0E0,0E0],"parents":[2147483647,0,0,2,2],"right_children":[2,-1,4,-1,-1],"split_conditions":[1E0,1.2914455E-4,1E0,-0E0,-1.8030452E-4],"split_indices":[1,0,2,0,0],"split_type":[0,0,0,0,0],"sum_hessian":[1.7882329E2,6.537504E1,1.1344825E2,9.5866776E1,1.758147E1],"tree_param":{"num_deleted":"0","num_feature":"3","num_nodes":"5","size_leaf_vector":"1"}},{"base_weights":[-0E0,-1.2913544E-4,1.4479198E-4,-0E0,1.8030452E-4],"categories":[],"categories_nodes":[],"categories_segments":[],"categories_sizes":[],"default_left":[0,0,0,0,0],"id":95,"left_children":[1,-1,3,-1,-1],"loss_changes":[3.0289995E-5,0E0,1.3098475E-5,0E0,0E0],"parents":[2147483647,0,0,2,2],"right_children":[2,-1,4,-1,-1],"split_conditions":[1E0,-1.2913544E-4,1E0,-0E0,1.8030452E-4],"split_indices":[1,0,2,0,0],"split_type":[0,0,0,0,0],"sum_hessian":[1.7882327E2,6.537503E1,1.1344824E2,9.5866776E1,1.758147E1],"tree_param":{"num_deleted":"0","num_feature":"3","num_nodes":"5","size_leaf_vector":"1"}},{"base_weights":[-0E0,1.0390634E-4,-1.17291434E-4,-0E0,-1.4710882E-4],"categories":[],"categories_nodes":[],"categories_segments":[],"categories_sizes":[],"default_left":[0,0,0,0,0],"id":96,"left_children":[1,-1,3,-1,-1],"loss_changes":[1.9630228E-5,0E0,8.740869E-6,0E0,0E0],"parents":[2147483647,0,0,2,2],"right_children":[2,-1,4,-1,-1],"split_conditions":[1E0,1.0390634E-4,1E0,-0E0,-1.4710882E-4],"split_indices":[1,0,2,0,0],"split_type":[0,0,0,0,0],"sum_hessian":[1.7881499E2,6.536923E1,1.1344576E2,9.5866776E1,1.7578989E1],"tree_param":{"num_deleted":"0","num_feature":"3","num_nodes":"5","size_leaf_vector":"1"}},{"base_weights":[-0E0,-1.038939E-4,1.1724839E-4,-0E0,1.4713565E-4],"categories":[],"categories_nodes":[],"categories_segments":[],"categories_sizes":[],"default_left":[0,0,0,0,0],"id":97,"left_children":[1,-1,3,-1,-1],"loss_changes":[1.9624746E-5,0E0,8.745798E-6,0E0,0E0],"parents":[2147483647,0,0,2,2],"right_children":[2,-1,4,-1,-1],"split_conditions":[1E0,-1.038939E-4,1E0,-0E0,1.4713565E-4],"split_indices":[1,0,2,0,0],"split_type":[0,0,0,0,0],"sum_hessian":[1.7881499E2,6.5369225E1,1.1344576E2,9.5866776E1,1.7578993E1],"tree_param":{"num_deleted":"0","num_feature":"3","num_nodes":"5","size_leaf_vector":"1"}},{"base_weights":[-0E0,8.638217E-5,-1.586731E-4,-0E0,-6.675138E-5],"categories":[],"categories_nodes":[],"categories_segments":[],"categories_sizes":[],"default_left":[0,0,0,0,0],"id":98,"left_children":[1,-1,3,-1,-1],"loss_changes":[1.711566E-5,0E0,5.375635E-6,0E0,0E0],"parents":[2147483647,0,0,2,2],"right_children":[2,-1,4,-1,-1],"split_conditions":[1E0,8.638217E-5,1E0,-0E0,-6.675138E-5],"split_indices":[0,0,1,0,0],"split_type":[0,0,0,0,0],"sum_hessian":[1.7880827E2,7.619883E1,1.0260944E2,3.2320686E1,7.028876E1],"tree_param":{"num_deleted":"0","num_feature":"3","num_nodes":"5","size_leaf_vector":"1"}},{"base_weights":[-0E0,-8.6403954E-5,1.5859638E-4,-0E0,6.673046E-5],"categories":[],"categories_nodes":[],"categories_segments":[],"categories_sizes":[],"default_left":[0,0,0,0,0],"id":99,"left_children":[1,-1,3,-1,-1],"loss_changes":[1.712044E-5,0E0,5.3731555E-6,0E0,0E0],"parents":[2147483647,0,0,2,2],"right_children":[2,-1,4,-1,-1],"split_conditions":[1E0,-8.6403954E-5,1E0,-0E0,6.673046E-5],"split_indices":[0,0,1,0,0],"split_type":[0,0,0,0,0],"sum_hessian":[1.7880829E2,7.6198845E1,1.0260944E2,3.2320686E1,7.028876E1],"tree_param":{"num_deleted":"0","num_feature":"3","num_nodes":"5","size_leaf_vector":"1"}},{"base_weights":[-0E0,6.945957E-5,-1.13546084E-4,-0E0,-1.0882238E-4],"categories":[],"categories_nodes":[],"categories_segments":[],"categories_sizes":[],"default_left":[0,0,0,0,0],"id":100,"left_children":[1,-1,3,-1,-1],"loss_changes":[1.0713127E-5,0E0,4.746208E-6,0E0,0E0],"parents":[2147483647,0,0,2,2],"right_children":[2,-1,4,-1,-1],"split_conditions":[1E0,6.945957E-5,1E0,-0E0,-1.0882238E-4],"split_indices":[0,0,2,0,0],"split_type":[0,0,0,0,0],"sum_hessian":[1.7879823E2,7.619229E1,1.0260595E2,8.3540985E1,1.906496E1],"tree_param":{"num_deleted":"0","num_feature":"3","num_nodes":"5","size_leaf_vector":"1"}},{"base_weights":[-0E0,-6.946554E-5,1.13575574E-4,-0E0,1.0880325E-4],"categories":[],"categories_nodes":[],"categories_segments":[],"categories_sizes":[],"default_left":[0,0,0,0,0],"id":101,"left_children":[1,-1,3,-1,-1],"loss_changes":[1.0715434E-5,0E0,4.7433705E-6,0E0,0E0],"parents":[2147483647,0,0,2,2],"right_children":[2,-1,4,-1,-1],"split_conditions":[1E0,-6.946554E-5,1E0,-0E0,1.0880325E-4],"split_indices":[0,0,2,0,0],"split_type":[0,0,0,0,0],"sum_hessian":[1.7879825E2,7.619229E1,1.0260595E2,8.3540985E1,1.906496E1],"tree_param":{"num_deleted":"0","num_feature":"3","num_nodes":"5","size_leaf_vector":"1"}},{"base_weights":[-0E0,3.4979294E-4,-9.9580255E-5,8.5617576E-5,-0E0,-0E0,-1.0147917E-4],"categories":[],"categories_nodes":[],"categories_segments":[],"categories_sizes":[],"default_left":[0,0,0,0,0,0,0],"id":102,"left_children":[1,3,5,-1,-1,-1,-1],"loss_changes":[9.320107E-6,1.3555482E-6,3.7708155E-6,0E0,0E0,0E0,0E0],"parents":[2147483647,0,0,1,1,2,2],"right_children":[2,4,6,-1,-1,-1,-1],"split_conditions":[1E0,1E0,1E0,8.5617576E-5,-0E0,-0E0,-1.0147917E-4],"split_indices":[1,2,2,0,0,0,0],"split_type":[0,0,0,0,0,0,0],"sum_hessian":[1.7879108E2,6.5357895E1,1.13433174E2,5.0535313E1,1.4822581E1,9.5859535E1,1.7573645E1],"tree_param":{"num_deleted":"0","num_feature":"3","num_nodes":"7","size_leaf_vector":"1"}},{"base_weights":[-0E0,-3.4985252E-4,9.9592704E-5,-8.563449E-5,-0E0,-0E0,1.0147917E-4],"categories":[],"categories_nodes":[],"categories_segments":[],"categories_sizes":[],"default_left":[0,0,0,0,0,0,0],"id":103,"left_children":[1,3,5,-1,-1,-1,-1],"loss_changes":[9.323179E-6,1.3565286E-6,3.7705308E-6,0E0,0E0,0E0,0E0],"parents":[2147483647,0,0,1,1,2,2],"right_children":[2,4,6,-1,-1,-1,-1],"split_conditions":[1E0,1E0,1E0,-8.563449E-5,-0E0,-0E0,1.0147917E-4],"split_indices":[1,2,2,0,0,0,0],"split_type":[0,0,0,0,0,0,0],"sum_hessian":[1.7879108E2,6.53579E1,1.1343318E2,5.053532E1,1.482258E1,9.5859535E1,1.7573645E1],"tree_param":{"num_deleted":"0","num_feature":"3","num_nodes":"7","size_leaf_vector":"1"}},{"base_weights":[-0E0,5.166094E-5,-1.02475315E-4,-0E0,-4.5698715E-5],"categories":[],"categories_nodes":[],"categories_segments":[],"categories_sizes":[],"default_left":[0,0,0,0,0],"id":104,"left_children":[1,-1,3,-1,-1],"loss_changes":[6.2763897E-6,0E0,2.6544826E-6,0E0,0E0],"parents":[2147483647,0,0,2,2],"right_children":[2,-1,4,-1,-1],"split_conditions":[1E0,5.166094E-5,1E0,-0E0,-4.5698715E-5],"split_indices":[0,0,1,0,0],"split_type":[0,0,0,0,0],"sum_hessian":[1.7878627E2,7.618423E1,1.0260205E2,3.2320255E1,7.028179E1],"tree_param":{"num_deleted":"0","num_feature":"3","num_nodes":"5","size_leaf_vector":"1"}},{"base_weights":[-0E0,-5.167295E-5,1.0249793E-4,-0E0,4.571424E-5],"categories":[],"categories_nodes":[],"categories_segments":[],"categories_sizes":[],"default_left":[0,0,0,0,0],"id":105,"left_children":[1,-1,3,-1,-1],"loss_changes":[6.279282E-6,0E0,2.6565467E-6,0E0,0E0],"parents":[2147483647,0,0,2,2],"right_children":[2,-1,4,-1,-1],"split_conditions":[1E0,-5.167295E-5,1E0,-0E0,4.571424E-5],"split_indices":[0,0,1,0,0],"split_type":[0,0,0,0,0],"sum_hessian":[1.7878629E2,7.618423E1,1.0260205E2,3.2320255E1,7.02818E1],"tree_param":{"num_deleted":"0","num_feature":"3","num_nodes":"5","size_leaf_vector":"1"}},{"base_weights":[-0E0,5.191567E-5,-7.5528E-5,-0E0,-7.842378E-5],"categories":[],"categories_nodes":[],"categories_segments":[],"categories_sizes":[],"default_left":[0,0,0,0,0],"id":106,"left_children":[1,-1,3,-1,-1],"loss_changes":[5.160173E-6,0E0,2.2767558E-6,0E0,0E0],"parents":[2147483647,0,0,2,2],"right_children":[2,-1,4,-1,-1],"split_conditions":[1E0,5.191567E-5,1E0,-0E0,-7.842378E-5],"split_indices":[1,0,2,0,0],"split_type":[0,0,0,0,0],"sum_hessian":[1.7877995E2,6.5352325E1,1.13427635E2,9.585628E1,1.7571352E1],"tree_param":{"num_deleted":"0","num_feature":"3","num_nodes":"5","size_leaf_vector":"1"}},{"base_weights":[-0E0,-5.192817E-5,7.552955E-5,-0E0,7.842003E-5],"categories":[],"categories_nodes":[],"categories_segments":[],"categories_sizes":[],"default_left":[0,0,0,0,0],"id":107,"left_children":[1,-1,3,-1,-1],"loss_changes":[5.16237E-6,0E0,2.2764482E-6,0E0,0E0],"parents":[2147483647,0,0,2,2],"right_children":[2,-1,4,-1,-1],"split_conditions":[1E0,-5.192817E-5,1E0,-0E0,7.842003E-5],"split_indices":[1,0,2,0,0],"split_type":[0,0,0,0,0],"sum_hessian":[1.7877997E2,6.5352325E1,1.1342764E2,9.585629E1,1.7571352E1],"tree_param":{"num_deleted":"0","num_feature":"3","num_nodes":"5","size_leaf_vector":"1"}},{"base_weights":[-0E0,3.7928487E-5,-7.750713E-5,-0E0,-3.3783974E-5],"categories":[],"categories_nodes":[],"categories_segments":[],"categories_sizes":[],"default_left":[0,0,0,0,0],"id":108,"left_children":[1,-1,3,-1,-1],"loss_changes":[3.4189982E-6,0E0,1.4227558E-6,0E0,0E0],"parents":[2147483647,0,0,2,2],"right_children":[2,-1,4,-1,-1],"split_conditions":[1E0,3.7928487E-5,1E0,-0E0,-3.3783974E-5],"split_indices":[0,0,1,0,0],"split_type":[0,0,0,0,0],"sum_hessian":[1.7877655E2,7.6178345E1,1.025982E2,3.2320103E1,7.02781E1],"tree_param":{"num_deleted":"0","num_feature":"3","num_nodes":"5","size_leaf_vector":"1"}},{"base_weights":[-0E0,-3.7928025E-5,7.7518E-5,-0E0,3.3790864E-5],"categories":[],"categories_nodes":[],"categories_segments":[],"categories_sizes":[],"default_left":[0,0,0,0,0],"id":109,"left_children":[1,-1,3,-1,-1],"loss_changes":[3.419106E-6,0E0,1.4234158E-6,0E0,0E0],"parents":[2147483647,0,0,2,2],"right_children":[2,-1,4,-1,-1],"split_conditions":[1E0,-3.7928025E-5,1E0,-0E0,3.3790864E-5],"split_indices":[0,0,1,0,0],"split_type":[0,0,0,0,0],"sum_hessian":[1.7877655E2,7.6178345E1,1.0259821E2,3.2320103E1,7.027811E1],"tree_param":{"num_deleted":"0","num_feature":"3","num_nodes":"5","size_leaf_vector":"1"}},{"base_weights":[-0E0,3.8029655E-5,-5.7101133E-5,-0E0,-6.0749207E-5],"categories":[],"categories_nodes":[],"categories_segments":[],"categories_sizes":[],"default_left":[0,0,0,0,0],"id":110,"left_children":[1,-1,3,-1,-1],"loss_changes":[2.791708E-6,0E0,1.3846816E-6,0E0,0E0],"parents":[2147483647,0,0,2,2],"right_children":[2,-1,4,-1,-1],"split_conditions":[1E0,3.8029655E-5,1E0,-0E0,-6.0749207E-5],"split_indices":[1,0,2,0,0],"split_type":[0,0,0,0,0],"sum_hessian":[1.7877191E2,6.53484E1,1.1342351E2,9.58539E1,1.7569614E1],"tree_param":{"num_deleted":"0","num_feature":"3","num_nodes":"5","size_leaf_vector":"1"}},{"base_weights":[-0E0,-3.802551E-5,5.710269E-5,-0E0,6.071859E-5],"categories":[],"categories_nodes":[],"categories_segments":[],"categories_sizes":[],"default_left":[0,0,0,0,0],"id":111,"left_children":[1,-1,3,-1,-1],"loss_changes":[2.7912015E-6,0E0,1.3828876E-6,0E0,0E0],"parents":[2147483647,0,0,2,2],"right_children":[2,-1,4,-1,-1],"split_conditions":[1E0,-3.802551E-5,1E0,-0E0,6.071859E-5],"split_indices":[1,0,2,0,0],"split_type":[0,0,0,0,0],"sum_hessian":[1.7877191E2,6.53484E1,1.1342351E2,9.58539E1,1.756961E1],"tree_param":{"num_deleted":"0","num_feature":"3","num_nodes":"5","size_leaf_vector":"1"}},{"base_weights":[-0E0,2.7874526E-5,-1.1707371E-5],"categories":[],"categories_nodes":[],"categories_segments":[],"categories_sizes":[],"default_left":[0,0,0],"id":112,"left_children":[1,-1,-1],"loss_changes":[1.8654862E-6,0E0,0E0],"parents":[2147483647,0,0],"right_children":[2,-1,-1],"split_conditions":[1E0,2.7874526E-5,-1.1707371E-5],"split_indices":[0,0,0],"split_type":[0,0,0],"sum_hessian":[1.7876936E2,7.6174034E1,1.0259532E2],"tree_param":{"num_deleted":"0","num_feature":"3","num_nodes":"3","size_leaf_vector":"1"}},{"base_weights":[-0E0,-2.7875963E-5,1.1718766E-5],"categories":[],"categories_nodes":[],"categories_segments":[],"categories_sizes":[],"default_left":[0,0,0],"id":113,"left_children":[1,-1,-1],"loss_changes":[1.8663366E-6,0E0,0E0],"parents":[2147483647,0,0],"right_children":[2,-1,-1],"split_conditions":[1E0,-2.7875963E-5,1.1718766E-5],"split_indices":[0,0,0],"split_type":[0,0,0],"sum_hessian":[1.7876936E2,7.6174034E1,1.0259533E2],"tree_param":{"num_deleted":"0","num_feature":"3","num_nodes":"3","size_leaf_vector":"1"}},{"base_weights":[-0E0,2.8975583E-5,-1.0230147E-5],"categories":[],"categories_nodes":[],"categories_segments":[],"categories_sizes":[],"default_left":[0,0,0],"id":114,"left_children":[1,-1,-1],"loss_changes":[1.7037412E-6,0E0,0E0],"parents":[2147483647,0,0],"right_children":[2,-1,-1],"split_conditions":[1E0,2.8975583E-5,-1.0230147E-5],"split_indices":[1,0,0],"split_type":[0,0,0],"sum_hessian":[1.7876666E2,6.534555E1,1.1342112E2],"tree_param":{"num_deleted":"0","num_feature":"3","num_nodes":"3","size_leaf_vector":"1"}},{"base_weights":[-0E0,-2.897607E-5,1.0226465E-5],"categories":[],"categories_nodes":[],"categories_segments":[],"categories_sizes":[],"default_left":[0,0,0],"id":115,"left_children":[1,-1,-1],"loss_changes":[1.7035724E-6,0E0,0E0],"parents":[2147483647,0,0],"right_children":[2,-1,-1],"split_conditions":[1E0,-2.897607E-5,1.0226465E-5],"split_indices":[1,0,0],"split_type":[0,0,0],"sum_hessian":[1.7876666E2,6.534555E1,1.1342111E2],"tree_param":{"num_deleted":"0","num_feature":"3","num_nodes":"3","size_leaf_vector":"1"}},{"base_weights":[-0E0,6.261315E-5,-3.6496986E-5,3.6426612E-5,-0E0],"categories":[],"categories_nodes":[],"categories_segments":[],"categories_sizes":[],"default_left":[0,0,0,0,0],"id":116,"left_children":[1,3,-1,-1,-1],"loss_changes":[1.7082812E-6,1.1459988E-6,0E0,0E0,0E0],"parents":[2147483647,0,0,1,1],"right_children":[2,4,-1,-1,-1],"split_conditions":[1E0,1E0,-3.6496986E-5,3.6426612E-5,-0E0],"split_indices":[2,1,0,0,0],"split_type":[0,0,0,0,0],"sum_hessian":[1.7876517E2,1.4637558E2,3.2389587E1,5.052302E1,9.5852554E1],"tree_param":{"num_deleted":"0","num_feature":"3","num_nodes":"5","size_leaf_vector":"1"}},{"base_weights":[-0E0,-6.265245E-5,3.6507892E-5,-3.6447003E-5,-0E0],"categories":[],"categories_nodes":[],"categories_segments":[],"categories_sizes":[],"default_left":[0,0,0,0,0],"id":117,"left_children":[1,3,-1,-1,-1],"loss_changes":[1.7096836E-6,1.1472034E-6,0E0,0E0,0E0],"parents":[2147483647,0,0,1,1],"right_children":[2,4,-1,-1,-1],"split_conditions":[1E0,1E0,3.6507892E-5,-3.6447003E-5,-0E0],"split_indices":[2,1,0,0,0],"split_type":[0,0,0,0,0],"sum_hessian":[1.7876517E2,1.4637558E2,3.238959E1,5.0523026E1,9.5852554E1],"tree_param":{"num_deleted":"0","num_feature":"3","num_nodes":"5","size_leaf_vector":"1"}},{"base_weights":[-0E0,1.0045039E-5,-2.9520845E-5],"categories":[],"categories_nodes":[],"categories_segments":[],"categories_sizes":[],"default_left":[0,0,0],"id":118,"left_children":[1,-1,-1],"loss_changes":[1.1113688E-6,0E0,0E0],"parents":[2147483647,0,0],"right_children":[2,-1,-1],"split_conditions":[1E0,1.0045039E-5,-2.9520845E-5],"split_indices":[2,0,0],"split_type":[0,0,0],"sum_hessian":[1.7876341E2,1.4637413E2,3.238928E1],"tree_param":{"num_deleted":"0","num_feature":"3","num_nodes":"3","size_leaf_vector":"1"}},{"base_weights":[-0E0,-1.0035778E-5,2.9531046E-5],"categories":[],"categories_nodes":[],"categories_segments":[],"categories_sizes":[],"default_left":[0,0,0],"id":119,"left_children":[1,-1,-1],"loss_changes":[1.1111916E-6,0E0,0E0],"parents":[2147483647,0,0],"right_children":[2,-1,-1],"split_conditions":[1E0,-1.0035778E-5,2.9531046E-5],"split_indices":[2,0,0],"split_type":[0,0,0],"sum_hessian":[1.7876341E2,1.4637413E2,3.238928E1],"tree_param":{"num_deleted":"0","num_feature":"3","num_nodes":"3","size_leaf_vector":"1"}},{"base_weights":[-0E0,1.9508847E-5,-1.0890502E-5],"categories":[],"categories_nodes":[],"categories_segments":[],"categories_sizes":[],"default_left":[0,0,0],"id":120,"left_children":[1,-1,-1],"loss_changes":[1.0476613E-6,0E0,0E0],"parents":[2147483647,0,0],"right_children":[2,-1,-1],"split_conditions":[1E0,1.9508847E-5,-1.0890502E-5],"split_indices":[0,0,0],"split_type":[0,0,0],"sum_hessian":[1.7876282E2,7.616966E1,1.02593155E2],"tree_param":{"num_deleted":"0","num_feature":"3","num_nodes":"3","size_leaf_vector":"1"}},{"base_weights":[-0E0,-1.9499523E-5,1.0899149E-5],"categories":[],"categories_nodes":[],"categories_segments":[],"categories_sizes":[],"default_left":[0,0,0],"id":121,"left_children":[1,-1,-1],"loss_changes":[1.0474454E-6,0E0,0E0],"parents":[2147483647,0,0],"right_children":[2,-1,-1],"split_conditions":[1E0,-1.9499523E-5,1.0899149E-5],"split_indices":[0,0,0],"split_type":[0,0,0],"sum_hessian":[1.7876282E2,7.616966E1,1.02593155E2],"tree_param":{"num_deleted":"0","num_feature":"3","num_nodes":"3","size_leaf_vector":"1"}},{"base_weights":[-0E0],"categories":[],"categories_nodes":[],"categories_segments":[],"categories_sizes":[],"default_left":[0],"id":122,"left_children":[-1],"loss_changes":[0E0],"parents":[2147483647],"right_children":[-1],"split_conditions":[-0E0],"split_indices":[0],"split_type":[0],"sum_hessian":[1.7876079E2],"tree_param":{"num_deleted":"0","num_feature":"3","num_nodes":"1","size_leaf_vector":"1"}},{"base_weights":[-0E0],"categories":[],"categories_nodes":[],"categories_segments":[],"categories_sizes":[],"default_left":[0],"id":123,"left_children":[-1],"loss_changes":[0E0],"parents":[2147483647],"right_children":[-1],"split_conditions":[-0E0],"split_indices":[0],"split_type":[0],"sum_hessian":[1.7876079E2],"tree_param":{"num_deleted":"0","num_feature":"3","num_nodes":"1","size_leaf_vector":"1"}},{"base_weights":[-0E0],"categories":[],"categories_nodes":[],"categories_segments":[],"categories_sizes":[],"default_left":[0],"id":124,"left_children":[-1],"loss_changes":[0E0],"parents":[2147483647],"right_children":[-1],"split_conditions":[-0E0],"split_indices":[0],"split_type":[0],"sum_hessian":[1.7876079E2],"tree_param":{"num_deleted":"0","num_feature":"3","num_nodes":"1","size_leaf_vector":"1"}},{"base_weights":[-0E0],"categories":[],"categories_nodes":[],"categories_segments":[],"categories_sizes":[],"default_left":[0],"id":125,"left_children":[-1],"loss_changes":[0E0],"parents":[2147483647],"right_children":[-1],"split_conditions":[-0E0],"split_indices":[0],"split_type":[0],"sum_hessian":[1.7876079E2],"tree_param":{"num_deleted":"0","num_feature":"3","num_nodes":"1","size_leaf_vector":"1"}},{"base_weights":[-0E0],"categories":[],"categories_nodes":[],"categories_segments":[],"categories_sizes":[],"default_left":[0],"id":126,"left_children":[-1],"loss_changes":[0E0],"parents":[2147483647],"right_children":[-1],"split_conditions":[-0E0],"split_indices":[0],"split_type":[0],"sum_hessian":[1.7876079E2],"tree_param":{"num_deleted":"0","num_feature":"3","num_nodes":"1","size_leaf_vector":"1"}},{"base_weights":[-0E0],"categories":[],"categories_nodes":[],"categories_segments":[],"categories_sizes":[],"default_left":[0],"id":127,"left_children":[-1],"loss_changes":[0E0],"parents":[2147483647],"right_children":[-1],"split_conditions":[-0E0],"split_indices":[0],"split_type":[0],"sum_hessian":[1.7876079E2],"tree_param":{"num_deleted":"0","num_feature":"3","num_nodes":"1","size_leaf_vector":"1"}},{"base_weights":[-0E0],"categories":[],"categories_nodes":[],"categories_segments":[],"categories_sizes":[],"default_left":[0],"id":128,"left_children":[-1],"loss_changes":[0E0],"parents":[2147483647],"right_children":[-1],"split_conditions":[-0E0],"split_indices":[0],"split_type":[0],"sum_hessian":[1.7876079E2],"tree_param":{"num_deleted":"0","num_feature":"3","num_nodes":"1","size_leaf_vector":"1"}},{"base_weights":[-0E0],"categories":[],"categories_nodes":[],"categories_segments":[],"categories_sizes":[],"default_left":[0],"id":129,"left_children":[-1],"loss_changes":[0E0],"parents":[2147483647],"right_children":[-1],"split_conditions":[-0E0],"split_indices":[0],"split_type":[0],"sum_hessian":[1.7876079E2],"tree_param":{"num_deleted":"0","num_feature":"3","num_nodes":"1","size_leaf_vector":"1"}},{"base_weights":[-0E0],"categories":[],"categories_nodes":[],"categories_segments":[],"categories_sizes":[],"default_left":[0],"id":130,"left_children":[-1],"loss_changes":[0E0],"parents":[2147483647],"right_children":[-1],"split_conditions":[-0E0],"split_indices":[0],"split_type":[0],"sum_hessian":[1.7876079E2],"tree_param":{"num_deleted":"0","num_feature":"3","num_nodes":"1","size_leaf_vector":"1"}},{"base_weights":[-0E0],"categories":[],"categories_nodes":[],"categories_segments":[],"categories_sizes":[],"default_left":[0],"id":131,"left_children":[-1],"loss_changes":[0E0],"parents":[2147483647],"right_children":[-1],"split_conditions":[-0E0],"split_indices":[0],"split_type":[0],"sum_hessian":[1.7876079E2],"tree_param":{"num_deleted":"0","num_feature":"3","num_nodes":"1","size_leaf_vector":"1"}},{"base_weights":[-0E0],"categories":[],"categories_nodes":[],"categories_segments":[],"categories_sizes":[],"default_left":[0],"id":132,"left_children":[-1],"loss_changes":[0E0],"parents":[2147483647],"right_children":[-1],"split_conditions":[-0E0],"split_indices":[0],"split_type":[0],"sum_hessian":[1.7876079E2],"tree_param":{"num_deleted":"0","num_feature":"3","num_nodes":"1","size_leaf_vector":"1"}},{"base_weights":[-0E0],"categories":[],"categories_nodes":[],"categories_segments":[],"categories_sizes":[],"default_left":[0],"id":133,"left_children":[-1],"loss_changes":[0E0],"parents":[2147483647],"right_children":[-1],"split_conditions":[-0E0],"split_indices":[0],"split_type":[0],"sum_hessian":[1.7876079E2],"tree_param":{"num_deleted":"0","num_feature":"3","num_nodes":"1","size_leaf_vector":"1"}},{"base_weights":[-0E0],"categories":[],"categories_nodes":[],"categories_segments":[],"categories_sizes":[],"default_left":[0],"id":134,"left_children":[-1],"loss_changes":[0E0],"parents":[2147483647],"right_children":[-1],"split_conditions":[-0E0],"split_indices":[0],"split_type":[0],"sum_hessian":[1.7876079E2],"tree_param":{"num_deleted":"0","num_feature":"3","num_nodes":"1","size_leaf_vector":"1"}},{"base_weights":[-0E0],"categories":[],"categories_nodes":[],"categories_segments":[],"categories_sizes":[],"default_left":[0],"id":135,"left_children":[-1],"loss_changes":[0E0],"parents":[2147483647],"right_children":[-1],"split_conditions":[-0E0],"split_indices":[0],"split_type":[0],"sum_hessian":[1.7876079E2],"tree_param":{"num_deleted":"0","num_feature":"3","num_nodes":"1","size_leaf_vector":"1"}},{"base_weights":[-0E0],"categories":[],"categories_nodes":[],"categories_segments":[],"categories_sizes":[],"default_left":[0],"id":136,"left_children":[-1],"loss_changes":[0E0],"parents":[2147483647],"right_children":[-1],"split_conditions":[-0E0],"split_indices":[0],"split_type":[0],"sum_hessian":[1.7876079E2],"tree_param":{"num_deleted":"0","num_feature":"3","num_nodes":"1","size_leaf_vector":"1"}},{"base_weights":[-0E0],"categories":[],"categories_nodes":[],"categories_segments":[],"categories_sizes":[],"default_left":[0],"id":137,"left_children":[-1],"loss_changes":[0E0],"parents":[2147483647],"right_children":[-1],"split_conditions":[-0E0],"split_indices":[0],"split_type":[0],"sum_hessian":[1.7876079E2],"tree_param":{"num_deleted":"0","num_feature":"3","num_nodes":"1","size_leaf_vector":"1"}},{"base_weights":[-0E0],"categories":[],"categories_nodes":[],"categories_segments":[],"categories_sizes":[],"default_left":[0],"id":138,"left_children":[-1],"loss_changes":[0E0],"parents":[2147483647],"right_children":[-1],"split_conditions":[-0E0],"split_indices":[0],"split_type":[0],"sum_hessian":[1.7876079E2],"tree_param":{"num_deleted":"0","num_feature":"3","num_nodes":"1","size_leaf_vector":"1"}},{"base_weights":[-0E0],"categories":[],"categories_nodes":[],"categories_segments":[],"categories_sizes":[],"default_left":[0],"id":139,"left_children":[-1],"loss_changes":[0E0],"parents":[2147483647],"right_children":[-1],"split_conditions":[-0E0],"split_indices":[0],"split_type":[0],"sum_hessian":[1.7876079E2],"tree_param":{"num_deleted":"0","num_feature":"3","num_nodes":"1","size_leaf_vector":"1"}},{"base_weights":[-0E0],"categories":[],"categories_nodes":[],"categories_segments":[],"categories_sizes":[],"default_left":[0],"id":140,"left_children":[-1],"loss_changes":[0E0],"parents":[2147483647],"right_children":[-1],"split_conditions":[-0E0],"split_indices":[0],"split_type":[0],"sum_hessian":[1.7876079E2],"tree_param":{"num_deleted":"0","num_feature":"3","num_nodes":"1","size_leaf_vector":"1"}},{"base_weights":[-0E0],"categories":[],"categories_nodes":[],"categories_segments":[],"categories_sizes":[],