{"learner":{"attributes":{},"feature_names":[],"feature_types":[],"gradient_booster":{"model":{"gbtree_model_param":{"num_parallel_tree":"1","num_trees":"1000"},"iteration_indptr":[0,2,4,6,8,10,12,14,16,18,20,22,24,26,28,30,32,34,36,38,40,42,44,46,48,50,52,54,56,58,60,62,64,66,68,70,72,74,76,78,80,82,84,86,88,90,92,94,96,98,100,102,104,106,108,110,112,114,116,118,120,122,124,126,128,130,132,134,136,138,140,142,144,146,148,150,152,154,156,158,160,162,164,166,168,170,172,174,176,178,180,182,184,186,188,190,192,194,196,198,200,202,204,206,208,210,212,214,216,218,220,222,224,226,228,230,232,234,236,238,240,242,244,246,248,250,252,254,256,258,260,262,264,266,268,270,272,274,276,278,280,282,284,286,288,290,292,294,296,298,300,302,304,306,308,310,312,314,316,318,320,322,324,326,328,330,332,334,336,338,340,342,344,346,348,350,352,354,356,358,360,362,364,366,368,370,372,374,376,378,380,382,384,386,388,390,392,394,396,398,400,402,404,406,408,410,412,414,416,418,420,422,424,426,428,430,432,434,436,438,440,442,444,446,448,450,452,454,456,458,460,462,464,466,468,470,472,474,476,478,480,482,484,486,488,490,492,494,496,498,500,502,504,506,508,510,512,514,516,518,520,522,524,526,528,530,532,534,536,538,540,542,544,546,548,550,552,554,556,558,560,562,564,566,568,570,572,574,576,578,580,582,584,586,588,590,592,594,596,598,600,602,604,606,608,610,612,614,616,618,620,622,624,626,628,630,632,634,636,638,640,642,644,646,648,650,652,654,656,658,660,662,664,666,668,670,672,674,676,678,680,682,684,686,688,690,692,694,696,698,700,702,704,706,708,710,712,714,716,718,720,722,724,726,728,730,732,734,736,738,740,742,744,746,748,750,752,754,756,758,760,762,764,766,768,770,772,774,776,778,780,782,784,786,788,790,792,794,796,798,800,802,804,806,808,810,812,814,816,818,820,822,824,826,828,830,832,834,836,838,840,842,844,846,848,850,852,854,856,858,860,862,864,866,868,870,872,874,876,878,880,882,884,886,888,890,892,894,896,898,900,902,904,906,908,910,912,914,916,918,920,922,924,926,928,930,932,934,936,938,940,942,944,946,948,950,952,954,956,958,960,962,964,966,968,970,972,974,976,978,980,982,984,986,988,990,992,994,996,998,1000],"tree_info":[0,1,0,1,0,1,0,1,0,1,0,1,0,1,0,1,0,1,0,1,0,1,0,1,0,1,0,1,0,1,0,1,0,1,0,1,0,1,0,1,0,1,0,1,0,1,0,1,0,1,0,1,0,1,0,1,0,1,0,1,0,1,0,1,0,1,0,1,0,1,0,1,0,1,0,1,0,1,0,1,0,1,0,1,0,1,0,1,0,1,0,1,0,1,0,1,0,1,0,1,0,1,0,1,0,1,0,1,0,1,0,1,0,1,0,1,0,1,0,1,0,1,0,1,0,1,0,1,0,1,0,1,0,1,0,1,0,1,0,1,0,1,0,1,0,1,0,1,0,1,0,1,0,1,0,1,0,1,0,1,0,1,0,1,0,1,0,1,0,1,0,1,0,1,0,1,0,1,0,1,0,1,0,1,0,1,0,1,0,1,0,1,0,1,0,1,0,1,0,1,0,1,0,1,0,1,0,1,0,1,0,1,0,1,0,1,0,1,0,1,0,1,0,1,0,1,0,1,0,1,0,1,0,1,0,1,0,1,0,1,0,1,0,1,0,1,0,1,0,1,0,1,0,1,0,1,0,1,0,1,0,1,0,1,0,1,0,1,0,1,0,1,0,1,0,1,0,1,0,1,0,1,0,1,0,1,0,1,0,1,0,1,0,1,0,1,0,1,0,1,0,1,0,1,0,1,0,1,0,1,0,1,0,1,0,1,0,1,0,1,0,1,0,1,0,1,0,1,0,1,0,1,0,1,0,1,0,1,0,1,0,1,0,1,0,1,0,1,0,1,0,1,0,1,0,1,0,1,0,1,0,1,0,1,0,1,0,1,0,1,0,1,0,1,0,1,0,1,0,1,0,1,0,1,0,1,0,1,0,1,0,1,0,1,0,1,0,1,0,1,0,1,0,1,0,1,0,1,0,1,0,1,0,1,0,1,0,1,0,1,0,1,0,1,0,1,0,1,0,1,0,1,0,1,0,1,0,1,0,1,0,1,0,1,0,1,0,1,0,1,0,1,0,1,0,1,0,1,0,1,0,1,0,1,0,1,0,1,0,1,0,1,0,1,0,1,0,1,0,1,0,1,0,1,0,1,0,1,0,1,0,1,0,1,0,1,0,1,0,1,0,1,0,1,0,1,0,1,0,1,0,1,0,1,0,1,0,1,0,1,0,1,0,1,0,1,0,1,0,1,0,1,0,1,0,1,0,1,0,1,0,1,0,1,0,1,0,1,0,1,0,1,0,1,0,1,0,1,0,1,0,1,0,1,0,1,0,1,0,1,0,1,0,1,0,1,0,1,0,1,0,1,0,1,0,1,0,1,0,1,0,1,0,1,0,1,0,1,0,1,0,1,0,1,0,1,0,1,0,1,0,1,0,1,0,1,0,1,0,1,0,1,0,1,0,1,0,1,0,1,0,1,0,1,0,1,0,1,0,1,0,1,0,1,0,1,0,1,0,1,0,1,0,1,0,1,0,1,0,1,0,1,0,1,0,1,0,1,0,1,0,1,0,1,0,1,0,1,0,1,0,1,0,1,0,1,0,1,0,1,0,1,0,1,0,1,0,1,0,1,0,1,0,1,0,1,0,1,0,1,0,1,0,1,0,1,0,1,0,1,0,1,0,1,0,1,0,1,0,1,0,1,0,1,0,1,0,1,0,1,0,1,0,1,0,1,0,1,0,1,0,1,0,1,0,1,0,1,0,1,0,1,0,1,0,1,0,1,0,1,0,1,0,1,0,1,0,1,0,1,0,1,0,1,0,1,0,1,0,1,0,1,0,1,0,1,0,1,0,1,0,1,0,1,0,1,0,1,0,1,0,1,0,1,0,1,0,1,0,1,0,1,0,1,0,1,0,1,0,1,0,1,0,1,0,1,0,1,0,1,0,1,0,1,0,1,0,1,0,1,0,1,0,1,0,1,0,1,0,1,0,1,0,1,0,1,0,1,0,1,0,1,0,1,0,1,0,1,0,1,0,1,0,1,0,1,0,1,0,1,0,1,0,1,0,1,0,1,0,1,0,1,0,1,0,1,0,1,0,1,0,1,0,1,0,1,0,1,0,1,0,1,0,1,0,1,0,1,0,1,0,1,0,1,0,1,0,1,0,1,0,1,0,1,0,1,0,1,0,1,0,1,0,1,0,1,0,1,0,1,0,1,0,1,0,1,0,1,0,1,0,1,0,1,0,1,0,1,0,1,0,1,0,1,0,1,0,1,0,1,0,1,0,1,0,1,0,1,0,1],"trees":[{"base_weights":[-2.1868365E-1,-1.5530726E-1,1.1186441E-1,3.2743362E-1,-1.0555556E-1,1.07692316E-1,-8.9361705E-2],"categories":[],"categories_nodes":[],"categories_segments":[],"categories_sizes":[],"default_left":[0,0,0,0,0,0,0],"id":0,"left_children":[1,-1,3,5,-1,-1,-1],"loss_changes":[4.455283E1,0E0,2.029706E1,1.896106E1,0E0,0E0,0E0],"parents":[2147483647,0,0,2,2,3,3],"right_children":[2,-1,4,6,-1,-1,-1],"split_conditions":[1E0,-1.5530726E-1,1E0,1E0,-1.0555556E-1,1.07692316E-1,-8.9361705E-2],"split_indices":[3,0,2,0,0,0,0],"split_type":[0,0,0,0,0,0,0],"sum_hessian":[2.34E2,8.8E1,1.46E2,1.115E2,3.45E1,8.95E1,2.2E1],"tree_param":{"num_deleted":"0","num_feature":"4","num_nodes":"7","size_leaf_vector":"1"}},{"base_weights":[2.1868365E-1,1.5530726E-1,-1.1186441E-1,-3.2743362E-1,1.0555556E-1,-1.07692316E-1,8.9361705E-2],"categories":[],"categories_nodes":[],"categories_segments":[],"categories_sizes":[],"default_left":[0,0,0,0,0,0,0],"id":1,"left_children":[1,-1,3,5,-1,-1,-1],"loss_changes":[4.455283E1,0E0,2.029706E1,1.896106E1,0E0,0E0,0E0],"parents":[2147483647,0,0,2,2,3,3],"right_children":[2,-1,4,6,-1,-1,-1],"split_conditions":[1E0,1.5530726E-1,1E0,1E0,1.0555556E-1,-1.07692316E-1,8.9361705E-2],"split_indices":[3,0,2,0,0,0,0],"split_type":[0,0,0,0,0,0,0],"sum_hessian":[2.34E2,8.8E1,1.46E2,1.115E2,3.45E1,8.95E1,2.2E1],"tree_param":{"num_deleted":"0","num_feature":"4","num_nodes":"7","size_leaf_vector":"1"}},{"base_weights":[-1.8097387E-1,-1.2799704E-1,8.558193E-2,2.6261738E-1,-8.631372E-2,8.758172E-2,-3.66095E-1,-1.09275006E-1,-1.8634494E-2],"categories":[],"categories_nodes":[],"categories_segments":[],"categories_sizes":[],"default_left":[0,0,0,0,0,0,0,0,0],"id":2,"left_children":[1,-1,3,5,-1,-1,7,-1,-1],"loss_changes":[2.9278013E1,0E0,1.3275557E1,1.2668898E1,0E0,0E0,1.11978054E-1,0E0,0E0],"parents":[2147483647,0,0,2,2,3,3,6,6],"right_children":[2,-1,4,6,-1,-1,8,-1,-1],"split_conditions":[1E0,-1.2799704E-1,1E0,1E0,-8.631372E-2,8.758172E-2,1E0,-1.09275006E-1,-1.8634494E-2],"split_indices":[3,0,2,0,0,0,1,0,0],"split_type":[0,0,0,0,0,0,0,0,0],"sum_hessian":[2.3032475E2,8.591108E1,1.4441368E2,1.10295235E2,3.411844E1,8.8469986E1,2.182525E1,8.928512E0,1.2896739E1],"tree_param":{"num_deleted":"0","num_feature":"4","num_nodes":"9","size_leaf_vector":"1"}},{"base_weights":[1.8097386E-1,1.2799704E-1,-8.5581936E-2,-2.6261738E-1,8.631372E-2,-8.758172E-2,3.66095E-1,1.09275006E-1,1.8634489E-2],"categories":[],"categories_nodes":[],"categories_segments":[],"categories_sizes":[],"default_left":[0,0,0,0,0,0,0,0,0],"id":3,"left_children":[1,-1,3,5,-1,-1,7,-1,-1],"loss_changes":[2.9278015E1,0E0,1.32755575E1,1.2668895E1,0E0,0E0,1.1197853E-1,0E0,0E0],"parents":[2147483647,0,0,2,2,3,3,6,6],"right_children":[2,-1,4,6,-1,-1,8,-1,-1],"split_conditions":[1E0,1.2799704E-1,1E0,1E0,8.631372E-2,-8.758172E-2,1E0,1.09275006E-1,1.8634489E-2],"split_indices":[3,0,2,0,0,0,1,0,0],"split_type":[0,0,0,0,0,0,0,0,0],"sum_hessian":[2.3032475E2,8.591108E1,1.4441368E2,1.10295235E2,3.411844E1,8.8469986E1,2.1825249E1,8.928511E0,1.2896738E1],"tree_param":{"num_deleted":"0","num_feature":"4","num_nodes":"9","size_leaf_vector":"1"}},{"base_weights":[-1.554125E-1,-1.0921818E-1,6.27953E-2,2.2024086E-1,-3.3992144E-1,7.241022E-2,-6.962151E-2,-9.748002E-2,-2.9492868E-2],"categories":[],"categories_nodes":[],"categories_segments":[],"categories_sizes":[],"default_left":[0,0,0,0,0,0,0,0,0],"id":4,"left_children":[1,-1,3,5,7,-1,-1,-1,-1],"loss_changes":[1.9849546E1,0E0,8.964077E0,8.752462E0,1.6944885E-2,0E0,0E0,0E0,0E0],"parents":[2147483647,0,0,2,2,3,3,4,4],"right_children":[2,-1,4,6,8,-1,-1,-1,-1],"split_conditions":[1E0,-1.0921818E-1,1E0,1E0,1E0,7.241022E-2,-6.962151E-2,-9.748002E-2,-2.9492868E-2],"split_indices":[3,0,0,2,1,0,0,0,0],"split_type":[0,0,0,0,0,0,0,0,0],"sum_hessian":[2.2223457E2,8.129843E1,1.4093614E2,1.0448946E2,3.6446682E1,8.617211E1,1.8317354E1,1.492049E1,2.1526192E1],"tree_param":{"num_deleted":"0","num_feature":"4","num_nodes":"9","size_leaf_vector":"1"}},{"base_weights":[1.554125E-1,1.0921818E-1,-6.279531E-2,-2.2024088E-1,3.399214E-1,-7.241022E-2,6.96215E-2,9.748002E-2,2.9492864E-2],"categories":[],"categories_nodes":[],"categories_segments":[],"categories_sizes":[],"default_left":[0,0,0,0,0,0,0,0,0],"id":5,"left_children":[1,-1,3,5,7,-1,-1,-1,-1],"loss_changes":[1.9849548E1,0E0,8.964077E0,8.752461E0,1.6944408E-2,0E0,0E0,0E0,0E0],"parents":[2147483647,0,0,2,2,3,3,4,4],"right_children":[2,-1,4,6,8,-1,-1,-1,-1],"split_conditions":[1E0,1.0921818E-1,1E0,1E0,1E0,-7.241022E-2,6.96215E-2,9.748002E-2,2.9492864E-2],"split_indices":[3,0,0,2,1,0,0,0,0],"split_type":[0,0,0,0,0,0,0,0,0],"sum_hessian":[2.2223457E2,8.129843E1,1.4093614E2,1.0448946E2,3.6446682E1,8.617211E1,1.8317352E1,1.492049E1,2.1526192E1],"tree_param":{"num_deleted":"0","num_feature":"4","num_nodes":"9","size_leaf_vector":"1"}},{"base_weights":[-1.3563354E-1,-9.4867475E-2,4.4229697E-2,1.798208E-1,-5.8504082E-2,6.031614E-2,-5.8593314E-2],"categories":[],"categories_nodes":[],"categories_segments":[],"categories_sizes":[],"default_left":[0,0,0,0,0,0,0],"id":6,"left_children":[1,-1,3,5,-1,-1,-1],"loss_changes":[1.3709364E1,0E0,6.2205186E0,6.054028E0,0E0,0E0,0E0],"parents":[2147483647,0,0,2,2,3,3],"right_children":[2,-1,4,6,-1,-1,-1],"split_conditions":[1E0,-9.4867475E-2,1E0,1E0,-5.8504082E-2,6.031614E-2,-5.8593314E-2],"split_indices":[3,0,0,2,0,0,0],"split_type":[0,0,0,0,0,0,0],"sum_hessian":[2.1243062E2,7.572164E1,1.3670898E2,1.01139084E2,3.5569897E1,8.338125E1,1.7757837E1],"tree_param":{"num_deleted":"0","num_feature":"4","num_nodes":"7","size_leaf_vector":"1"}},{"base_weights":[1.3563345E-1,9.486747E-2,-4.4229794E-2,-1.7982091E-1,5.850407E-2,-6.0316157E-2,5.859331E-2],"categories":[],"categories_nodes":[],"categories_segments":[],"categories_sizes":[],"default_left":[0,0,0,0,0,0,0],"id":7,"left_children":[1,-1,3,5,-1,-1,-1],"loss_changes":[1.3709367E1,0E0,6.2205195E0,6.054029E0,0E0,0E0,0E0],"parents":[2147483647,0,0,2,2,3,3],"right_children":[2,-1,4,6,-1,-1,-1],"split_conditions":[1E0,9.486747E-2,1E0,1E0,5.850407E-2,-6.0316157E-2,5.859331E-2],"split_indices":[3,0,0,2,0,0,0],"split_type":[0,0,0,0,0,0,0],"sum_hessian":[2.1243062E2,7.5721634E1,1.3670898E2,1.0113909E2,3.5569897E1,8.3381256E1,1.7757835E1],"tree_param":{"num_deleted":"0","num_feature":"4","num_nodes":"7","size_leaf_vector":"1"}},{"base_weights":[-1.1760992E-1,-8.309747E-2,3.1728532E-2,1.465246E-1,-2.43698E-1,5.036043E-2,-2.4722528E-1,-7.566509E-2,-1.3688028E-2,-2.0342576E-3,-8.100037E-2],"categories":[],"categories_nodes":[],"categories_segments":[],"categories_sizes":[],"default_left":[0,0,0,0,0,0,0,0,0,0,0],"id":8,"left_children":[1,-1,3,5,7,-1,9,-1,-1,-1,-1],"loss_changes":[9.660648E0,0E0,4.137452E0,4.2124224E0,1.4213824E-1,0E0,6.968546E-2,0E0,0E0,0E0,0E0],"parents":[2147483647,0,0,2,2,3,3,4,4,6,6],"right_children":[2,-1,4,6,8,-1,10,-1,-1,-1,-1],"split_conditions":[1E0,-8.309747E-2,1E0,1E0,1E0,5.036043E-2,1E0,-7.566509E-2,-1.3688028E-2,-2.0342576E-3,-8.100037E-2],"split_indices":[3,0,0,2,1,0,1,0,0,0,0],"split_type":[0,0,0,0,0,0,0,0,0,0,0],"sum_hessian":[2.022839E2,7.000991E1,1.32274E2,9.770096E1,3.4573036E1,8.052196E1,1.7179008E1,1.3729581E1,2.0843456E1,1.1301979E1,5.877029E0],"tree_param":{"num_deleted":"0","num_feature":"4","num_nodes":"11","size_leaf_vector":"1"}},{"base_weights":[1.17609955E-1,8.309747E-2,-3.1728484E-2,-1.4652455E-1,2.4369805E-1,-5.036042E-2,2.4722531E-1,7.56651E-2,1.3688037E-2,2.0342655E-3,8.100038E-2],"categories":[],"categories_nodes":[],"categories_segments":[],"categories_sizes":[],"default_left":[0,0,0,0,0,0,0,0,0,0,0],"id":9,"left_children":[1,-1,3,5,7,-1,9,-1,-1,-1,-1],"loss_changes":[9.660646E0,0E0,4.1374516E0,4.2124224E0,1.4213872E-1,0E0,6.968534E-2,0E0,0E0,0E0,0E0],"parents":[2147483647,0,0,2,2,3,3,4,4,6,6],"right_children":[2,-1,4,6,8,-1,10,-1,-1,-1,-1],"split_conditions":[1E0,8.309747E-2,1E0,1E0,1E0,-5.036042E-2,1E0,7.56651E-2,1.3688037E-2,2.0342655E-3,8.100038E-2],"split_indices":[3,0,0,2,1,0,1,0,0,0,0],"split_type":[0,0,0,0,0,0,0,0,0,0,0],"sum_hessian":[2.022839E2,7.000991E1,1.32274E2,9.770096E1,3.457304E1,8.052195E1,1.717901E1,1.3729581E1,2.0843456E1,1.130198E1,5.87703E0],"tree_param":{"num_deleted":"0","num_feature":"4","num_nodes":"11","size_leaf_vector":"1"}},{"base_weights":[-1.0583044E-1,-7.297628E-2,1.5695836E-2,1.10813186E-1,-4.6542574E-2,4.2021163E-2,-1.9396524E-1,-6.3194156E-2,-0E0],"categories":[],"categories_nodes":[],"categories_segments":[],"categories_sizes":[],"default_left":[0,0,0,0,0,0,0,0,0],"id":10,"left_children":[1,-1,3,5,-1,-1,7,-1,-1],"loss_changes":[6.653941E0,0E0,2.9240355E0,3.089851E0,0E0,0E0,9.295601E-2,0E0,0E0],"parents":[2147483647,0,0,2,2,3,3,6,6],"right_children":[2,-1,4,6,-1,-1,8,-1,-1],"split_conditions":[1E0,-7.297628E-2,1E0,1E0,-4.6542574E-2,4.2021163E-2,1E0,-6.3194156E-2,-0E0],"split_indices":[3,0,2,0,0,0,1,0,0],"split_type":[0,0,0,0,0,0,0,0,0],"sum_hessian":[1.9294984E2,6.459515E1,1.2835469E2,9.778244E1,3.0572254E1,7.781797E1,1.9964472E1,7.5196886E0,1.2444784E1],"tree_param":{"num_deleted":"0","num_feature":"4","num_nodes":"9","size_leaf_vector":"1"}},{"base_weights":[1.0583043E-1,7.297628E-2,-1.5695846E-2,-1.1081319E-1,4.654257E-2,-4.2021163E-2,1.9396523E-1,6.319417E-2,-0E0],"categories":[],"categories_nodes":[],"categories_segments":[],"categories_sizes":[],"default_left":[0,0,0,0,0,0,0,0,0],"id":11,"left_children":[1,-1,3,5,-1,-1,7,-1,-1],"loss_changes":[6.6539416E0,0E0,2.9240355E0,3.0898504E0,0E0,0E0,9.295654E-2,0E0,0E0],"parents":[2147483647,0,0,2,2,3,3,6,6],"right_children":[2,-1,4,6,-1,-1,8,-1,-1],"split_conditions":[1E0,7.297628E-2,1E0,1E0,4.654257E-2,-4.2021163E-2,1E0,6.319417E-2,-0E0],"split_indices":[3,0,2,0,0,0,1,0,0],"split_type":[0,0,0,0,0,0,0,0,0],"sum_hessian":[1.9294984E2,6.459515E1,1.2835469E2,9.778244E1,3.0572252E1,7.781797E1,1.9964472E1,7.5196886E0,1.2444784E1],"tree_param":{"num_deleted":"0","num_feature":"4","num_nodes":"9","size_leaf_vector":"1"}},{"base_weights":[-9.369419E-2,-3.200479E-1,5.4106936E-3,-8.0299795E-2,-2.7683115E-2,9.21486E-2,-1.8642531E-1,3.4980793E-2,-1.8879433E-1,-5.822618E-2,-7.874111E-3,-0E0,-6.625182E-2],"categories":[],"categories_nodes":[],"categories_segments":[],"categories_sizes":[],"default_left":[0,0,0,0,0,0,0,0,0,0,0,0,0],"id":12,"left_children":[1,3,5,-1,-1,7,9,-1,11,-1,-1,-1,-1],"loss_changes":[4.640511E0,1.19280815E-2,1.9813403E0,0E0,0E0,2.1949415E0,1.5977025E-2,0E0,1.1770576E-1,0E0,0E0,0E0,0E0],"parents":[2147483647,0,0,1,1,2,2,5,5,6,6,8,8],"right_children":[2,4,6,-1,-1,8,10,-1,12,-1,-1,-1,-1],"split_conditions":[1E0,1E0,1E0,-8.0299795E-2,-2.7683115E-2,1E0,1E0,3.4980793E-2,1E0,-5.822618E-2,-7.874111E-3,-0E0,-6.625182E-2],"split_indices":[3,1,0,0,0,2,1,0,1,0,0,0,0],"split_type":[0,0,0,0,0,0,0,0,0,0,0,0,0],"sum_hessian":[1.842087E2,5.968368E1,1.24525E2,3.4250294E1,2.5433388E1,9.167374E1,3.2851273E1,7.537607E1,1.6297668E1,1.23721695E1,2.0479101E1,1.0943976E1,5.353692E0],"tree_param":{"num_deleted":"0","num_feature":"4","num_nodes":"13","size_leaf_vector":"1"}},{"base_weights":[9.369408E-2,3.2004774E-1,-5.4107546E-3,8.029978E-2,2.7683083E-2,-9.2148654E-2,1.8642524E-1,-3.4980807E-2,1.8879437E-1,5.822617E-2,7.874095E-3,-0E0,6.625181E-2],"categories":[],"categories_nodes":[],"categories_segments":[],"categories_sizes":[],"default_left":[0,0,0,0,0,0,0,0,0,0,0,0,0],"id":13,"left_children":[1,3,5,-1,-1,7,9,-1,11,-1,-1,-1,-1],"loss_changes":[4.640508E0,1.1929035E-2,1.9813404E0,0E0,0E0,2.194943E0,1.5977383E-2,0E0,1.1770517E-1,0E0,0E0,0E0,0E0],"parents":[2147483647,0,0,1,1,2,2,5,5,6,6,8,8],"right_children":[2,4,6,-1,-1,8,10,-1,12,-1,-1,-1,-1],"split_conditions":[1E0,1E0,1E0,8.029978E-2,2.7683083E-2,1E0,1E0,-3.4980807E-2,1E0,5.822617E-2,7.874095E-3,-0E0,6.625181E-2],"split_indices":[3,1,0,0,0,2,1,0,1,0,0,0,0],"split_type":[0,0,0,0,0,0,0,0,0,0,0,0,0],"sum_hessian":[1.8420868E2,5.9683666E1,1.2452501E2,3.4250286E1,2.543338E1,9.167374E1,3.2851273E1,7.537607E1,1.6297668E1,1.23721695E1,2.0479101E1,1.0943977E1,5.3536916E0],"tree_param":{"num_deleted":"0","num_feature":"4","num_nodes":"13","size_leaf_vector":"1"}},{"base_weights":[-8.664217E-2,-5.6796253E-2,-0E0,6.978109E-2,-3.2979958E-2,1.4513105E-1,-1.72413E-1,8.674643E-3,4.235336E-2,-0E0,-5.8837425E-2],"categories":[],"categories_nodes":[],"categories_segments":[],"categories_sizes":[],"default_left":[0,0,0,0,0,0,0,0,0,0,0],"id":14,"left_children":[1,-1,3,5,-1,7,9,-1,-1,-1,-1],"loss_changes":[3.2778199E0,0E0,1.355612E0,1.6522835E0,0E0,1.1027038E-1,4.661894E-2,0E0,0E0,0E0,0E0],"parents":[2147483647,0,0,2,2,3,3,5,5,6,6],"right_children":[2,-1,4,6,-1,8,10,-1,-1,-1,-1],"split_conditions":[1E0,-5.6796253E-2,1E0,1E0,-3.2979958E-2,1E0,1E0,8.674643E-3,4.235336E-2,-0E0,-5.8837425E-2],"split_indices":[3,0,0,2,0,1,1,0,0,0,0],"split_type":[0,0,0,0,0,0,0,0,0,0,0],"sum_hessian":[1.7710205E2,5.577002E1,1.2133203E2,8.92252E1,3.210683E1,7.323523E1,1.5989972E1,3.886786E1,3.436737E1,1.0943976E1,5.0459957E0],"tree_param":{"num_deleted":"0","num_feature":"4","num_nodes":"11","size_leaf_vector":"1"}},{"base_weights":[8.664216E-2,5.679624E-2,-0E0,-6.978107E-2,3.297996E-2,-1.4513105E-1,1.7241308E-1,-8.674643E-3,-4.235336E-2,-0E0,5.8837425E-2],"categories":[],"categories_nodes":[],"categories_segments":[],"categories_sizes":[],"default_left":[0,0,0,0,0,0,0,0,0,0,0],"id":15,"left_children":[1,-1,3,5,-1,7,9,-1,-1,-1,-1],"loss_changes":[3.2778182E0,0E0,1.3556123E0,1.6522843E0,0E0,1.1027038E-1,4.661852E-2,0E0,0E0,0E0,0E0],"parents":[2147483647,0,0,2,2,3,3,5,5,6,6],"right_children":[2,-1,4,6,-1,8,10,-1,-1,-1,-1],"split_conditions":[1E0,5.679624E-2,1E0,1E0,3.297996E-2,1E0,1E0,-8.674643E-3,-4.235336E-2,-0E0,5.8837425E-2],"split_indices":[3,0,0,2,0,1,1,0,0,0,0],"split_type":[0,0,0,0,0,0,0,0,0,0,0],"sum_hessian":[1.7710205E2,5.577001E1,1.2133203E2,8.92252E1,3.2106834E1,7.323523E1,1.5989973E1,3.886786E1,3.436737E1,1.0943977E1,5.0459957E0],"tree_param":{"num_deleted":"0","num_feature":"4","num_nodes":"11","size_leaf_vector":"1"}},{"base_weights":[-7.45923E-2,-2.4697067E-1,-0E0,-6.579521E-2,-1.3732547E-2,5.4475468E-2,-3.115655E-2,1.2409977E-1,-1.2730703E-1,7.0608654E-3,3.5644606E-2,-4.4084456E-2,-0E0],"categories":[],"categories_nodes":[],"categories_segments":[],"categories_sizes":[],"default_left":[0,0,0,0,0,0,0,0,0,0,0,0,0],"id":16,"left_children":[1,3,5,-1,-1,7,-1,9,11,-1,-1,-1,-1],"loss_changes":[2.3029613E0,1.5144205E-1,9.966928E-1,0E0,0E0,1.1820918E0,0E0,2.196443E-2,6.1331272E-2,0E0,0E0,0E0,0E0],"parents":[2147483647,0,0,1,1,2,2,5,5,7,7,8,8],"right_children":[2,4,6,-1,-1,8,-1,10,12,-1,-1,-1,-1],"split_conditions":[1E0,1E0,1E0,-6.579521E-2,-1.3732547E-2,1E0,-3.115655E-2,1E0,1E0,7.0608654E-3,3.5644606E-2,-4.4084456E-2,-0E0],"split_indices":[3,1,2,0,0,0,0,1,1,0,0,0,0],"split_type":[0,0,0,0,0,0,0,0,0,0,0,0,0],"sum_hessian":[1.7070265E2,5.196544E1,1.18737206E2,2.896451E1,2.300093E1,9.040585E1,2.8331352E1,7.167955E1,1.8726305E1,3.8579082E1,3.3100468E1,6.5093184E0,1.2216987E1],"tree_param":{"num_deleted":"0","num_feature":"4","num_nodes":"13","size_leaf_vector":"1"}},{"base_weights":[7.459227E-2,2.4697062E-1,-0E0,6.5795206E-2,1.3732547E-2,-5.447551E-2,3.115656E-2,-1.2409982E-1,1.2730703E-1,-7.060893E-3,-3.5644602E-2,4.4084456E-2,-0E0],"categories":[],"categories_nodes":[],"categories_segments":[],"categories_sizes":[],"default_left":[0,0,0,0,0,0,0,0,0,0,0,0,0],"id":17,"left_children":[1,3,5,-1,-1,7,-1,9,11,-1,-1,-1,-1],"loss_changes":[2.3029602E0,1.5144205E-1,9.966938E-1,0E0,0E0,1.1820924E0,0E0,2.1963239E-2,6.1331272E-2,0E0,0E0,0E0,0E0],"parents":[2147483647,0,0,1,1,2,2,5,5,7,7,8,8],"right_children":[2,4,6,-1,-1,8,-1,10,12,-1,-1,-1,-1],"split_conditions":[1E0,1E0,1E0,6.5795206E-2,1.3732547E-2,1E0,3.115656E-2,1E0,1E0,-7.060893E-3,-3.5644602E-2,4.4084456E-2,-0E0],"split_indices":[3,1,2,0,0,0,0,1,1,0,0,0,0],"split_type":[0,0,0,0,0,0,0,0,0,0,0,0,0],"sum_hessian":[1.7070264E2,5.1965435E1,1.18737206E2,2.8964506E1,2.300093E1,9.040585E1,2.8331354E1,7.167955E1,1.8726305E1,3.8579082E1,3.3100464E1,6.5093184E0,1.2216987E1],"tree_param":{"num_deleted":"0","num_feature":"4","num_nodes":"13","size_leaf_vector":"1"}},{"base_weights":[-6.579922E-2,-2.1860127E-1,-0E0,-5.8520623E-2,-1.1357914E-2,4.2707562E-2,-2.5955638E-2,2.1295724E-2,-1.1517887E-1,-3.8546886E-2,-0E0],"categories":[],"categories_nodes":[],"categories_segments":[],"categories_sizes":[],"default_left":[0,0,0,0,0,0,0,0,0,0,0],"id":18,"left_children":[1,3,5,-1,-1,7,-1,-1,9,-1,-1],"loss_changes":[1.696193E0,5.7179213E-2,6.5466833E-1,0E0,0E0,9.141867E-1,0E0,0E0,2.1942556E-2,0E0,0E0],"parents":[2147483647,0,0,1,1,2,2,5,5,8,8],"right_children":[2,4,6,-1,-1,8,-1,-1,10,-1,-1],"split_conditions":[1E0,1E0,1E0,-5.8520623E-2,-1.1357914E-2,1E0,-2.5955638E-2,2.1295724E-2,1E0,-3.8546886E-2,-0E0],"split_indices":[3,1,2,0,0,0,0,0,1,0,0],"split_type":[0,0,0,0,0,0,0,0,0,0,0],"sum_hessian":[1.6548439E2,4.9124283E1,1.16360115E2,2.6515427E1,2.2608856E1,8.8765015E1,2.75951E1,7.034232E1,1.842269E1,6.205703E0,1.2216987E1],"tree_param":{"num_deleted":"0","num_feature":"4","num_nodes":"11","size_leaf_vector":"1"}},{"base_weights":[6.579921E-2,2.1860126E-1,-0E0,5.8520604E-2,1.1357943E-2,-4.2707596E-2,2.5955647E-2,-2.1295732E-2,1.1517887E-1,3.8546886E-2,-0E0],"categories":[],"categories_nodes":[],"categories_segments":[],"categories_sizes":[],"default_left":[0,0,0,0,0,0,0,0,0,0,0],"id":19,"left_children":[1,3,5,-1,-1,7,-1,-1,9,-1,-1],"loss_changes":[1.6961927E0,5.717802E-2,6.546689E-1,0E0,0E0,9.14187E-1,0E0,0E0,2.1942556E-2,0E0,0E0],"parents":[2147483647,0,0,1,1,2,2,5,5,8,8],"right_children":[2,4,6,-1,-1,8,-1,-1,10,-1,-1],"split_conditions":[1E0,1E0,1E0,5.8520604E-2,1.1357943E-2,1E0,2.5955647E-2,-2.1295732E-2,1E0,3.8546886E-2,-0E0],"split_indices":[3,1,2,0,0,0,0,0,1,0,0],"split_type":[0,0,0,0,0,0,0,0,0,0,0],"sum_hessian":[1.6548439E2,4.912428E1,1.16360115E2,2.651542E1,2.2608858E1,8.8765015E1,2.7595102E1,7.034232E1,1.842269E1,6.205703E0,1.2216987E1],"tree_param":{"num_deleted":"0","num_feature":"4","num_nodes":"11","size_leaf_vector":"1"}},{"base_weights":[-6.0290955E-2,-3.8676158E-2,-0E0,3.2963317E-2,-1.0350968E-1,8.753068E-2,-1.12471744E-1,-3.6351483E-2,-0E0,1.7105126E-3,2.6388992E-2,-0E0,-4.5960102E-2],"categories":[],"categories_nodes":[],"categories_segments":[],"categories_sizes":[],"default_left":[0,0,0,0,0,0,0,0,0,0,0,0,0],"id":20,"left_children":[1,-1,3,5,7,9,11,-1,-1,-1,-1,-1,-1],"loss_changes":[1.2127687E0,0E0,4.3203247E-1,6.551546E-1,5.629176E-2,3.467995E-2,1.0741322E-1,0E0,0E0,0E0,0E0,0E0,0E0],"parents":[2147483647,0,0,2,2,3,3,4,4,5,5,6,6],"right_children":[2,-1,4,6,8,10,12,-1,-1,-1,-1,-1,-1],"split_conditions":[1E0,-3.8676158E-2,1E0,1E0,1E0,1E0,1E0,-3.6351483E-2,-0E0,1.7105126E-3,2.6388992E-2,-0E0,-4.5960102E-2],"split_indices":[3,0,0,2,1,1,1,0,0,0,0,0,0],"split_type":[0,0,0,0,0,0,0,0,0,0,0,0,0],"sum_hessian":[1.607733E2,4.6703697E1,1.140696E2,8.3908066E1,3.016154E1,6.894932E1,1.4958744E1,1.04725275E1,1.968901E1,3.7618076E1,3.1331244E1,1.0482132E1,4.476612E0],"tree_param":{"num_deleted":"0","num_feature":"4","num_nodes":"13","size_leaf_vector":"1"}},{"base_weights":[6.0290936E-2,3.867617E-2,-0E0,-3.296336E-2,1.03509665E-1,-8.753071E-2,1.1247169E-1,3.6351494E-2,-0E0,-1.7105232E-3,-2.6388997E-2,-0E0,4.5960106E-2],"categories":[],"categories_nodes":[],"categories_segments":[],"categories_sizes":[],"default_left":[0,0,0,0,0,0,0,0,0,0,0,0,0],"id":21,"left_children":[1,-1,3,5,7,9,11,-1,-1,-1,-1,-1,-1],"loss_changes":[1.2127695E0,0E0,4.3203264E-1,6.551546E-1,5.6292087E-2,3.467983E-2,1.0741347E-1,0E0,0E0,0E0,0E0,0E0,0E0],"parents":[2147483647,0,0,2,2,3,3,4,4,5,5,6,6],"right_children":[2,-1,4,6,8,10,12,-1,-1,-1,-1,-1,-1],"split_conditions":[1E0,3.867617E-2,1E0,1E0,1E0,1E0,1E0,3.6351494E-2,-0E0,-1.7105232E-3,-2.6388997E-2,-0E0,4.5960106E-2],"split_indices":[3,0,0,2,1,1,1,0,0,0,0,0,0],"split_type":[0,0,0,0,0,0,0,0,0,0,0,0,0],"sum_hessian":[1.6077332E2,4.67037E1,1.1406961E2,8.390807E1,3.016154E1,6.8949326E1,1.4958744E1,1.0472528E1,1.968901E1,3.7618084E1,3.1331245E1,1.0482132E1,4.4766126E0],"tree_param":{"num_deleted":"0","num_feature":"4","num_nodes":"13","size_leaf_vector":"1"}},{"base_weights":[-5.263352E-2,-1.652024E-1,-0E0,-4.710184E-2,-2.4091078E-3,2.5340596E-2,-9.300684E-2,1.5201244E-2,-1.0171254E-1,-3.125422E-2,-0E0,-0E0,-4.082192E-2],"categories":[],"categories_nodes":[],"categories_segments":[],"categories_sizes":[],"default_left":[0,0,0,0,0,0,0,0,0,0,0,0,0],"id":22,"left_children":[1,3,5,-1,-1,7,9,-1,11,-1,-1,-1,-1],"loss_changes":[8.108383E-1,1.1733806E-1,3.242553E-1,0E0,0E0,5.1557463E-1,1.16657615E-2,0E0,7.1518525E-2,0E0,0E0,0E0,0E0],"parents":[2147483647,0,0,1,1,2,2,5,5,6,6,8,8],"right_children":[2,4,6,-1,-1,8,10,-1,12,-1,-1,-1,-1],"split_conditions":[1E0,1E0,1E0,-4.710184E-2,-2.4091078E-3,1E0,1E0,1.5201244E-2,1E0,-3.125422E-2,-0E0,-0E0,-4.082192E-2],"split_indices":[3,1,0,0,0,2,1,0,1,0,0,0,0],"split_type":[0,0,0,0,0,0,0,0,0,0,0,0,0],"sum_hessian":[1.5678674E2,4.4276997E1,1.1250975E2,2.3081144E1,2.119585E1,8.278132E1,2.972843E1,6.8052444E1,1.472887E1,1.0039417E1,1.968901E1,1.0482132E1,4.2467384E0],"tree_param":{"num_deleted":"0","num_feature":"4","num_nodes":"13","size_leaf_vector":"1"}},{"base_weights":[5.263342E-2,1.6520225E-1,-0E0,4.7101807E-2,2.4090854E-3,-2.5340673E-2,9.300681E-2,-1.52012585E-2,1.0171248E-1,3.125422E-2,-0E0,-0E0,4.082192E-2],"categories":[],"categories_nodes":[],"categories_segments":[],"categories_sizes":[],"default_left":[0,0,0,0,0,0,0,0,0,0,0,0,0],"id":23,"left_children":[1,3,5,-1,-1,7,9,-1,11,-1,-1,-1,-1],"loss_changes":[8.108375E-1,1.1733806E-1,3.2425547E-1,0E0,0E0,5.1557493E-1,1.16659105E-2,0E0,7.151872E-2,0E0,0E0,0E0,0E0],"parents":[2147483647,0,0,1,1,2,2,5,5,6,6,8,8],"right_children":[2,4,6,-1,-1,8,10,-1,12,-1,-1,-1,-1],"split_conditions":[1E0,1E0,1E0,4.7101807E-2,2.4090854E-3,1E0,1E0,-1.52012585E-2,1E0,3.125422E-2,-0E0,-0E0,4.082192E-2],"split_indices":[3,1,0,0,0,2,1,0,1,0,0,0,0],"split_type":[0,0,0,0,0,0,0,0,0,0,0,0,0],"sum_hessian":[1.5678674E2,4.4276985E1,1.1250975E2,2.3081139E1,2.1195848E1,8.278133E1,2.9728428E1,6.805245E1,1.472887E1,1.0039417E1,1.968901E1,1.0482132E1,4.2467384E0],"tree_param":{"num_deleted":"0","num_feature":"4","num_nodes":"13","size_leaf_vector":"1"}},{"base_weights":[-5.0172314E-2,-1.463855E-1,-0E0,-4.1188385E-2,-1.965662E-3,1.5387044E-2,-1.682911E-2,6.2147416E-2,-9.244676E-2,-0E0,1.9401066E-2,-0E0,-3.6216788E-2],"categories":[],"categories_nodes":[],"categories_segments":[],"categories_sizes":[],"default_left":[0,0,0,0,0,0,0,0,0,0,0,0,0],"id":24,"left_children":[1,3,5,-1,-1,7,-1,9,11,-1,-1,-1,-1],"loss_changes":[5.555403E-1,3.2297373E-2,2.3814987E-1,0E0,0E0,3.8201547E-1,0E0,3.175488E-2,4.4807687E-2,0E0,0E0,0E0,0E0],"parents":[2147483647,0,0,1,1,2,2,5,5,7,7,8,8],"right_children":[2,4,6,-1,-1,8,-1,10,12,-1,-1,-1,-1],"split_conditions":[1E0,1E0,1E0,-4.1188385E-2,-1.965662E-3,1E0,-1.682911E-2,1E0,1E0,-0E0,1.9401066E-2,-0E0,-3.6216788E-2],"split_indices":[3,1,0,0,0,2,0,1,1,0,0,0,0],"split_type":[0,0,0,0,0,0,0,0,0,0,0,0,0],"sum_hessian":[1.5356343E2,4.2640553E1,1.1092288E2,2.1512007E1,2.1128548E1,8.156575E1,2.935713E1,6.704053E1,1.4525225E1,3.7033836E1,3.0006693E1,1.0482132E1,4.043093E0],"tree_param":{"num_deleted":"0","num_feature":"4","num_nodes":"13","size_leaf_vector":"1"}},{"base_weights":[5.0172254E-2,1.4638554E-1,-0E0,4.118839E-2,1.9656701E-3,-1.5387133E-2,1.6829096E-2,-6.2147506E-2,9.2446715E-2,-0E0,-1.9401072E-2,-0E0,3.621679E-2],"categories":[],"categories_nodes":[],"categories_segments":[],"categories_sizes":[],"default_left":[0,0,0,0,0,0,0,0,0,0,0,0,0],"id":25,"left_children":[1,3,5,-1,-1,7,-1,9,11,-1,-1,-1,-1],"loss_changes":[5.5554163E-1,3.2297075E-2,2.3814967E-1,0E0,0E0,3.820159E-1,0E0,3.1754255E-2,4.4807866E-2,0E0,0E0,0E0,0E0],"parents":[2147483647,0,0,1,1,2,2,5,5,7,7,8,8],"right_children":[2,4,6,-1,-1,8,-1,10,12,-1,-1,-1,-1],"split_conditions":[1E0,1E0,1E0,4.118839E-2,1.9656701E-3,1E0,1.6829096E-2,1E0,1E0,-0E0,-1.9401072E-2,-0E0,3.621679E-2],"split_indices":[3,1,0,0,0,2,0,1,1,0,0,0,0],"split_type":[0,0,0,0,0,0,0,0,0,0,0,0,0],"sum_hessian":[1.5356345E2,4.2640556E1,1.1092289E2,2.1512009E1,2.112855E1,8.156576E1,2.9357128E1,6.7040535E1,1.4525226E1,3.703384E1,3.0006695E1,1.0482132E1,4.0430937E0],"tree_param":{"num_deleted":"0","num_feature":"4","num_nodes":"13","size_leaf_vector":"1"}},{"base_weights":[-4.4739235E-2,-2.6005713E-2,-0E0,9.421309E-3,-1.5115092E-2,1.0847094E-2,-1.4538747E-2],"categories":[],"categories_nodes":[],"categories_segments":[],"categories_sizes":[],"default_left":[0,0,0,0,0,0,0],"id":26,"left_children":[1,-1,3,5,-1,-1,-1],"loss_changes":[4.179189E-1,0E0,1.6365097E-1,2.9244536E-1,0E0,0E0,0E0],"parents":[2147483647,0,0,2,2,3,3],"right_children":[2,-1,4,6,-1,-1,-1],"split_conditions":[1E0,-2.6005713E-2,1E0,1E0,-1.5115092E-2,1.0847094E-2,-1.4538747E-2],"split_indices":[3,0,2,0,0,0,0],"split_type":[0,0,0,0,0,0,0],"sum_hessian":[1.5098251E2,4.1269833E1,1.09712685E2,8.3887505E1,2.5825186E1,6.641691E1,1.7470592E1],"tree_param":{"num_deleted":"0","num_feature":"4","num_nodes":"7","size_leaf_vector":"1"}},{"base_weights":[4.4739224E-2,2.6005715E-2,-0E0,-9.421315E-3,1.5115078E-2,-1.0847093E-2,1.453874E-2],"categories":[],"categories_nodes":[],"categories_segments":[],"categories_sizes":[],"default_left":[0,0,0,0,0,0,0],"id":27,"left_children":[1,-1,3,5,-1,-1,-1],"loss_changes":[4.179193E-1,0E0,1.6365069E-1,2.9244518E-1,0E0,0E0,0E0],"parents":[2147483647,0,0,2,2,3,3],"right_children":[2,-1,4,6,-1,-1,-1],"split_conditions":[1E0,2.6005715E-2,1E0,1E0,1.5115078E-2,-1.0847093E-2,1.453874E-2],"split_indices":[3,0,2,0,0,0,0],"split_type":[0,0,0,0,0,0,0],"sum_hessian":[1.5098251E2,4.126983E1,1.09712685E2,8.38875E1,2.5825186E1,6.641691E1,1.747059E1],"tree_param":{"num_deleted":"0","num_feature":"4","num_nodes":"7","size_leaf_vector":"1"}},{"base_weights":[-3.9053578E-2,-1.0929268E-1,-0E0,-3.2217294E-2,-0E0,4.032135E-3,-1.2448831E-2,4.4159546E-2,-5.998809E-2,-0E0,1.4170565E-2,-2.0628678E-2,-0E0],"categories":[],"categories_nodes":[],"categories_segments":[],"categories_sizes":[],"default_left":[0,0,0,0,0,0,0,0,0,0,0,0,0],"id":28,"left_children":[1,3,5,-1,-1,7,-1,9,11,-1,-1,-1,-1],"loss_changes":[2.6441813E-1,4.947692E-2,1.0579294E-1,0E0,0E0,1.9722202E-1,0E0,2.2259027E-2,4.327394E-3,0E0,0E0,0E0,0E0],"parents":[2147483647,0,0,1,1,2,2,5,5,7,7,8,8],"right_children":[2,4,6,-1,-1,8,-1,10,12,-1,-1,-1,-1],"split_conditions":[1E0,1E0,1E0,-3.2217294E-2,-0E0,1E0,-1.2448831E-2,1E0,1E0,-0E0,1.4170565E-2,-2.0628678E-2,-0E0],"split_indices":[3,1,2,0,0,0,0,1,1,0,0,0,0],"split_type":[0,0,0,0,0,0,0,0,0,0,0,0,0],"sum_hessian":[1.4816441E2,3.974639E1,1.0841803E2,1.939343E1,2.0352959E1,8.296639E1,2.5451637E1,6.568865E1,1.7277739E1,3.6655273E1,2.903338E1,5.258473E0,1.2019265E1],"tree_param":{"num_deleted":"0","num_feature":"4","num_nodes":"13","size_leaf_vector":"1"}},{"base_weights":[3.9053522E-2,1.09292544E-1,-0E0,3.221728E-2,-0E0,-4.032154E-3,1.2448831E-2,-4.4159576E-2,5.998811E-2,-0E0,-1.4170565E-2,2.062869E-2,-0E0],"categories":[],"categories_nodes":[],"categories_segments":[],"categories_sizes":[],"default_left":[0,0,0,0,0,0,0,0,0,0,0,0,0],"id":29,"left_children":[1,3,5,-1,-1,7,-1,9,11,-1,-1,-1,-1],"loss_changes":[2.644174E-1,4.9477667E-2,1.0579294E-1,0E0,0E0,1.9722228E-1,0E0,2.2258818E-2,4.3274313E-3,0E0,0E0,0E0,0E0],"parents":[2147483647,0,0,1,1,2,2,5,5,7,7,8,8],"right_children":[2,4,6,-1,-1,8,-1,10,12,-1,-1,-1,-1],"split_conditions":[1E0,1E0,1E0,3.221728E-2,-0E0,1E0,1.2448831E-2,1E0,1E0,-0E0,-1.4170565E-2,2.062869E-2,-0E0],"split_indices":[3,1,2,0,0,0,0,1,1,0,0,0,0],"split_type":[0,0,0,0,0,0,0,0,0,0,0,0,0],"sum_hessian":[1.4816441E2,3.9746384E1,1.0841803E2,1.9393427E1,2.0352955E1,8.296639E1,2.5451637E1,6.568865E1,1.7277739E1,3.6655277E1,2.903338E1,5.2584734E0,1.2019265E1],"tree_param":{"num_deleted":"0","num_feature":"4","num_nodes":"13","size_leaf_vector":"1"}},{"base_weights":[-3.5332736E-2,-9.6784204E-2,-0E0,-2.7661622E-2,-0E0,4.702289E-4,-1.0229573E-2,3.8345575E-2,-1.0938729E-2,-0E0,1.167182E-2],"categories":[],"categories_nodes":[],"categories_segments":[],"categories_sizes":[],"default_left":[0,0,0,0,0,0,0,0,0,0,0],"id":30,"left_children":[1,3,5,-1,-1,7,-1,9,-1,-1,-1],"loss_changes":[1.9283001E-1,3.9043427E-3,6.9716E-2,0E0,0E0,1.5385664E-1,0E0,4.3114647E-3,0E0,0E0,0E0],"parents":[2147483647,0,0,1,1,2,2,5,5,7,7],"right_children":[2,4,6,-1,-1,8,-1,10,-1,-1,-1],"split_conditions":[1E0,1E0,1E0,-2.7661622E-2,-0E0,1E0,-1.0229573E-2,1E0,-1.0938729E-2,-0E0,1.167182E-2],"split_indices":[3,1,2,0,0,0,0,1,0,0,0],"split_type":[0,0,0,0,0,0,0,0,0,0,0],"sum_hessian":[1.4629404E2,3.878281E1,1.0751122E2,1.8429852E1,2.0352959E1,8.236953E1,2.5141697E1,6.523109E1,1.713844E1,3.6655273E1,2.8575817E1],"tree_param":{"num_deleted":"0","num_feature":"4","num_nodes":"11","size_leaf_vector":"1"}},{"base_weights":[3.533271E-2,9.6784055E-2,-0E0,2.7661605E-2,-0E0,-4.7023207E-4,1.0229594E-2,-3.834559E-2,1.0938737E-2,-0E0,-1.1671813E-2],"categories":[],"categories_nodes":[],"categories_segments":[],"categories_sizes":[],"default_left":[0,0,0,0,0,0,0,0,0,0,0],"id":31,"left_children":[1,3,5,-1,-1,7,-1,9,-1,-1,-1],"loss_changes":[1.928291E-1,3.905028E-3,6.971628E-2,0E0,0E0,1.538568E-1,0E0,4.3112785E-3,0E0,0E0,0E0],"parents":[2147483647,0,0,1,1,2,2,5,5,7,7],"right_children":[2,4,6,-1,-1,8,-1,10,-1,-1,-1],"split_conditions":[1E0,1E0,1E0,2.7661605E-2,-0E0,1E0,1.0229594E-2,1E0,1.0938737E-2,-0E0,-1.1671813E-2],"split_indices":[3,1,2,0,0,0,0,1,0,0,0],"split_type":[0,0,0,0,0,0,0,0,0,0,0],"sum_hessian":[1.4629404E2,3.8782803E1,1.0751123E2,1.8429848E1,2.0352955E1,8.236953E1,2.5141699E1,6.5231094E1,1.713844E1,3.6655277E1,2.8575817E1],"tree_param":{"num_deleted":"0","num_feature":"4","num_nodes":"11","size_leaf_vector":"1"}},{"base_weights":[-3.1543177E-2,-1.7222863E-2,-0E0,-0E0,-8.389312E-3,6.714043E-3,-4.5032583E-2,-1.632981E-2,-0E0],"categories":[],"categories_nodes":[],"categories_segments":[],"categories_sizes":[],"default_left":[0,0,0,0,0,0,0,0,0],"id":32,"left_children":[1,-1,3,5,-1,-1,7,-1,-1],"loss_changes":[1.4731453E-1,0E0,4.64259E-2,1.1227812E-1,0E0,0E0,6.138064E-3,0E0,0E0],"parents":[2147483647,0,0,2,2,3,3,6,6],"right_children":[2,-1,4,6,-1,-1,8,-1,-1],"split_conditions":[1E0,-1.7222863E-2,1E0,1E0,-8.389312E-3,6.714043E-3,1E0,-1.632981E-2,-0E0],"split_indices":[3,0,2,0,0,0,1,0,0],"split_type":[0,0,0,0,0,0,0,0,0],"sum_hessian":[1.4471432E2,3.7983086E1,1.0673123E2,8.18456E1,2.4885641E1,6.485384E1,1.6991753E1,5.045814E0,1.1945939E1],"tree_param":{"num_deleted":"0","num_feature":"4","num_nodes":"9","size_leaf_vector":"1"}},{"base_weights":[3.154316E-2,1.722287E-2,-0E0,-0E0,8.389297E-3,-6.7140493E-3,4.503257E-2,1.6329804E-2,-0E0],"categories":[],"categories_nodes":[],"categories_segments":[],"categories_sizes":[],"default_left":[0,0,0,0,0,0,0,0,0],"id":33,"left_children":[1,-1,3,5,-1,-1,7,-1,-1],"loss_changes":[1.47315E-1,0E0,4.642573E-2,1.1227824E-1,0E0,0E0,6.1380453E-3,0E0,0E0],"parents":[2147483647,0,0,2,2,3,3,6,6],"right_children":[2,-1,4,6,-1,-1,8,-1,-1],"split_conditions":[1E0,1.722287E-2,1E0,1E0,8.389297E-3,-6.7140493E-3,1E0,1.6329804E-2,-0E0],"split_indices":[3,0,2,0,0,0,1,0,0],"split_type":[0,0,0,0,0,0,0,0,0],"sum_hessian":[1.4471432E2,3.7983093E1,1.0673123E2,8.18456E1,2.488564E1,6.485384E1,1.6991753E1,5.0458136E0,1.1945939E1],"tree_param":{"num_deleted":"0","num_feature":"4","num_nodes":"9","size_leaf_vector":"1"}},{"base_weights":[-2.8450357E-2,-7.148712E-2,-0E0,-2.1006275E-2,-0E0,-0E0,-3.2723118E-2,2.7216595E-2,-4.534053E-2,-1.6054152E-2,-0E0,-0E0,8.379984E-3,-0E0,-2.6752649E-2],"categories":[],"categories_nodes":[],"categories_segments":[],"categories_sizes":[],"default_left":[0,0,0,0,0,0,0,0,0,0,0,0,0,0,0],"id":34,"left_children":[1,3,5,-1,-1,7,9,11,13,-1,-1,-1,-1,-1,-1],"loss_changes":[7.993583E-2,8.800417E-3,3.1413816E-2,0E0,0E0,8.010669E-2,3.5080537E-2,2.9420517E-3,6.0652666E-2,0E0,0E0,0E0,0E0,0E0,0E0],"parents":[2147483647,0,0,1,1,2,2,5,5,6,6,7,7,8,8],"right_children":[2,4,6,-1,-1,8,10,12,14,-1,-1,-1,-1,-1,-1],"split_conditions":[1E0,1E0,1E0,-2.1006275E-2,-0E0,1E0,1E0,1E0,1E0,-1.6054152E-2,-0E0,-0E0,8.379984E-3,-0E0,-2.6752649E-2],"split_indices":[3,1,0,0,0,2,1,1,1,0,0,0,0,0,0],"split_type":[0,0,0,0,0,0,0,0,0,0,0,0,0,0,0],"sum_hessian":[1.4298521E2,3.702636E1,1.05958855E2,1.714517E1,1.9881191E1,7.812215E1,2.7836706E1,6.440108E1,1.3721075E1,8.819773E0,1.9016933E1,3.6419575E1,2.79815E1,1.00824375E1,3.638637E0],"tree_param":{"num_deleted":"0","num_feature":"4","num_nodes":"15","size_leaf_vector":"1"}},{"base_weights":[2.8450334E-2,7.14871E-2,-0E0,2.1006232E-2,-0E0,-0E0,3.2723114E-2,-2.7216634E-2,4.5340557E-2,1.6054152E-2,-0E0,-0E0,-8.379977E-3,-0E0,2.675266E-2],"categories":[],"categories_nodes":[],"categories_segments":[],"categories_sizes":[],"default_left":[0,0,0,0,0,0,0,0,0,0,0,0,0,0,0],"id":35,"left_children":[1,3,5,-1,-1,7,9,11,13,-1,-1,-1,-1,-1,-1],"loss_changes":[7.993586E-2,8.799657E-3,3.1413812E-2,0E0,0E0,8.010687E-2,3.508054E-2,2.9418282E-3,6.0652714E-2,0E0,0E0,0E0,0E0,0E0,0E0],"parents":[2147483647,0,0,1,1,2,2,5,5,6,6,7,7,8,8],"right_children":[2,4,6,-1,-1,8,10,12,14,-1,-1,-1,-1,-1,-1],"split_conditions":[1E0,1E0,1E0,2.1006232E-2,-0E0,1E0,1E0,1E0,1E0,1.6054152E-2,-0E0,-0E0,-8.379977E-3,-0E0,2.675266E-2],"split_indices":[3,1,0,0,0,2,1,1,1,0,0,0,0,0,0],"split_type":[0,0,0,0,0,0,0,0,0,0,0,0,0,0,0],"sum_hessian":[1.4298521E2,3.702636E1,1.05958855E2,1.7145164E1,1.9881195E1,7.812215E1,2.7836706E1,6.440108E1,1.3721076E1,8.819773E0,1.9016933E1,3.6419575E1,2.7981499E1,1.00824375E1,3.6386378E0],"tree_param":{"num_deleted":"0","num_feature":"4","num_nodes":"15","size_leaf_vector":"1"}},{"base_weights":[-2.619406E-2,-1.2649181E-2,-0E0,-0E0,-2.8124576E-2,4.7546937E-3,-3.9390266E-2,-1.3582234E-2,-0E0,-0E0,-2.3620652E-2],"categories":[],"categories_nodes":[],"categories_segments":[],"categories_sizes":[],"default_left":[0,0,0,0,0,0,0,0,0,0,0],"id":36,"left_children":[1,-1,3,5,7,-1,9,-1,-1,-1,-1],"loss_changes":[5.3457163E-2,0E0,2.3058811E-2,6.051056E-2,2.3682317E-2,0E0,4.6468303E-2,0E0,0E0,0E0,0E0],"parents":[2147483647,0,0,2,2,3,3,4,4,6,6],"right_children":[2,-1,4,6,8,-1,10,-1,-1,-1,-1],"split_conditions":[1E0,-1.2649181E-2,1E0,1E0,1E0,4.7546937E-3,1E0,-1.3582234E-2,-0E0,-0E0,-2.3620652E-2],"split_indices":[3,0,0,2,1,0,1,0,0,0,0],"split_type":[0,0,0,0,0,0,0,0,0,0,0],"sum_hessian":[1.4182309E2,3.6448387E1,1.053747E2,7.772293E1,2.7651772E1,6.413016E1,1.359278E1,8.634838E0,1.9016933E1,1.00824375E1,3.5103421E0],"tree_param":{"num_deleted":"0","num_feature":"4","num_nodes":"11","size_leaf_vector":"1"}},{"base_weights":[2.6194086E-2,1.26492055E-2,-0E0,-0E0,2.8124515E-2,-4.754693E-3,3.939028E-2,1.35822E-2,-0E0,-0E0,2.362066E-2],"categories":[],"categories_nodes":[],"categories_segments":[],"categories_sizes":[],"default_left":[0,0,0,0,0,0,0,0,0,0,0],"id":37,"left_children":[1,-1,3,5,7,-1,9,-1,-1,-1,-1],"loss_changes":[5.3457566E-2,0E0,2.305871E-2,6.0510557E-2,2.3682175E-2,0E0,4.6468332E-2,0E0,0E0,0E0,0E0],"parents":[2147483647,0,0,2,2,3,3,4,4,6,6],"right_children":[2,-1,4,6,8,-1,10,-1,-1,-1,-1],"split_conditions":[1E0,1.26492055E-2,1E0,1E0,1E0,-4.754693E-3,1E0,1.35822E-2,-0E0,-0E0,2.362066E-2],"split_indices":[3,0,0,2,1,0,1,0,0,0,0],"split_type":[0,0,0,0,0,0,0,0,0,0,0],"sum_hessian":[1.4182309E2,3.6448395E1,1.053747E2,7.772293E1,2.7651768E1,6.413015E1,1.359278E1,8.634835E0,1.9016933E1,1.00824375E1,3.5103421E0],"tree_param":{"num_deleted":"0","num_feature":"4","num_nodes":"11","size_leaf_vector":"1"}},{"base_weights":[-2.3962207E-2,-4.2543437E-2,-0E0,-2.132648E-3,-2.5080502E-2,6.36632E-3,-1.8785138E-2,-6.4019742E-3,-0E0,3.8043675E-3,-0E0,-5.0845955E-2,-0E0,-0E0,-2.0827942E-2],"categories":[],"categories_nodes":[],"categories_segments":[],"categories_sizes":[],"default_left":[0,0,0,0,0,0,0,0,0,0,0,0,0,0,0],"id":38,"left_children":[1,3,5,7,-1,9,11,-1,-1,-1,-1,13,-1,-1,-1],"loss_changes":[4.9730316E-2,5.1190212E-2,1.2617485E-2,1.6232762E-2,0E0,9.0192165E-3,3.877154E-2,0E0,0E0,0E0,0E0,3.420122E-3,0E0,0E0,0E0],"parents":[2147483647,0,0,1,1,2,2,3,3,5,5,6,6,11,11],"right_children":[2,4,6,8,-1,10,12,-1,-1,-1,-1,14,-1,-1,-1],"split_conditions":[1E0,1E0,1E0,1E0,-2.5080502E-2,1E0,1E0,-6.4019742E-3,-0E0,3.8043675E-3,-0E0,1E0,-0E0,-0E0,-2.0827942E-2],"split_indices":[1,0,2,3,0,0,0,0,0,0,0,3,0,0,0],"split_type":[0,0,0,0,0,0,0,0,0,0,0,0,0,0,0],"sum_hessian":[1.4055057E2,7.104034E1,6.951023E1,6.0954266E1,1.0086071E1,4.0023834E1,2.9486397E1,1.4619761E1,4.6334503E1,2.8077896E1,1.1945939E1,1.7726337E1,1.1760058E1,1.4327694E1,3.3986442E0],"tree_param":{"num_deleted":"0","num_feature":"4","num_nodes":"15","size_leaf_vector":"1"}},{"base_weights":[2.3962231E-2,4.2543545E-2,-0E0,2.1327608E-3,2.5080517E-2,-6.366347E-3,1.8785035E-2,6.4020157E-3,-0E0,-3.804375E-3,-0E0,5.0845835E-2,-0E0,-0E0,2.0827947E-2],"categories":[],"categories_nodes":[],"categories_segments":[],"categories_sizes":[],"default_left":[0,0,0,0,0,0,0,0,0,0,0,0,0,0,0],"id":39,"left_children":[1,3,5,7,-1,9,11,-1,-1,-1,-1,13,-1,-1,-1],"loss_changes":[4.973083E-2,5.1189765E-2,1.26173785E-2,1.6232956E-2,0E0,9.019244E-3,3.877143E-2,0E0,0E0,0E0,0E0,3.4203902E-3,0E0,0E0,0E0],"parents":[2147483647,0,0,1,1,2,2,3,3,5,5,6,6,11,11],"right_children":[2,4,6,8,-1,10,12,-1,-1,-1,-1,14,-1,-1,-1],"split_conditions":[1E0,1E0,1E0,1E0,2.5080517E-2,1E0,1E0,6.4020157E-3,-0E0,-3.804375E-3,-0E0,1E0,-0E0,-0E0,2.0827947E-2],"split_indices":[1,0,2,3,0,0,0,0,0,0,0,3,0,0,0],"split_type":[0,0,0,0,0,0,0,0,0,0,0,0,0,0,0],"sum_hessian":[1.4055057E2,7.104034E1,6.951023E1,6.095427E1,1.0086072E1,4.0023834E1,2.9486393E1,1.4619765E1,4.6334503E1,2.8077896E1,1.1945939E1,1.7726336E1,1.17600565E1,1.4327691E1,3.3986444E0],"tree_param":{"num_deleted":"0","num_feature":"4","num_nodes":"15","size_leaf_vector":"1"}},{"base_weights":[-2.1927193E-2,-3.8097344E-2,-0E0,-6.434757E-4,-2.1435685E-2,3.8105312E-3,-1.6585404E-2,-5.2972944E-3,-0E0,3.0962478E-3,-0E0,-9.491339E-3,-0E0],"categories":[],"categories_nodes":[],"categories_segments":[],"categories_sizes":[],"default_left":[0,0,0,0,0,0,0,0,0,0,0,0,0],"id":40,"left_children":[1,3,5,7,-1,9,11,-1,-1,-1,-1,-1,-1],"loss_changes":[3.6603913E-2,2.4550296E-2,9.09807E-3,1.1174999E-2,0E0,6.4589046E-3,3.4584716E-2,0E0,0E0,0E0,0E0,0E0,0E0],"parents":[2147483647,0,0,1,1,2,2,3,3,5,5,6,6],"right_children":[2,4,6,8,-1,10,12,-1,-1,-1,-1,-1,-1],"split_conditions":[1E0,1E0,1E0,1E0,-2.1435685E-2,1E0,1E0,-5.2972944E-3,-0E0,3.0962478E-3,-0E0,-9.491339E-3,-0E0],"split_indices":[1,0,2,3,0,0,0,0,0,0,0,0,0],"split_type":[0,0,0,0,0,0,0,0,0,0,0,0,0],"sum_hessian":[1.3983044E2,7.053754E1,6.92929E1,6.080067E1,9.736869E0,3.9903645E1,2.9389257E1,1.4466168E1,4.6334503E1,2.7957706E1,1.1945939E1,1.7629198E1,1.1760058E1],"tree_param":{"num_deleted":"0","num_feature":"4","num_nodes":"13","size_leaf_vector":"1"}},{"base_weights":[2.1927256E-2,3.8097456E-2,-0E0,6.435993E-4,2.1435697E-2,-3.8104332E-3,1.6585296E-2,5.2973446E-3,-0E0,-3.0962203E-3,-0E0,9.491314E-3,-0E0],"categories":[],"categories_nodes":[],"categories_segments":[],"categories_sizes":[],"default_left":[0,0,0,0,0,0,0,0,0,0,0,0,0],"id":41,"left_children":[1,3,5,7,-1,9,11,-1,-1,-1,-1,-1,-1],"loss_changes":[3.6604136E-2,2.454982E-2,9.097926E-3,1.1175207E-2,0E0,6.45881E-3,3.458459E-2,0E0,0E0,0E0,0E0,0E0,0E0],"parents":[2147483647,0,0,1,1,2,2,3,3,5,5,6,6],"right_children":[2,4,6,8,-1,10,12,-1,-1,-1,-1,-1,-1],"split_conditions":[1E0,1E0,1E0,1E0,2.1435697E-2,1E0,1E0,5.2973446E-3,-0E0,-3.0962203E-3,-0E0,9.491314E-3,-0E0],"split_indices":[1,0,2,3,0,0,0,0,0,0,0,0,0],"split_type":[0,0,0,0,0,0,0,0,0,0,0,0,0],"sum_hessian":[1.3983044E2,7.0537544E1,6.929289E1,6.0800674E1,9.73687E0,3.9903645E1,2.9389252E1,1.4466173E1,4.6334503E1,2.7957705E1,1.1945939E1,1.7629196E1,1.17600565E1],"tree_param":{"num_deleted":"0","num_feature":"4","num_nodes":"13","size_leaf_vector":"1"}},{"base_weights":[-1.9471372E-2,-3.4384955E-2,-0E0,-0E0,-1.8253682E-2,1.7273515E-3,-1.1288685E-2,-4.37614E-3,-0E0,2.5178667E-3,-0E0,-3.924198E-2,-0E0,-0E0,-1.7203461E-2],"categories":[],"categories_nodes":[],"categories_segments":[],"categories_sizes":[],"default_left":[0,0,0,0,0,0,0,0,0,0,0,0,0,0,0],"id":42,"left_children":[1,3,5,7,-1,9,11,-1,-1,-1,-1,13,-1,-1,-1],"loss_changes":[3.13764E-2,6.4820126E-3,4.030101E-3,7.583645E-3,0E0,4.5300433E-3,2.5194358E-2,0E0,0E0,0E0,0E0,6.100783E-3,0E0,0E0,0E0],"parents":[2147483647,0,0,1,1,2,2,3,3,5,5,6,6,11,11],"right_children":[2,4,6,8,-1,10,12,-1,-1,-1,-1,14,-1,-1,-1],"split_conditions":[1E0,1E0,1E0,1E0,-1.8253682E-2,1E0,1E0,-4.37614E-3,-0E0,2.5178667E-3,-0E0,1E0,-0E0,-0E0,-1.7203461E-2],"split_indices":[1,0,2,3,0,0,0,0,0,0,0,3,0,0,0],"split_type":[0,0,0,0,0,0,0,0,0,0,0,0,0,0,0],"sum_hessian":[1.3908154E2,7.011792E1,6.8963615E1,6.067452E1,9.443404E0,3.9805843E1,2.9157772E1,1.4340016E1,4.6334503E1,2.7859905E1,1.1945939E1,1.7397713E1,1.1760058E1,1.4140029E1,3.2576847E0],"tree_param":{"num_deleted":"0","num_feature":"4","num_nodes":"15","size_leaf_vector":"1"}},{"base_weights":[1.9471364E-2,3.4385033E-2,-0E0,-0E0,1.8253691E-2,-1.7274483E-3,1.1288609E-2,4.3761553E-3,-0E0,-2.5178934E-3,-0E0,3.9241903E-2,-0E0,-0E0,1.7203474E-2],"categories":[],"categories_nodes":[],"categories_segments":[],"categories_sizes":[],"default_left":[0,0,0,0,0,0,0,0,0,0,0,0,0,0,0],"id":43,"left_children":[1,3,5,7,-1,9,11,-1,-1,-1,-1,13,-1,-1,-1],"loss_changes":[3.1376798E-2,6.481774E-3,4.0300624E-3,7.5836987E-3,0E0,4.5301295E-3,2.5194295E-2,0E0,0E0,0E0,0E0,6.1009564E-3,0E0,0E0,0E0],"parents":[2147483647,0,0,1,1,2,2,3,3,5,5,6,6,11,11],"right_children":[2,4,6,8,-1,10,12,-1,-1,-1,-1,14,-1,-1,-1],"split_conditions":[1E0,1E0,1E0,1E0,1.8253691E-2,1E0,1E0,4.3761553E-3,-0E0,-2.5178934E-3,-0E0,1E0,-0E0,-0E0,1.7203474E-2],"split_indices":[1,0,2,3,0,0,0,0,0,0,0,3,0,0,0],"split_type":[0,0,0,0,0,0,0,0,0,0,0,0,0,0,0],"sum_hessian":[1.3908154E2,7.011793E1,6.8963615E1,6.0674522E1,9.443405E0,3.9805847E1,2.915777E1,1.4340019E1,4.6334503E1,2.785991E1,1.1945939E1,1.7397713E1,1.17600565E1,1.4140027E1,3.2576854E0],"tree_param":{"num_deleted":"0","num_feature":"4","num_nodes":"15","size_leaf_vector":"1"}},{"base_weights":[-1.7985795E-2,-6.257838E-3,-0E0,3.1772684E-5,-9.507168E-3,2.046295E-3,-0E0,-3.6464054E-2,-0E0,-0E0,-1.5126194E-2],"categories":[],"categories_nodes":[],"categories_segments":[],"categories_sizes":[],"default_left":[0,0,0,0,0,0,0,0,0,0,0],"id":44,"left_children":[1,-1,3,5,7,-1,-1,9,-1,-1,-1],"loss_changes":[2.4460308E-2,0E0,2.7639712E-3,3.0651216E-3,2.2258377E-2,0E0,0E0,1.741821E-3,0E0,0E0,0E0],"parents":[2147483647,0,0,2,2,3,3,4,4,7,7],"right_children":[2,-1,4,6,8,-1,-1,10,-1,-1,-1],"split_conditions":[1E0,-6.257838E-3,1E0,1E0,1E0,2.046295E-3,-0E0,1E0,-0E0,-0E0,-1.5126194E-2],"split_indices":[1,0,2,0,0,0,0,3,0,0,0],"split_type":[0,0,0,0,0,0,0,0,0,0,0],"sum_hessian":[1.385737E2,6.9768265E1,6.880544E1,3.972635E1,2.9079094E1,2.7780409E1,1.1945939E1,1.7319036E1,1.1760058E1,1.4140029E1,3.1790075E0],"tree_param":{"num_deleted":"0","num_feature":"4","num_nodes":"11","size_leaf_vector":"1"}},{"base_weights":[1.7985838E-2,6.2578493E-3,-0E0,-3.1673288E-5,9.507093E-3,-2.0462673E-3,-0E0,3.646398E-2,-0E0,-0E0,1.5126209E-2],"categories":[],"categories_nodes":[],"categories_segments":[],"categories_sizes":[],"default_left":[0,0,0,0,0,0,0,0,0,0,0],"id":45,"left_children":[1,-1,3,5,7,-1,-1,9,-1,-1,-1],"loss_changes":[2.446035E-2,0E0,2.7639268E-3,3.0650385E-3,2.2258313E-2,0E0,0E0,1.741983E-3,0E0,0E0,0E0],"parents":[2147483647,0,0,2,2,3,3,4,4,7,7],"right_children":[2,-1,4,6,8,-1,-1,10,-1,-1,-1],"split_conditions":[1E0,6.2578493E-3,1E0,1E0,1E0,-2.0462673E-3,-0E0,1E0,-0E0,-0E0,1.5126209E-2],"split_indices":[1,0,2,0,0,0,0,3,0,0,0],"split_type":[0,0,0,0,0,0,0,0,0,0,0],"sum_hessian":[1.385737E2,6.9768265E1,6.8805435E1,3.972634E1,2.9079092E1,2.7780405E1,1.1945939E1,1.7319035E1,1.17600565E1,1.4140027E1,3.179008E0],"tree_param":{"num_deleted":"0","num_feature":"4","num_nodes":"11","size_leaf_vector":"1"}},{"base_weights":[-1.4957437E-2,-3.8106535E-2,-0E0,-1.1385377E-2,-0E0,-0E0,-4.5998627E-3,3.5907184E-3,-1.6817175E-2,-3.2386344E-3,-0E0,-0E0,-1.32870255E-2],"categories":[],"categories_nodes":[],"categories_segments":[],"categories_sizes":[],"default_left":[0,0,0,0,0,0,0,0,0,0,0,0,0],"id":46,"left_children":[1,3,5,-1,-1,7,9,-1,11,-1,-1,-1,-1],"loss_changes":[2.1526434E-2,2.324134E-3,5.9675705E-4,0E0,0E0,2.514249E-2,4.0538195E-3,0E0,1.6209994E-2,0E0,0E0,0E0,0E0],"parents":[2147483647,0,0,1,1,2,2,5,5,6,6,8,8],"right_children":[2,4,6,-1,-1,8,10,-1,12,-1,-1,-1,-1],"split_conditions":[1E0,1E0,1E0,-1.1385377E-2,-0E0,1E0,1E0,3.5907184E-3,1E0,-3.2386344E-3,-0E0,-0E0,-1.32870255E-2],"split_indices":[3,1,0,0,0,2,2,0,1,0,0,0,0],"split_type":[0,0,0,0,0,0,0,0,0,0,0,0,0],"sum_hessian":[1.3837483E2,3.4874645E1,1.0350018E2,1.551625E1,1.9358397E1,7.6796364E1,2.6703814E1,6.365893E1,1.3137436E1,1.623548E1,1.0468334E1,1.0026779E1,3.110657E0],"tree_param":{"num_deleted":"0","num_feature":"4","num_nodes":"13","size_leaf_vector":"1"}},{"base_weights":[1.495734E-2,3.8106326E-2,-0E0,1.138532E-2,-0E0,-0E0,4.5999074E-3,-3.5907365E-3,1.6817125E-2,3.2386438E-3,-0E0,-0E0,1.3286995E-2],"categories":[],"categories_nodes":[],"categories_segments":[],"categories_sizes":[],"default_left":[0,0,0,0,0,0,0,0,0,0,0,0,0],"id":47,"left_children":[1,3,5,-1,-1,7,9,-1,11,-1,-1,-1,-1],"loss_changes":[2.1526244E-2,2.3241453E-3,5.9676863E-4,0E0,0E0,2.5142683E-2,4.0538344E-3,0E0,1.6209923E-2,0E0,0E0,0E0,0E0],"parents":[2147483647,0,0,1,1,2,2,5,5,6,6,8,8],"right_children":[2,4,6,-1,-1,8,10,-1,12,-1,-1,-1,-1],"split_conditions":[1E0,1E0,1E0,1.138532E-2,-0E0,1E0,1E0,-3.5907365E-3,1E0,3.2386438E-3,-0E0,-0E0,1.3286995E-2],"split_indices":[3,1,0,0,0,2,2,0,1,0,0,0,0],"split_type":[0,0,0,0,0,0,0,0,0,0,0,0,0],"sum_hessian":[1.3837482E2,3.4874634E1,1.0350019E2,1.551624E1,1.9358395E1,7.679637E1,2.6703815E1,6.365894E1,1.3137435E1,1.623548E1,1.0468335E1,1.0026779E1,3.1106558E0],"tree_param":{"num_deleted":"0","num_feature":"4","num_nodes":"13","size_leaf_vector":"1"}},{"base_weights":[-1.4736293E-2,-2.4524037E-2,-0E0,-0E0,-1.403341E-2,-0E0,-6.6406294E-3,-4.7677747E-4,-0E0,9.992312E-4,-0E0,-6.3956366E-3,-0E0],"categories":[],"categories_nodes":[],"categories_segments":[],"categories_sizes":[],"default_left":[0,0,0,0,0,0,0,0,0,0,0,0,0],"id":48,"left_children":[1,3,5,7,-1,9,11,-1,-1,-1,-1,-1,-1],"loss_changes":[1.2322579E-2,9.463552E-3,1.342843E-3,8.708919E-5,0E0,7.2637876E-4,1.7770965E-2,0E0,0E0,0E0,0E0,0E0,0E0],"parents":[2147483647,0,0,1,1,2,2,3,3,5,5,6,6],"right_children":[2,4,6,8,-1,10,12,-1,-1,-1,-1,-1,-1],"split_conditions":[1E0,1E0,1E0,1E0,-1.403341E-2,1E0,1E0,-4.7677747E-4,-0E0,9.992312E-4,-0E0,-6.3956366E-3,-0E0],"split_indices":[1,0,2,3,0,0,0,0,0,0,0,0,0],"split_type":[0,0,0,0,0,0,0,0,0,0,0,0,0],"sum_hessian":[1.377391E2,6.926405E1,6.847505E1,6.0197594E1,9.06646E0,3.952369E1,2.8951366E1,1.3824727E1,4.6372868E1,2.7599878E1,1.1923813E1,1.7191307E1,1.1760058E1],"tree_param":{"num_deleted":"0","num_feature":"4","num_nodes":"13","size_leaf_vector":"1"}},{"base_weights":[1.4736281E-2,2.4523987E-2,-0E0,-0E0,1.4033429E-2,-0E0,6.640522E-3,4.7671515E-4,-0E0,-9.992032E-4,-0E0,6.3956105E-3,-0E0],"categories":[],"categories_nodes":[],"categories_segments":[],"categories_sizes":[],"default_left":[0,0,0,0,0,0,0,0,0,0,0,0,0],"id":49,"left_children":[1,3,5,7,-1,9,11,-1,-1,-1,-1,-1,-1],"loss_changes":[1.23224575E-2,9.4638765E-3,1.3427993E-3,8.7066386E-5,0E0,7.263379E-4,1.7770853E-2,0E0,0E0,0E0,0E0,0E0,0E0],"parents":[2147483647,0,0,1,1,2,2,3,3,5,5,6,6],"right_children":[2,4,6,8,-1,10,12,-1,-1,-1,-1,-1,-1],"split_conditions":[1E0,1E0,1E0,1E0,1.4033429E-2,1E0,1E0,4.7671515E-4,-0E0,-9.992032E-4,-0E0,6.3956105E-3,-0E0],"split_indices":[1,0,2,3,0,0,0,0,0,0,0,0,0],"split_type":[0,0,0,0,0,0,0,0,0,0,0,0,0],"sum_hessian":[1.377391E2,6.926405E1,6.847505E1,6.019759E1,9.066462E0,3.9523685E1,2.8951363E1,1.382472E1,4.6372868E1,2.7599874E1,1.1923812E1,1.7191305E1,1.17600565E1],"tree_param":{"num_deleted":"0","num_feature":"4","num_nodes":"13","size_leaf_vector":"1"}},{"base_weights":[-1.3232652E-2,-2.2714233E-2,-0E0,-0E0,-1.185736E-2,-0E0,-3.0616722E-3,-3.9108386E-4,-0E0,8.106865E-4,-0E0,-2.6339421E-2,-0E0,-0E0,-1.0875679E-2],"categories":[],"categories_nodes":[],"categories_segments":[],"categories_sizes":[],"default_left":[0,0,0,0,0,0,0,0,0,0,0,0,0,0,0],"id":50,"left_children":[1,3,5,7,-1,9,11,-1,-1,-1,-1,13,-1,-1,-1],"loss_changes":[1.2094263E-2,8.146092E-5,2.8400111E-4,5.855458E-5,0E0,4.7760218E-4,1.2576431E-2,0E0,0E0,0E0,0E0,5.1389635E-4,0E0,0E0,0E0],"parents":[2147483647,0,0,1,1,2,2,3,3,5,5,6,6,11,11],"right_children":[2,4,6,8,-1,10,12,-1,-1,-1,-1,14,-1,-1,-1],"split_conditions":[1E0,1E0,1E0,1E0,-1.185736E-2,1E0,1E0,-3.9108386E-4,-0E0,8.106865E-4,-0E0,1E0,-0E0,-0E0,-1.0875679E-2],"split_indices":[1,0,2,3,0,0,0,0,0,0,0,3,0,0,0],"split_type":[0,0,0,0,0,0,0,0,0,0,0,0,0,0,0],"sum_hessian":[1.3735745E2,6.906808E1,6.828938E1,6.0186604E1,8.881473E0,3.949217E1,2.8797213E1,1.3813734E1,4.6372868E1,2.7568356E1,1.1923813E1,1.7037153E1,1.1760058E1,1.4014231E1,3.0229232E0],"tree_param":{"num_deleted":"0","num_feature":"4","num_nodes":"15","size_leaf_vector":"1"}},{"base_weights":[1.3232665E-2,2.2714203E-2,-0E0,-0E0,1.1857357E-2,-0E0,3.0616277E-3,3.910591E-4,-0E0,-8.10659E-4,-0E0,2.6339397E-2,-0E0,-0E0,1.0875687E-2],"categories":[],"categories_nodes":[],"categories_segments":[],"categories_sizes":[],"default_left":[0,0,0,0,0,0,0,0,0,0,0,0,0,0,0],"id":51,"left_children":[1,3,5,7,-1,9,11,-1,-1,-1,-1,13,-1,-1,-1],"loss_changes":[1.2094129E-2,8.152798E-5,2.8399285E-4,5.8547157E-5,0E0,4.775698E-4,1.2576412E-2,0E0,0E0,0E0,0E0,5.139448E-4,0E0,0E0,0E0],"parents":[2147483647,0,0,1,1,2,2,3,3,5,5,6,6,11,11],"right_children":[2,4,6,8,-1,10,12,-1,-1,-1,-1,14,-1,-1,-1],"split_conditions":[1E0,1E0,1E0,1E0,1.1857357E-2,1E0,1E0,3.910591E-4,-0E0,-8.10659E-4,-0E0,1E0,-0E0,-0E0,1.0875687E-2],"split_indices":[1,0,2,3,0,0,0,0,0,0,0,3,0,0,0],"split_type":[0,0,0,0,0,0,0,0,0,0,0,0,0,0,0],"sum_hessian":[1.3735744E2,6.906807E1,6.828937E1,6.01866E1,8.881473E0,3.949216E1,2.8797209E1,1.3813731E1,4.6372868E1,2.756835E1,1.1923812E1,1.7037153E1,1.17600565E1,1.4014229E1,3.0229237E0],"tree_param":{"num_deleted":"0","num_feature":"4","num_nodes":"15","size_leaf_vector":"1"}},{"base_weights":[-1.2389147E-2,-2.995178E-2,-0E0,-8.967209E-3,-0E0],"categories":[],"categories_nodes":[],"categories_segments":[],"categories_sizes":[],"default_left":[0,0,0,0,0],"id":52,"left_children":[1,3,-1,-1,-1],"loss_changes":[1.090938E-2,1.2724958E-3,0E0,0E0,0E0],"parents":[2147483647,0,0,1,1],"right_children":[2,4,-1,-1,-1],"split_conditions":[1E0,1E0,-0E0,-8.967209E-3,-0E0],"split_indices":[3,1,0,0,0],"split_type":[0,0,0,0,0],"sum_hessian":[1.3712042E2,3.4377872E1,1.0274255E2,1.5143958E1,1.9233913E1],"tree_param":{"num_deleted":"0","num_feature":"4","num_nodes":"5","size_leaf_vector":"1"}},{"base_weights":[1.2389134E-2,2.995177E-2,-0E0,8.967221E-3,-0E0],"categories":[],"categories_nodes":[],"categories_segments":[],"categories_sizes":[],"default_left":[0,0,0,0,0],"id":53,"left_children":[1,3,-1,-1,-1],"loss_changes":[1.09094065E-2,1.2726113E-3,0E0,0E0,0E0],"parents":[2147483647,0,0,1,1],"right_children":[2,4,-1,-1,-1],"split_conditions":[1E0,1E0,-0E0,8.967221E-3,-0E0],"split_indices":[3,1,0,0,0],"split_type":[0,0,0,0,0],"sum_hessian":[1.3712042E2,3.4377872E1,1.0274255E2,1.5143961E1,1.9233912E1],"tree_param":{"num_deleted":"0","num_feature":"4","num_nodes":"5","size_leaf_vector":"1"}},{"base_weights":[-1.1435454E-2,-3.8710434E-3,-0E0,-0E0,-1.9882917E-3,6.575265E-4,-0E0,-4.928719E-3,-0E0],"categories":[],"categories_nodes":[],"categories_segments":[],"categories_sizes":[],"default_left":[0,0,0,0,0,0,0,0,0],"id":54,"left_children":[1,-1,3,5,7,-1,-1,-1,-1],"loss_changes":[8.192832E-3,0E0,1.1958485E-4,3.1390958E-4,1.1109078E-2,0E0,0E0,0E0,0E0],"parents":[2147483647,0,0,2,2,3,3,4,4],"right_children":[2,-1,4,6,8,-1,-1,-1,-1],"split_conditions":[1E0,-3.8710434E-3,1E0,1E0,1E0,6.575265E-4,-0E0,-4.928719E-3,-0E0],"split_indices":[1,0,2,0,0,0,0,0,0],"split_type":[0,0,0,0,0,0,0,0,0],"sum_hessian":[1.3689458E2,6.867865E1,6.821593E1,3.9466587E1,2.8749338E1,2.7542774E1,1.1923813E1,1.698928E1,1.1760058E1],"tree_param":{"num_deleted":"0","num_feature":"4","num_nodes":"9","size_leaf_vector":"1"}},{"base_weights":[1.1435453E-2,3.8710458E-3,-0E0,-0E0,1.9882536E-3,-6.5753295E-4,-0E0,4.9287155E-3,-0E0],"categories":[],"categories_nodes":[],"categories_segments":[],"categories_sizes":[],"default_left":[0,0,0,0,0,0,0,0,0],"id":55,"left_children":[1,-1,3,5,7,-1,-1,-1,-1],"loss_changes":[8.192867E-3,0E0,1.1958023E-4,3.1391575E-4,1.1109069E-2,0E0,0E0,0E0,0E0],"parents":[2147483647,0,0,2,2,3,3,4,4],"right_children":[2,-1,4,6,8,-1,-1,-1,-1],"split_conditions":[1E0,3.8710458E-3,1E0,1E0,1E0,-6.5753295E-4,-0E0,4.9287155E-3,-0E0],"split_indices":[1,0,2,0,0,0,0,0,0],"split_type":[0,0,0,0,0,0,0,0,0],"sum_hessian":[1.3689458E2,6.867866E1,6.821592E1,3.9466587E1,2.8749336E1,2.7542774E1,1.1923812E1,1.6989279E1,1.17600565E1],"tree_param":{"num_deleted":"0","num_feature":"4","num_nodes":"9","size_leaf_vector":"1"}},{"base_weights":[-9.054237E-3,-2.2949615E-2,-0E0,-6.787439E-3,-0E0],"categories":[],"categories_nodes":[],"categories_segments":[],"categories_sizes":[],"default_left":[0,0,0,0,0],"id":56,"left_children":[1,3,-1,-1,-1],"loss_changes":[7.344736E-3,1.2208894E-4,0E0,0E0,0E0],"parents":[2147483647,0,0,1,1],"right_children":[2,4,-1,-1,-1],"split_conditions":[1E0,1E0,-0E0,-6.787439E-3,-0E0],"split_indices":[3,1,0,0,0],"split_type":[0,0,0,0,0],"sum_hessian":[1.3671939E2,3.395925E1,1.0276013E2,1.4821438E1,1.9137815E1],"tree_param":{"num_deleted":"0","num_feature":"4","num_nodes":"5","size_leaf_vector":"1"}},{"base_weights":[9.054252E-3,2.2949588E-2,-0E0,6.7874836E-3,-0E0],"categories":[],"categories_nodes":[],"categories_segments":[],"categories_sizes":[],"default_left":[0,0,0,0,0],"id":57,"left_children":[1,3,-1,-1,-1],"loss_changes":[7.344652E-3,1.2238882E-4,0E0,0E0,0E0],"parents":[2147483647,0,0,1,1],"right_children":[2,4,-1,-1,-1],"split_conditions":[1E0,1E0,-0E0,6.7874836E-3,-0E0],"split_indices":[3,1,0,0,0],"split_type":[0,0,0,0,0],"sum_hessian":[1.3671939E2,3.3959248E1,1.0276013E2,1.4821443E1,1.9137808E1],"tree_param":{"num_deleted":"0","num_feature":"4","num_nodes":"5","size_leaf_vector":"1"}},{"base_weights":[-8.340694E-3,-4.04493E-3,-0E0],"categories":[],"categories_nodes":[],"categories_segments":[],"categories_sizes":[],"default_left":[0,0,0],"id":58,"left_children":[1,-1,-1],"loss_changes":[4.8314584E-3,0E0,0E0],"parents":[2147483647,0,0],"right_children":[2,-1,-1],"split_conditions":[1E0,-4.04493E-3,-0E0],"split_indices":[3,0,0],"split_type":[0,0,0],"sum_hessian":[1.3655107E2,3.3790943E1,1.0276013E2],"tree_param":{"num_deleted":"0","num_feature":"4","num_nodes":"3","size_leaf_vector":"1"}},{"base_weights":[8.340709E-3,4.044924E-3,-0E0],"categories":[],"categories_nodes":[],"categories_segments":[],"categories_sizes":[],"default_left":[0,0,0],"id":59,"left_children":[1,-1,-1],"loss_changes":[4.83138E-3,0E0,0E0],"parents":[2147483647,0,0],"right_children":[2,-1,-1],"split_conditions":[1E0,4.044924E-3,-0E0],"split_indices":[3,0,0],"split_type":[0,0,0],"sum_hessian":[1.3655107E2,3.3790943E1,1.0276013E2],"tree_param":{"num_deleted":"0","num_feature":"4","num_nodes":"3","size_leaf_vector":"1"}},{"base_weights":[-7.364746E-3,-1.3358768E-2,-0E0,-0E0,-8.912248E-3],"categories":[],"categories_nodes":[],"categories_segments":[],"categories_sizes":[],"default_left":[0,0,0,0,0],"id":60,"left_children":[1,3,-1,-1,-1],"loss_changes":[4.9930103E-3,7.65018E-3,0E0,0E0,0E0],"parents":[2147483647,0,0,1,1],"right_children":[2,4,-1,-1,-1],"split_conditions":[1E0,1E0,-0E0,-0E0,-8.912248E-3],"split_indices":[1,0,0,0,0],"split_type":[0,0,0,0,0],"sum_hessian":[1.3634332E2,6.837444E1,6.796889E1,5.9742146E1,8.6322975E0],"tree_param":{"num_deleted":"0","num_feature":"4","num_nodes":"5","size_leaf_vector":"1"}},{"base_weights":[7.364774E-3,1.3358821E-2,-0E0,-0E0,8.912253E-3],"categories":[],"categories_nodes":[],"categories_segments":[],"categories_sizes":[],"default_left":[0,0,0,0,0],"id":61,"left_children":[1,3,-1,-1,-1],"loss_changes":[4.993054E-3,7.650107E-3,0E0,0E0,0E0],"parents":[2147483647,0,0,1,1],"right_children":[2,4,-1,-1,-1],"split_conditions":[1E0,1E0,-0E0,-0E0,8.912253E-3],"split_indices":[1,0,0,0,0],"split_type":[0,0,0,0,0],"sum_hessian":[1.3634332E2,6.837446E1,6.796887E1,5.9742157E1,8.632298E0],"tree_param":{"num_deleted":"0","num_feature":"4","num_nodes":"5","size_leaf_vector":"1"}},{"base_weights":[-6.815967E-3,-1.228511E-2,-0E0,-0E0,-7.4880845E-3],"categories":[],"categories_nodes":[],"categories_segments":[],"categories_sizes":[],"default_left":[0,0,0,0,0],"id":62,"left_children":[1,3,-1,-1,-1],"loss_changes":[4.1299574E-3,3.5148133E-3,0E0,0E0,0E0],"parents":[2147483647,0,0,1,1],"right_children":[2,4,-1,-1,-1],"split_conditions":[1E0,1E0,-0E0,-0E0,-7.4880845E-3],"split_indices":[1,0,0,0,0],"split_type":[0,0,0,0,0],"sum_hessian":[1.3622919E2,6.826031E1,6.796889E1,5.9742146E1,8.518161E0],"tree_param":{"num_deleted":"0","num_feature":"4","num_nodes":"5","size_leaf_vector":"1"}},{"base_weights":[6.8159923E-3,1.2285157E-2,-0E0,-0E0,7.4880845E-3],"categories":[],"categories_nodes":[],"categories_segments":[],"categories_sizes":[],"default_left":[0,0,0,0,0],"id":63,"left_children":[1,3,-1,-1,-1],"loss_changes":[4.1299933E-3,3.5147266E-3,0E0,0E0,0E0],"parents":[2147483647,0,0,1,1],"right_children":[2,4,-1,-1,-1],"split_conditions":[1E0,1E0,-0E0,-0E0,7.4880845E-3],"split_indices":[1,0,0,0,0],"split_type":[0,0,0,0,0],"sum_hessian":[1.3622919E2,6.8260315E1,6.796887E1,5.9742157E1,8.518161E0],"tree_param":{"num_deleted":"0","num_feature":"4","num_nodes":"5","size_leaf_vector":"1"}},{"base_weights":[-6.3598305E-3,-0E0,-1.44931E-2,3.7558305E-3,-5.6102583E-3,-6.783824E-3,-0E0,-0E0,3.127321E-3],"categories":[],"categories_nodes":[],"categories_segments":[],"categories_sizes":[],"default_left":[0,0,0,0,0,0,0,0,0],"id":64,"left_children":[1,3,5,7,-1,-1,-1,-1,-1],"loss_changes":[3.8926676E-3,1.5480843E-2,2.475911E-2,1.4795604E-2,0E0,0E0,0E0,0E0,0E0],"parents":[2147483647,0,0,1,1,2,2,3,3],"right_children":[2,4,6,8,-1,-1,-1,-1,-1],"split_conditions":[1E0,1E0,1E0,1E0,-5.6102583E-3,-6.783824E-3,-0E0,-0E0,3.127321E-3],"split_indices":[2,0,0,3,0,0,0,0,0],"split_type":[0,0,0,0,0,0,0,0,0],"sum_hessian":[1.36134E2,9.2598946E1,4.353506E1,7.5811066E1,1.6787878E1,2.8242308E1,1.5292754E1,1.2337847E1,6.347322E1],"tree_param":{"num_deleted":"0","num_feature":"4","num_nodes":"9","size_leaf_vector":"1"}},{"base_weights":[6.359861E-3,-0E0,1.4493074E-2,-3.755782E-3,5.610277E-3,6.783823E-3,-0E0,-0E0,-3.127321E-3],"categories":[],"categories_nodes":[],"categories_segments":[],"categories_sizes":[],"default_left":[0,0,0,0,0,0,0,0,0],"id":65,"left_children":[1,3,5,7,-1,-1,-1,-1,-1],"loss_changes":[3.8925805E-3,1.5480911E-2,2.4759132E-2,1.4795634E-2,0E0,0E0,0E0,0E0,0E0],"parents":[2147483647,0,0,1,1,2,2,3,3],"right_children":[2,4,6,8,-1,-1,-1,-1,-1],"split_conditions":[1E0,1E0,1E0,1E0,5.610277E-3,6.783823E-3,-0E0,-0E0,-3.127321E-3],"split_indices":[2,0,0,3,0,0,0,0,0],"split_type":[0,0,0,0,0,0,0,0,0],"sum_hessian":[1.3613402E2,9.259895E1,4.353506E1,7.581107E1,1.6787878E1,2.8242308E1,1.5292753E1,1.23378525E1,6.3473225E1],"tree_param":{"num_deleted":"0","num_feature":"4","num_nodes":"9","size_leaf_vector":"1"}},{"base_weights":[-5.7530054E-3,-2.3126854E-3,-0E0],"categories":[],"categories_nodes":[],"categories_segments":[],"categories_sizes":[],"default_left":[0,0,0],"id":66,"left_children":[1,-1,-1],"loss_changes":[4.7467407E-3,0E0,0E0],"parents":[2147483647,0,0],"right_children":[2,-1,-1],"split_conditions":[1E0,-2.3126854E-3,-0E0],"split_indices":[1,0,0],"split_type":[0,0,0],"sum_hessian":[1.3560355E2,6.793587E1,6.766768E1],"tree_param":{"num_deleted":"0","num_feature":"4","num_nodes":"3","size_leaf_vector":"1"}},{"base_weights":[5.7530757E-3,2.312705E-3,-0E0],"categories":[],"categories_nodes":[],"categories_segments":[],"categories_sizes":[],"default_left":[0,0,0],"id":67,"left_children":[1,-1,-1],"loss_changes":[4.7467873E-3,0E0,0E0],"parents":[2147483647,0,0],"right_children":[2,-1,-1],"split_conditions":[1E0,2.312705E-3,-0E0],"split_indices":[1,0,0],"split_type":[0,0,0],"sum_hessian":[1.3560353E2,6.793587E1,6.766766E1],"tree_param":{"num_deleted":"0","num_feature":"4","num_nodes":"3","size_leaf_vector":"1"}},{"base_weights":[-4.6079126E-3,-9.3037635E-3,-0E0,-0E0,-2.691171E-2,-6.822243E-3,-0E0],"categories":[],"categories_nodes":[],"categories_segments":[],"categories_sizes":[],"default_left":[0,0,0,0,0,0,0],"id":68,"left_children":[1,3,-1,-1,5,-1,-1],"loss_changes":[3.0979526E-3,1.1266153E-3,0E0,0E0,2.0125182E-4,0E0,0E0],"parents":[2147483647,0,0,1,1,4,4],"right_children":[2,4,-1,-1,6,-1,-1],"split_conditions":[1E0,1E0,-0E0,-0E0,1E0,-6.822243E-3,-0E0],"split_indices":[1,0,0,0,2,0,0],"split_type":[0,0,0,0,0,0,0],"sum_hessian":[1.3558339E2,6.791571E1,6.766768E1,5.9563675E1,8.352036E0,4.80513E0,3.5469067E0],"tree_param":{"num_deleted":"0","num_feature":"4","num_nodes":"7","size_leaf_vector":"1"}},{"base_weights":[4.6079564E-3,9.303809E-3,-0E0,-0E0,2.6911752E-2,6.8222494E-3,-0E0],"categories":[],"categories_nodes":[],"categories_segments":[],"categories_sizes":[],"default_left":[0,0,0,0,0,0,0],"id":69,"left_children":[1,3,-1,-1,5,-1,-1],"loss_changes":[3.097957E-3,1.1265785E-3,0E0,0E0,2.0124251E-4,0E0,0E0],"parents":[2147483647,0,0,1,1,4,4],"right_children":[2,4,-1,-1,6,-1,-1],"split_conditions":[1E0,1E0,-0E0,-0E0,1E0,6.8222494E-3,-0E0],"split_indices":[1,0,0,0,2,0,0],"split_type":[0,0,0,0,0,0,0],"sum_hessian":[1.3558339E2,6.791572E1,6.766766E1,5.9563683E1,8.352037E0,4.8051305E0,3.546907E0],"tree_param":{"num_deleted":"0","num_feature":"4","num_nodes":"7","size_leaf_vector":"1"}},{"base_weights":[-4.3716384E-3,-8.840407E-3,-0E0,-4.0184697E-3,-0E0],"categories":[],"categories_nodes":[],"categories_segments":[],"categories_sizes":[],"default_left":[0,0,0,0,0],"id":70,"left_children":[1,3,-1,-1,-1],"loss_changes":[2.802227E-3,1.00824E-3,0E0,0E0,0E0],"parents":[2147483647,0,0,1,1],"right_children":[2,4,-1,-1,-1],"split_conditions":[1E0,1E0,-0E0,-4.0184697E-3,-0E0],"split_indices":[1,3,0,0,0],"split_type":[0,0,0,0,0],"sum_hessian":[1.3553302E2,6.786535E1,6.766768E1,1.4425926E1,5.343942E1],"tree_param":{"num_deleted":"0","num_feature":"4","num_nodes":"5","size_leaf_vector":"1"}},{"base_weights":[4.3716813E-3,8.840451E-3,-0E0,4.01852E-3,-0E0],"categories":[],"categories_nodes":[],"categories_segments":[],"categories_sizes":[],"default_left":[0,0,0,0,0],"id":71,"left_children":[1,3,-1,-1,-1],"loss_changes":[2.8022309E-3,1.0083481E-3,0E0,0E0,0E0],"parents":[2147483647,0,0,1,1],"right_children":[2,4,-1,-1,-1],"split_conditions":[1E0,1E0,-0E0,4.01852E-3,-0E0],"split_indices":[1,3,0,0,0],"split_type":[0,0,0,0,0],"sum_hessian":[1.3553302E2,6.786535E1,6.766766E1,1.4425932E1,5.343942E1],"tree_param":{"num_deleted":"0","num_feature":"4","num_nodes":"5","size_leaf_vector":"1"}},{"base_weights":[-3.9528557E-3,-8.018817E-3,-0E0,-0E0,-4.648457E-3],"categories":[],"categories_nodes":[],"categories_segments":[],"categories_sizes":[],"default_left":[0,0,0,0,0],"id":72,"left_children":[1,3,-1,-1,-1],"loss_changes":[2.3143853E-3,8.362774E-4,0E0,0E0,0E0],"parents":[2147483647,0,0,1,1],"right_children":[2,4,-1,-1,-1],"split_conditions":[1E0,1E0,-0E0,-0E0,-4.648457E-3],"split_indices":[1,0,0,0,0],"split_type":[0,0,0,0,0],"sum_hessian":[1.3543535E2,6.776767E1,6.766768E1,5.9474533E1,8.293133E0],"tree_param":{"num_deleted":"0","num_feature":"4","num_nodes":"5","size_leaf_vector":"1"}},{"base_weights":[3.9528627E-3,8.01879E-3,-0E0,-0E0,4.6484563E-3],"categories":[],"categories_nodes":[],"categories_segments":[],"categories_sizes":[],"default_left":[0,0,0,0,0],"id":73,"left_children":[1,3,-1,-1,-1],"loss_changes":[2.3143485E-3,8.363067E-4,0E0,0E0,0E0],"parents":[2147483647,0,0,1,1],"right_children":[2,4,-1,-1,-1],"split_conditions":[1E0,1E0,-0E0,-0E0,4.6484563E-3],"split_indices":[1,0,0,0,0],"split_type":[0,0,0,0,0],"sum_hessian":[1.3543533E2,6.776766E1,6.766766E1,5.9474533E1,8.293133E0],"tree_param":{"num_deleted":"0","num_feature":"4","num_nodes":"5","size_leaf_vector":"1"}},{"base_weights":[-3.673882E-3,-7.4704993E-3,-0E0,-3.2440375E-3,-0E0],"categories":[],"categories_nodes":[],"categories_segments":[],"categories_sizes":[],"default_left":[0,0,0,0,0],"id":74,"left_children":[1,3,-1,-1,-1],"loss_changes":[2.0149832E-3,2.992719E-4,0E0,0E0,0E0],"parents":[2147483647,0,0,1,1],"right_children":[2,4,-1,-1,-1],"split_conditions":[1E0,1E0,-0E0,-3.2440375E-3,-0E0],"split_indices":[1,3,0,0,0],"split_type":[0,0,0,0,0],"sum_hessian":[1.3537721E2,6.770954E1,6.766768E1,1.4318435E1,5.3391106E1],"tree_param":{"num_deleted":"0","num_feature":"4","num_nodes":"5","size_leaf_vector":"1"}},{"base_weights":[3.673881E-3,7.4704573E-3,-0E0,3.2440273E-3,-0E0],"categories":[],"categories_nodes":[],"categories_segments":[],"categories_sizes":[],"default_left":[0,0,0,0,0],"id":75,"left_children":[1,3,-1,-1,-1],"loss_changes":[2.0149406E-3,2.9928866E-4,0E0,0E0,0E0],"parents":[2147483647,0,0,1,1],"right_children":[2,4,-1,-1,-1],"split_conditions":[1E0,1E0,-0E0,3.2440273E-3,-0E0],"split_indices":[1,3,0,0,0],"split_type":[0,0,0,0,0],"sum_hessian":[1.353772E2,6.770954E1,6.766766E1,1.4318433E1,5.3391106E1],"tree_param":{"num_deleted":"0","num_feature":"4","num_nodes":"5","size_leaf_vector":"1"}},{"base_weights":[-3.3373628E-3,-0E0,-8.900709E-3,3.748233E-3,-3.8371838E-3,-5.3050793E-3,-0E0,-0E0,2.7820936E-3],"categories":[],"categories_nodes":[],"categories_segments":[],"categories_sizes":[],"default_left":[0,0,0,0,0,0,0,0,0],"id":76,"left_children":[1,3,5,7,-1,-1,-1,-1,-1],"loss_changes":[2.0184868E-3,7.7424604E-3,1.7185321E-2,1.1465642E-2,0E0,0E0,0E0,0E0,0E0],"parents":[2147483647,0,0,1,1,2,2,3,3],"right_children":[2,4,6,8,-1,-1,-1,-1,-1],"split_conditions":[1E0,1E0,1E0,1E0,-3.8371838E-3,-5.3050793E-3,-0E0,-0E0,2.7820936E-3],"split_indices":[2,0,0,3,0,0,0,0,0],"split_type":[0,0,0,0,0,0,0,0,0],"sum_hessian":[1.352988E2,9.208745E1,4.3211346E1,7.549241E1,1.6595041E1,2.7959316E1,1.5252031E1,1.2148712E1,6.3343697E1],"tree_param":{"num_deleted":"0","num_feature":"4","num_nodes":"9","size_leaf_vector":"1"}},{"base_weights":[3.3373856E-3,-0E0,8.900597E-3,-3.7481128E-3,3.8371724E-3,5.3050546E-3,-0E0,-0E0,-2.7820754E-3],"categories":[],"categories_nodes":[],"categories_segments":[],"categories_sizes":[],"default_left":[0,0,0,0,0,0,0,0,0],"id":77,"left_children":[1,3,5,7,-1,-1,-1,-1,-1],"loss_changes":[2.0183758E-3,7.742351E-3,1.718522E-2,1.1465545E-2,0E0,0E0,0E0,0E0,0E0],"parents":[2147483647,0,0,1,1,2,2,3,3],"right_children":[2,4,6,8,-1,-1,-1,-1,-1],"split_conditions":[1E0,1E0,1E0,1E0,3.8371724E-3,5.3050546E-3,-0E0,-0E0,-2.7820754E-3],"split_indices":[2,0,0,3,0,0,0,0,0],"split_type":[0,0,0,0,0,0,0,0,0],"sum_hessian":[1.3529878E2,9.208745E1,4.321134E1,7.549241E1,1.659504E1,2.7959312E1,1.5252029E1,1.2148717E1,6.334369E1],"tree_param":{"num_deleted":"0","num_feature":"4","num_nodes":"9","size_leaf_vector":"1"}},{"base_weights":[-3.0880107E-3,-1.4331272E-3,-0E0],"categories":[],"categories_nodes":[],"categories_segments":[],"categories_sizes":[],"default_left":[0,0,0],"id":78,"left_children":[1,-1,-1],"loss_changes":[2.2396543E-3,0E0,0E0],"parents":[2147483647,0,0],"right_children":[2,-1,-1],"split_conditions":[1E0,-1.4331272E-3,-0E0],"split_indices":[1,0,0],"split_type":[0,0,0],"sum_hessian":[1.3486993E2,6.744458E1,6.742535E1],"tree_param":{"num_deleted":"0","num_feature":"4","num_nodes":"3","size_leaf_vector":"1"}},{"base_weights":[3.0880235E-3,1.4331181E-3,-0E0],"categories":[],"categories_nodes":[],"categories_segments":[],"categories_sizes":[],"default_left":[0,0,0],"id":79,"left_children":[1,-1,-1],"loss_changes":[2.2395994E-3,0E0,0E0],"parents":[2147483647,0,0],"right_children":[2,-1,-1],"split_conditions":[1E0,1.4331181E-3,-0E0],"split_indices":[1,0,0],"split_type":[0,0,0],"sum_hessian":[1.3486993E2,6.744459E1,6.742534E1],"tree_param":{"num_deleted":"0","num_feature":"4","num_nodes":"3","size_leaf_vector":"1"}},{"base_weights":[-2.3794782E-3,-5.7647666E-3,-0E0,-0E0,-1.6063482E-2,-4.200388E-3,-0E0],"categories":[],"categories_nodes":[],"categories_segments":[],"categories_sizes":[],"default_left":[0,0,0,0,0,0,0],"id":80,"left_children":[1,3,-1,-1,5,-1,-1],"loss_changes":[1.518761E-3,2.0759553E-4,0E0,0E0,2.2377726E-4,0E0,0E0],"parents":[2147483647,0,0,1,1,4,4],"right_children":[2,4,-1,-1,6,-1,-1],"split_conditions":[1E0,1E0,-0E0,-0E0,1E0,-4.200388E-3,-0E0],"split_indices":[1,0,0,0,2,0,0],"split_type":[0,0,0,0,0,0,0],"sum_hessian":[1.3485806E2,6.743272E1,6.742535E1,5.925031E1,8.182409E0,4.671607E0,3.5108018E0],"tree_param":{"num_deleted":"0","num_feature":"4","num_nodes":"7","size_leaf_vector":"1"}},{"base_weights":[2.379486E-3,5.764712E-3,-0E0,-0E0,1.6063403E-2,4.2003994E-3,-0E0],"categories":[],"categories_nodes":[],"categories_segments":[],"categories_sizes":[],"default_left":[0,0,0,0,0,0,0],"id":81,"left_children":[1,3,-1,-1,5,-1,-1],"loss_changes":[1.5187125E-3,2.0761439E-4,0E0,0E0,2.238166E-4,0E0,0E0],"parents":[2147483647,0,0,1,1,4,4],"right_children":[2,4,-1,-1,6,-1,-1],"split_conditions":[1E0,1E0,-0E0,-0E0,1E0,4.2003994E-3,-0E0],"split_indices":[1,0,0,0,2,0,0],"split_type":[0,0,0,0,0,0,0],"sum_hessian":[1.3485806E2,6.7432724E1,6.742534E1,5.9250313E1,8.182407E0,4.6716075E0,3.5108001E0],"tree_param":{"num_deleted":"0","num_feature":"4","num_nodes":"7","size_leaf_vector":"1"}},{"base_weights":[-2.2365404E-3,-1.0966902E-3,-0E0],"categories":[],"categories_nodes":[],"categories_segments":[],"categories_sizes":[],"default_left":[0,0,0],"id":82,"left_children":[1,-1,-1],"loss_changes":[1.3898436E-3,0E0,0E0],"parents":[2147483647,0,0],"right_children":[2,-1,-1],"split_conditions":[1E0,-1.0966902E-3,-0E0],"split_indices":[1,0,0],"split_type":[0,0,0],"sum_hessian":[1.3482762E2,6.740227E1,6.742535E1],"tree_param":{"num_deleted":"0","num_feature":"4","num_nodes":"3","size_leaf_vector":"1"}},{"base_weights":[2.2365402E-3,1.0966761E-3,-0E0],"categories":[],"categories_nodes":[],"categories_segments":[],"categories_sizes":[],"default_left":[0,0,0],"id":83,"left_children":[1,-1,-1],"loss_changes":[1.3897903E-3,0E0,0E0],"parents":[2147483647,0,0],"right_children":[2,-1,-1],"split_conditions":[1E0,1.0966761E-3,-0E0],"split_indices":[1,0,0],"split_type":[0,0,0],"sum_hessian":[1.348276E2,6.740227E1,6.742534E1],"tree_param":{"num_deleted":"0","num_feature":"4","num_nodes":"3","size_leaf_vector":"1"}},{"base_weights":[-1.6944774E-3,-4.4112997E-3,-0E0,-0E0,-1.3180791E-2,-3.4230363E-3,-0E0],"categories":[],"categories_nodes":[],"categories_segments":[],"categories_sizes":[],"default_left":[0,0,0,0,0,0,0],"id":84,"left_children":[1,3,-1,-1,5,-1,-1],"loss_changes":[9.492273E-4,3.3387472E-4,0E0,0E0,1.2209592E-4,0E0,0E0],"parents":[2147483647,0,0,1,1,4,4],"right_children":[2,4,-1,-1,6,-1,-1],"split_conditions":[1E0,1E0,-0E0,-0E0,1E0,-3.4230363E-3,-0E0],"split_indices":[1,0,0,0,2,0,0],"split_type":[0,0,0,0,0,0,0],"sum_hessian":[1.3481859E2,6.739325E1,6.742535E1,5.9254864E1,8.13838E0,4.633229E0,3.5051513E0],"tree_param":{"num_deleted":"0","num_feature":"4","num_nodes":"7","size_leaf_vector":"1"}},{"base_weights":[1.6944922E-3,4.411259E-3,-0E0,-0E0,1.3180892E-2,3.4230636E-3,-0E0],"categories":[],"categories_nodes":[],"categories_segments":[],"categories_sizes":[],"default_left":[0,0,0,0,0,0,0],"id":85,"left_children":[1,3,-1,-1,5,-1,-1],"loss_changes":[9.4919605E-4,3.3392513E-4,0E0,0E0,1.2209895E-4,0E0,0E0],"parents":[2147483647,0,0,1,1,4,4],"right_children":[2,4,-1,-1,6,-1,-1],"split_conditions":[1E0,1E0,-0E0,-0E0,1E0,3.4230636E-3,-0E0],"split_indices":[1,0,0,0,2,0,0],"split_type":[0,0,0,0,0,0,0],"sum_hessian":[1.3481859E2,6.739324E1,6.742534E1,5.925486E1,8.138382E0,4.63323E0,3.5051515E0],"tree_param":{"num_deleted":"0","num_feature":"4","num_nodes":"7","size_leaf_vector":"1"}},{"base_weights":[-1.5787288E-3,-4.183202E-3,-0E0,-2.0116742E-3,-0E0],"categories":[],"categories_nodes":[],"categories_segments":[],"categories_sizes":[],"default_left":[0,0,0,0,0],"id":86,"left_children":[1,3,-1,-1,-1],"loss_changes":[8.6544646E-4,3.781746E-4,0E0,0E0,0E0],"parents":[2147483647,0,0,1,1],"right_children":[2,4,-1,-1,-1],"split_conditions":[1E0,1E0,-0E0,-2.0116742E-3,-0E0],"split_indices":[1,3,0,0,0],"split_type":[0,0,0,0,0],"sum_hessian":[1.3479391E2,6.736856E1,6.742535E1,1.4149947E1,5.3218613E1],"tree_param":{"num_deleted":"0","num_feature":"4","num_nodes":"5","size_leaf_vector":"1"}},{"base_weights":[1.5787424E-3,4.183159E-3,-0E0,2.0116402E-3,-0E0],"categories":[],"categories_nodes":[],"categories_segments":[],"categories_sizes":[],"default_left":[0,0,0,0,0],"id":87,"left_children":[1,3,-1,-1,-1],"loss_changes":[8.65416E-4,3.7814537E-4,0E0,0E0,0E0],"parents":[2147483647,0,0,1,1],"right_children":[2,4,-1,-1,-1],"split_conditions":[1E0,1E0,-0E0,2.0116402E-3,-0E0],"split_indices":[1,3,0,0,0],"split_type":[0,0,0,0,0],"sum_hessian":[1.347939E2,6.736855E1,6.742534E1,1.4149942E1,5.3218613E1],"tree_param":{"num_deleted":"0","num_feature":"4","num_nodes":"5","size_leaf_vector":"1"}},{"base_weights":[-1.3707174E-3,-0E0,-4.7043283E-3,3.3497217E-3,-2.6140886E-3,-4.119862E-3,-0E0,-0E0,2.5272155E-3],"categories":[],"categories_nodes":[],"categories_segments":[],"categories_sizes":[],"default_left":[0,0,0,0,0,0,0,0,0],"id":88,"left_children":[1,3,5,7,-1,-1,-1,-1,-1],"loss_changes":[7.283172E-4,3.9306846E-3,1.1422795E-2,9.476079E-3,0E0,0E0,0E0,0E0,0E0],"parents":[2147483647,0,0,1,1,2,2,3,3],"right_children":[2,4,6,8,-1,-1,-1,-1,-1],"split_conditions":[1E0,1E0,1E0,1E0,-2.6140886E-3,-4.119862E-3,-0E0,-0E0,2.5272155E-3],"split_indices":[2,0,0,3,0,0,0,0,0],"split_type":[0,0,0,0,0,0,0,0,0],"sum_hessian":[1.347457E2,9.176882E1,4.297688E1,7.5304955E1,1.646387E1,2.7739164E1,1.5237717E1,1.2059856E1,6.32451E1],"tree_param":{"num_deleted":"0","num_feature":"4","num_nodes":"9","size_leaf_vector":"1"}},{"base_weights":[1.3707782E-3,-0E0,4.7043115E-3,-3.3496015E-3,2.614086E-3,4.1198633E-3,-0E0,-0E0,-2.5271971E-3],"categories":[],"categories_nodes":[],"categories_segments":[],"categories_sizes":[],"default_left":[0,0,0,0,0,0,0,0,0],"id":89,"left_children":[1,3,5,7,-1,-1,-1,-1,-1],"loss_changes":[7.282875E-4,3.9306167E-3,1.1422811E-2,9.475988E-3,0E0,0E0,0E0,0E0,0E0],"parents":[2147483647,0,0,1,1,2,2,3,3],"right_children":[2,4,6,8,-1,-1,-1,-1,-1],"split_conditions":[1E0,1E0,1E0,1E0,2.614086E-3,4.1198633E-3,-0E0,-0E0,-2.5271971E-3],"split_indices":[2,0,0,3,0,0,0,0,0],"split_type":[0,0,0,0,0,0,0,0,0],"sum_hessian":[1.347457E2,9.176882E1,4.2976883E1,7.530495E1,1.6463871E1,2.7739166E1,1.5237715E1,1.2059861E1,6.324509E1],"tree_param":{"num_deleted":"0","num_feature":"4","num_nodes":"9","size_leaf_vector":"1"}},{"base_weights":[-1.3937633E-3,-8.5474894E-4,-0E0],"categories":[],"categories_nodes":[],"categories_segments":[],"categories_sizes":[],"default_left":[0,0,0],"id":90,"left_children":[1,-1,-1],"loss_changes":[9.901834E-4,0E0,0E0],"parents":[2147483647,0,0],"right_children":[2,-1,-1],"split_conditions":[1E0,-8.5474894E-4,-0E0],"split_indices":[1,0,0],"split_type":[0,0,0],"sum_hessian":[1.3439357E2,6.716545E1,6.722812E1],"tree_param":{"num_deleted":"0","num_feature":"4","num_nodes":"3","size_leaf_vector":"1"}},{"base_weights":[1.3938161E-3,8.5478363E-4,-0E0],"categories":[],"categories_nodes":[],"categories_segments":[],"categories_sizes":[],"default_left":[0,0,0],"id":91,"left_children":[1,-1,-1],"loss_changes":[9.902653E-4,0E0,0E0],"parents":[2147483647,0,0],"right_children":[2,-1,-1],"split_conditions":[1E0,8.5478363E-4,-0E0],"split_indices":[1,0,0],"split_type":[0,0,0],"sum_hessian":[1.3439357E2,6.716545E1,6.722812E1],"tree_param":{"num_deleted":"0","num_feature":"4","num_nodes":"3","size_leaf_vector":"1"}},{"base_weights":[-9.714298E-4,-3.4381659E-3,-0E0,-0E0,-1.8773967E-3],"categories":[],"categories_nodes":[],"categories_segments":[],"categories_sizes":[],"default_left":[0,0,0,0,0],"id":92,"left_children":[1,3,-1,-1,-1],"loss_changes":[6.8337866E-4,3.2556127E-5,0E0,0E0,0E0],"parents":[2147483647,0,0,1,1],"right_children":[2,4,-1,-1,-1],"split_conditions":[1E0,1E0,-0E0,-0E0,-1.8773967E-3],"split_indices":[1,0,0,0,0],"split_type":[0,0,0,0,0],"sum_hessian":[1.3438667E2,6.7158554E1,6.722812E1,5.9078304E1,8.080246E0],"tree_param":{"num_deleted":"0","num_feature":"4","num_nodes":"5","size_leaf_vector":"1"}},{"base_weights":[9.713867E-4,3.4381496E-3,-0E0,-0E0,1.8773963E-3],"categories":[],"categories_nodes":[],"categories_segments":[],"categories_sizes":[],"default_left":[0,0,0,0,0],"id":93,"left_children":[1,3,-1,-1,-1],"loss_changes":[6.833824E-4,3.2563228E-5,0E0,0E0,0E0],"parents":[2147483647,0,0,1,1],"right_children":[2,4,-1,-1,-1],"split_conditions":[1E0,1E0,-0E0,-0E0,1.8773963E-3],"split_indices":[1,0,0,0,0],"split_type":[0,0,0,0,0],"sum_hessian":[1.3438666E2,6.715855E1,6.722812E1,5.90783E1,8.080246E0],"tree_param":{"num_deleted":"0","num_feature":"4","num_nodes":"5","size_leaf_vector":"1"}},{"base_weights":[-8.600989E-4,-3.2186166E-3,-0E0,-1.3740166E-3,-0E0],"categories":[],"categories_nodes":[],"categories_segments":[],"categories_sizes":[],"default_left":[0,0,0,0,0],"id":94,"left_children":[1,3,-1,-1,-1],"loss_changes":[6.105208E-4,2.3563276E-5,0E0,0E0,0E0],"parents":[2147483647,0,0,1,1],"right_children":[2,4,-1,-1,-1],"split_conditions":[1E0,1E0,-0E0,-1.3740166E-3,-0E0],"split_indices":[1,3,0,0,0],"split_type":[0,0,0,0,0],"sum_hessian":[1.3436357E2,6.713546E1,6.722812E1,1.4064033E1,5.3071426E1],"tree_param":{"num_deleted":"0","num_feature":"4","num_nodes":"5","size_leaf_vector":"1"}},{"base_weights":[8.6004235E-4,3.218574E-3,-0E0,1.3739858E-3,-0E0],"categories":[],"categories_nodes":[],"categories_segments":[],"categories_sizes":[],"default_left":[0,0,0,0,0],"id":95,"left_children":[1,3,-1,-1,-1],"loss_changes":[6.1051507E-4,2.3549015E-5,0E0,0E0,0E0],"parents":[2147483647,0,0,1,1],"right_children":[2,4,-1,-1,-1],"split_conditions":[1E0,1E0,-0E0,1.3739858E-3,-0E0],"split_indices":[1,3,0,0,0],"split_type":[0,0,0,0,0],"sum_hessian":[1.3436357E2,6.713545E1,6.722812E1,1.4064027E1,5.3071426E1],"tree_param":{"num_deleted":"0","num_feature":"4","num_nodes":"5","size_leaf_vector":"1"}},{"base_weights":[-7.182086E-4,-5.8776117E-4,-0E0],"categories":[],"categories_nodes":[],"categories_segments":[],"categories_sizes":[],"default_left":[0,0,0],"id":96,"left_children":[1,-1,-1],"loss_changes":[5.224278E-4,0E0,0E0],"parents":[2147483647,0,0],"right_children":[2,-1,-1],"split_conditions":[1E0,-5.8776117E-4,-0E0],"split_indices":[1,0,0],"split_type":[0,0,0],"sum_hessian":[1.343308E2,6.7102684E1,6.722812E1],"tree_param":{"num_deleted":"0","num_feature":"4","num_nodes":"3","size_leaf_vector":"1"}},{"base_weights":[7.181299E-4,5.877439E-4,-0E0],"categories":[],"categories_nodes":[],"categories_segments":[],"categories_sizes":[],"default_left":[0,0,0],"id":97,"left_children":[1,-1,-1],"loss_changes":[5.224083E-4,0E0,0E0],"parents":[2147483647,0,0],"right_children":[2,-1,-1],"split_conditions":[1E0,5.877439E-4,-0E0],"split_indices":[1,0,0],"split_type":[0,0,0],"sum_hessian":[1.3433078E2,6.710267E1,6.722812E1],"tree_param":{"num_deleted":"0","num_feature":"4","num_nodes":"3","size_leaf_vector":"1"}},{"base_weights":[-4.278704E-4,-2.3640795E-3,-0E0,-0E0,-7.1696495E-3,-1.9537478E-3,-0E0],"categories":[],"categories_nodes":[],"categories_segments":[],"categories_sizes":[],"default_left":[0,0,0,0,0,0,0],"id":98,"left_children":[1,3,-1,-1,5,-1,-1],"loss_changes":[3.5851926E-4,1.07374304E-4,0E0,0E0,8.764857E-5,0E0,0E0],"parents":[2147483647,0,0,1,1,4,4],"right_children":[2,4,-1,-1,6,-1,-1],"split_conditions":[1E0,1E0,-0E0,-0E0,1E0,-1.9537478E-3,-0E0],"split_indices":[1,0,0,0,2,0,0],"split_type":[0,0,0,0,0,0,0],"sum_hessian":[1.343261E2,6.7097984E1,6.722812E1,5.9050854E1,8.0471325E0,4.5611844E0,3.4859488E0],"tree_param":{"num_deleted":"0","num_feature":"4","num_nodes":"7","size_leaf_vector":"1"}},{"base_weights":[4.2786208E-4,2.3641319E-3,-0E0,-0E0,7.1695405E-3,1.953738E-3,-0E0],"categories":[],"categories_nodes":[],"categories_segments":[],"categories_sizes":[],"default_left":[0,0,0,0,0,0,0],"id":99,"left_children":[1,3,-1,-1,5,-1,-1],"loss_changes":[3.5853722E-4,1.0734223E-4,0E0,0E0,8.765783E-5,0E0,0E0],"parents":[2147483647,0,0,1,1,4,4],"right_children":[2,4,-1,-1,6,-1,-1],"split_conditions":[1E0,1E0,-0E0,-0E0,1E0,1.953738E-3,-0E0],"split_indices":[1,0,0,0,2,0,0],"split_type":[0,0,0,0,0,0,0],"sum_hessian":[1.3432611E2,6.709799E1,6.722812E1,5.905086E1,8.047132E0,4.5611835E0,3.4859476E0],"tree_param":{"num_deleted":"0","num_feature":"4","num_nodes":"7","size_leaf_vector":"1"}},{"base_weights":[-3.623995E-4,-2.2348256E-3,-0E0,-1.0031639E-3,-0E0],"categories":[],"categories_nodes":[],"categories_segments":[],"categories_sizes":[],"default_left":[0,0,0,0,0],"id":100,"left_children":[1,3,-1,-1,-1],"loss_changes":[3.2470262E-4,4.7781505E-5,0E0,0E0,0E0],"parents":[2147483647,0,0,1,1],"right_children":[2,4,-1,-1,-1],"split_conditions":[1E0,1E0,-0E0,-1.0031639E-3,-0E0],"split_indices":[1,3,0,0,0],"split_type":[0,0,0,0,0],"sum_hessian":[1.3431215E2,6.708404E1,6.722812E1,1.4014506E1,5.3069534E1],"tree_param":{"num_deleted":"0","num_feature":"4","num_nodes":"5","size_leaf_vector":"1"}},{"base_weights":[3.6239682E-4,2.2348894E-3,-0E0,1.0032159E-3,-0E0],"categories":[],"categories_nodes":[],"categories_segments":[],"categories_sizes":[],"default_left":[0,0,0,0,0],"id":101,"left_children":[1,3,-1,-1,-1],"loss_changes":[3.2472244E-4,4.7802634E-5,0E0,0E0,0E0],"parents":[2147483647,0,0,1,1],"right_children":[2,4,-1,-1,-1],"split_conditions":[1E0,1E0,-0E0,1.0032159E-3,-0E0],"split_indices":[1,3,0,0,0],"split_type":[0,0,0,0,0],"sum_hessian":[1.3431216E2,6.7084045E1,6.722812E1,1.4014513E1,5.3069534E1],"tree_param":{"num_deleted":"0","num_feature":"4","num_nodes":"5","size_leaf_vector":"1"}},{"base_weights":[-2.5900823E-4,-2.030704E-3,-0E0,-0E0,-6.126226E-3,-1.6378685E-3,-0E0],"categories":[],"categories_nodes":[],"categories_segments":[],"categories_sizes":[],"default_left":[0,0,0,0,0,0,0],"id":102,"left_children":[1,3,-1,-1,5,-1,-1],"loss_changes":[2.7361617E-4,7.498465E-5,0E0,0E0,4.77554E-5,0E0,0E0],"parents":[2147483647,0,0,1,1,4,4],"right_children":[2,4,-1,-1,6,-1,-1],"split_conditions":[1E0,1E0,-0E0,-0E0,1E0,-1.6378685E-3,-0E0],"split_indices":[1,0,0,0,2,0,0],"split_type":[0,0,0,0,0,0,0],"sum_hessian":[1.3428828E2,6.706017E1,6.722812E1,5.9029022E1,8.031151E0,4.545831E0,3.4853196E0],"tree_param":{"num_deleted":"0","num_feature":"4","num_nodes":"7","size_leaf_vector":"1"}},{"base_weights":[2.5896382E-4,2.030685E-3,-0E0,-0E0,6.1261742E-3,1.6378819E-3,-0E0],"categories":[],"categories_nodes":[],"categories_segments":[],"categories_sizes":[],"default_left":[0,0,0,0,0,0,0],"id":103,"left_children":[1,3,-1,-1,5,-1,-1],"loss_changes":[2.7361407E-4,7.498381E-5,0E0,0E0,4.7768146E-5,0E0,0E0],"parents":[2147483647,0,0,1,1,4,4],"right_children":[2,4,-1,-1,6,-1,-1],"split_conditions":[1E0,1E0,-0E0,-0E0,1E0,1.6378819E-3,-0E0],"split_indices":[1,0,0,0,2,0,0],"split_type":[0,0,0,0,0,0,0],"sum_hessian":[1.3428828E2,6.7060165E1,6.722812E1,5.902902E1,8.03115E0,4.5458317E0,3.4853182E0],"tree_param":{"num_deleted":"0","num_feature":"4","num_nodes":"7","size_leaf_vector":"1"}},{"base_weights":[-2.0426337E-4,-1.9225702E-3,-0E0,-0E0,-5.3525884E-3,-1.3945684E-3,-0E0],"categories":[],"categories_nodes":[],"categories_segments":[],"categories_sizes":[],"default_left":[0,0,0,0,0,0,0],"id":104,"left_children":[1,3,-1,-1,5,-1,-1],"loss_changes":[2.477091E-4,1.9361003E-5,0E0,0E0,2.064911E-5,0E0,0E0],"parents":[2147483647,0,0,1,1,4,4],"right_children":[2,4,-1,-1,6,-1,-1],"split_conditions":[1E0,1E0,-0E0,-0E0,1E0,-1.3945684E-3,-0E0],"split_indices":[1,0,0,0,2,0,0],"split_type":[0,0,0,0,0,0,0],"sum_hessian":[1.3427663E2,6.704851E1,6.722812E1,5.9029022E1,8.019485E0,4.534166E0,3.4853196E0],"tree_param":{"num_deleted":"0","num_feature":"4","num_nodes":"7","size_leaf_vector":"1"}},{"base_weights":[2.0420707E-4,1.9225279E-3,-0E0,-0E0,5.3523686E-3,1.394529E-3,-0E0],"categories":[],"categories_nodes":[],"categories_segments":[],"categories_sizes":[],"default_left":[0,0,0,0,0,0,0],"id":105,"left_children":[1,3,-1,-1,5,-1,-1],"loss_changes":[2.477011E-4,1.9349653E-5,0E0,0E0,2.065496E-5,0E0,0E0],"parents":[2147483647,0,0,1,1,4,4],"right_children":[2,4,-1,-1,6,-1,-1],"split_conditions":[1E0,1E0,-0E0,-0E0,1E0,1.394529E-3,-0E0],"split_indices":[1,0,0,0,2,0,0],"split_type":[0,0,0,0,0,0,0],"sum_hessian":[1.3427661E2,6.70485E1,6.722812E1,5.902902E1,8.019483E0,4.534164E0,3.4853182E0],"tree_param":{"num_deleted":"0","num_feature":"4","num_nodes":"7","size_leaf_vector":"1"}},{"base_weights":[-1.5775644E-4,-1.8306941E-3,-0E0,-7.924015E-4,-0E0],"categories":[],"categories_nodes":[],"categories_segments":[],"categories_sizes":[],"default_left":[0,0,0,0,0],"id":106,"left_children":[1,3,-1,-1,-1],"loss_changes":[2.2632419E-4,1.339466E-5,0E0,0E0,0E0],"parents":[2147483647,0,0,1,1],"right_children":[2,4,-1,-1,-1],"split_conditions":[1E0,1E0,-0E0,-7.924015E-4,-0E0],"split_indices":[1,3,0,0,0],"split_type":[0,0,0,0,0],"sum_hessian":[1.3426671E2,6.703859E1,6.722812E1,1.3986395E1,5.3052197E1],"tree_param":{"num_deleted":"0","num_feature":"4","num_nodes":"5","size_leaf_vector":"1"}},{"base_weights":[1.5771238E-4,1.830676E-3,-0E0,7.9237996E-4,-0E0],"categories":[],"categories_nodes":[],"categories_segments":[],"categories_sizes":[],"default_left":[0,0,0,0,0],"id":107,"left_children":[1,3,-1,-1,-1],"loss_changes":[2.2632154E-4,1.3385987E-5,0E0,0E0,0E0],"parents":[2147483647,0,0,1,1],"right_children":[2,4,-1,-1,-1],"split_conditions":[1E0,1E0,-0E0,7.9237996E-4,-0E0],"split_indices":[1,3,0,0,0],"split_type":[0,0,0,0,0],"sum_hessian":[1.3426671E2,6.703859E1,6.722812E1,1.3986391E1,5.3052197E1],"tree_param":{"num_deleted":"0","num_feature":"4","num_nodes":"5","size_leaf_vector":"1"}},{"base_weights":[-7.619373E-5,-1.6695658E-3,-0E0,-0E0,-4.598762E-3,-1.1665281E-3,-0E0],"categories":[],"categories_nodes":[],"categories_segments":[],"categories_sizes":[],"default_left":[0,0,0,0,0,0,0],"id":108,"left_children":[1,3,-1,-1,5,-1,-1],"loss_changes":[1.9020733E-4,1.0084899E-5,0E0,0E0,3.825233E-6,0E0,0E0],"parents":[2147483647,0,0,1,1,4,4],"right_children":[2,4,-1,-1,6,-1,-1],"split_conditions":[1E0,1E0,-0E0,-0E0,1E0,-1.1665281E-3,-0E0],"split_indices":[1,0,0,0,2,0,0],"split_type":[0,0,0,0,0,0,0],"sum_hessian":[1.3424788E2,6.701977E1,6.722812E1,5.90118E1,8.007969E0,4.523145E0,3.4848232E0],"tree_param":{"num_deleted":"0","num_feature":"4","num_nodes":"7","size_leaf_vector":"1"}},{"base_weights":[7.6156495E-5,1.6695613E-3,-0E0,-0E0,4.5986758E-3,1.1665287E-3,-0E0],"categories":[],"categories_nodes":[],"categories_segments":[],"categories_sizes":[],"default_left":[0,0,0,0,0,0,0],"id":109,"left_children":[1,3,-1,-1,5,-1,-1],"loss_changes":[1.9020704E-4,1.0078424E-5,0E0,0E0,3.8330036E-6,0E0,0E0],"parents":[2147483647,0,0,1,1,4,4],"right_children":[2,4,-1,-1,6,-1,-1],"split_conditions":[1E0,1E0,-0E0,-0E0,1E0,1.1665287E-3,-0E0],"split_indices":[1,0,0,0,2,0,0],"split_type":[0,0,0,0,0,0,0],"sum_hessian":[1.3424788E2,6.701977E1,6.722812E1,5.90118E1,8.007967E0,4.523145E0,3.4848218E0],"tree_param":{"num_deleted":"0","num_feature":"4","num_nodes":"7","size_leaf_vector":"1"}},{"base_weights":[-3.7361802E-5,-3.185644E-4,-0E0],"categories":[],"categories_nodes":[],"categories_segments":[],"categories_sizes":[],"default_left":[0,0,0],"id":110,"left_children":[1,-1,-1],"loss_changes":[1.7362977E-4,0E0,0E0],"parents":[2147483647,0,0],"right_children":[2,-1,-1],"split_conditions":[1E0,-3.185644E-4,-0E0],"split_indices":[1,0,0],"split_type":[0,0,0],"sum_hessian":[1.342396E2,6.701148E1,6.722812E1],"tree_param":{"num_deleted":"0","num_feature":"4","num_nodes":"3","size_leaf_vector":"1"}},{"base_weights":[3.732404E-5,3.1856328E-4,-0E0],"categories":[],"categories_nodes":[],"categories_segments":[],"categories_sizes":[],"default_left":[0,0,0],"id":111,"left_children":[1,-1,-1],"loss_changes":[1.7362891E-4,0E0,0E0],"parents":[2147483647,0,0],"right_children":[2,-1,-1],"split_conditions":[1E0,3.1856328E-4,-0E0],"split_indices":[1,0,0],"split_type":[0,0,0],"sum_hessian":[1.342396E2,6.701148E1,6.722812E1],"tree_param":{"num_deleted":"0","num_feature":"4","num_nodes":"3","size_leaf_vector":"1"}},{"base_weights":[-0E0,-1.2812623E-3,-0E0,-0E0,-7.562396E-4],"categories":[],"categories_nodes":[],"categories_segments":[],"categories_sizes":[],"default_left":[0,0,0,0,0],"id":112,"left_children":[1,3,-1,-1,-1],"loss_changes":[1.12466594E-4,2.3299122E-5,0E0,0E0,0E0],"parents":[2147483647,0,0,1,1],"right_children":[2,4,-1,-1,-1],"split_conditions":[1E0,1E0,-0E0,-0E0,-7.562396E-4],"split_indices":[1,0,0,0,0],"split_type":[0,0,0,0,0],"sum_hessian":[1.3423709E2,6.700898E1,6.722812E1,5.9013187E1,7.995794E0],"tree_param":{"num_deleted":"0","num_feature":"4","num_nodes":"5","size_leaf_vector":"1"}},{"base_weights":[-0E0,1.2813262E-3,-0E0,-0E0,7.5623096E-4],"categories":[],"categories_nodes":[],"categories_segments":[],"categories_sizes":[],"default_left":[0,0,0,0,0],"id":113,"left_children":[1,3,-1,-1,-1],"loss_changes":[1.12477836E-4,2.3284767E-5,0E0,0E0,0E0],"parents":[2147483647,0,0,1,1],"right_children":[2,4,-1,-1,-1],"split_conditions":[1E0,1E0,-0E0,-0E0,7.5623096E-4],"split_indices":[1,0,0,0,0],"split_type":[0,0,0,0,0],"sum_hessian":[1.342371E2,6.700898E1,6.722812E1,5.901319E1,7.9957933E0],"tree_param":{"num_deleted":"0","num_feature":"4","num_nodes":"5","size_leaf_vector":"1"}},{"base_weights":[-0E0,-1.1932104E-3,-0E0,-5.698832E-4,-0E0],"categories":[],"categories_nodes":[],"categories_segments":[],"categories_sizes":[],"default_left":[0,0,0,0,0],"id":114,"left_children":[1,3,-1,-1,-1],"loss_changes":[9.752657E-5,2.7970324E-5,0E0,0E0,0E0],"parents":[2147483647,0,0,1,1],"right_children":[2,4,-1,-1,-1],"split_conditions":[1E0,1E0,-0E0,-5.698832E-4,-0E0],"split_indices":[1,3,0,0,0],"split_type":[0,0,0,0,0],"sum_hessian":[1.3422786E2,6.699974E1,6.722812E1,1.395686E1,5.304288E1],"tree_param":{"num_deleted":"0","num_feature":"4","num_nodes":"5","size_leaf_vector":"1"}},{"base_weights":[-0E0,1.1932681E-3,-0E0,5.699029E-4,-0E0],"categories":[],"categories_nodes":[],"categories_segments":[],"categories_sizes":[],"default_left":[0,0,0,0,0],"id":115,"left_children":[1,3,-1,-1,-1],"loss_changes":[9.753602E-5,2.7969574E-5,0E0,0E0,0E0],"parents":[2147483647,0,0,1,1],"right_children":[2,4,-1,-1,-1],"split_conditions":[1E0,1E0,-0E0,5.699029E-4,-0E0],"split_indices":[1,3,0,0,0],"split_type":[0,0,0,0,0],"sum_hessian":[1.3422786E2,6.699974E1,6.722812E1,1.3956863E1,5.304288E1],"tree_param":{"num_deleted":"0","num_feature":"4","num_nodes":"5","size_leaf_vector":"1"}},{"base_weights":[-0E0,-1.0773551E-3,-0E0,-0E0,-3.0792947E-3,-8.178173E-4,-0E0],"categories":[],"categories_nodes":[],"categories_segments":[],"categories_sizes":[],"default_left":[0,0,0,0,0,0,0],"id":116,"left_children":[1,3,-1,-1,5,-1,-1],"loss_changes":[7.949155E-5,1.0449614E-5,0E0,0E0,1.04904975E-5,0E0,0E0],"parents":[2147483647,0,0,1,1,4,4],"right_children":[2,4,-1,-1,6,-1,-1],"split_conditions":[1E0,1E0,-0E0,-0E0,1E0,-8.178173E-4,-0E0],"split_indices":[1,0,0,0,2,0,0],"split_type":[0,0,0,0,0,0,0],"sum_hessian":[1.3421434E2,6.698622E1,6.722812E1,5.9000816E1,7.985408E0,4.506452E0,3.4789557E0],"tree_param":{"num_deleted":"0","num_feature":"4","num_nodes":"7","size_leaf_vector":"1"}},{"base_weights":[-0E0,1.0773905E-3,-0E0,-0E0,3.079288E-3,8.178201E-4,-0E0],"categories":[],"categories_nodes":[],"categories_segments":[],"categories_sizes":[],"default_left":[0,0,0,0,0,0,0],"id":117,"left_children":[1,3,-1,-1,5,-1,-1],"loss_changes":[7.949678E-5,1.0443997E-5,0E0,0E0,1.0491574E-5,0E0,0E0],"parents":[2147483647,0,0,1,1,4,4],"right_children":[2,4,-1,-1,6,-1,-1],"split_conditions":[1E0,1E0,-0E0,-0E0,1E0,8.178201E-4,-0E0],"split_indices":[1,0,0,0,2,0,0],"split_type":[0,0,0,0,0,0,0],"sum_hessian":[1.3421434E2,6.698622E1,6.722812E1,5.9000813E1,7.985408E0,4.5064526E0,3.4789553E0],"tree_param":{"num_deleted":"0","num_feature":"4","num_nodes":"7","size_leaf_vector":"1"}},{"base_weights":[-0E0,-1.0236677E-3,-0E0,-4.5910585E-4,-0E0],"categories":[],"categories_nodes":[],"categories_segments":[],"categories_sizes":[],"default_left":[0,0,0,0,0],"id":118,"left_children":[1,3,-1,-1,-1],"loss_changes":[7.1760354E-5,9.611664E-6,0E0,0E0,0E0],"parents":[2147483647,0,0,1,1],"right_children":[2,4,-1,-1,-1],"split_conditions":[1E0,1E0,-0E0,-4.5910585E-4,-0E0],"split_indices":[1,3,0,0,0],"split_type":[0,0,0,0,0],"sum_hessian":[1.3420854E2,6.698043E1,6.722812E1,1.3942207E1,5.3038227E1],"tree_param":{"num_deleted":"0","num_feature":"4","num_nodes":"5","size_leaf_vector":"1"}},{"base_weights":[-0E0,1.0236994E-3,-0E0,4.5910245E-4,-0E0],"categories":[],"categories_nodes":[],"categories_segments":[],"categories_sizes":[],"default_left":[0,0,0,0,0],"id":119,"left_children":[1,3,-1,-1,-1],"loss_changes":[7.1764785E-5,9.606025E-6,0E0,0E0,0E0],"parents":[2147483647,0,0,1,1],"right_children":[2,4,-1,-1,-1],"split_conditions":[1E0,1E0,-0E0,4.5910245E-4,-0E0],"split_indices":[1,3,0,0,0],"split_type":[0,0,0,0,0],"sum_hessian":[1.3420854E2,6.698043E1,6.722812E1,1.3942206E1,5.3038223E1],"tree_param":{"num_deleted":"0","num_feature":"4","num_nodes":"5","size_leaf_vector":"1"}},{"base_weights":[-0E0,-0E0,-1.1955303E-3,3.0047696E-3,-1.5338794E-3,-3.1850596E-3,-0E0,-0E0,2.235812E-3],"categories":[],"categories_nodes":[],"categories_segments":[],"categories_sizes":[],"default_left":[0,0,0,0,0,0,0,0,0],"id":120,"left_children":[1,3,5,7,-1,-1,-1,-1,-1],"loss_changes":[6.3284984E-5,1.7407502E-3,7.3079434E-3,7.3863133E-3,0E0,0E0,0E0,0E0,0E0],"parents":[2147483647,0,0,1,1,2,2,3,3],"right_children":[2,4,6,8,-1,-1,-1,-1,-1],"split_conditions":[1E0,1E0,1E0,1E0,-1.5338794E-3,-3.1850596E-3,-0E0,-0E0,2.235812E-3],"split_indices":[2,0,0,3,0,0,0,0,0],"split_type":[0,0,0,0,0,0,0,0,0],"sum_hessian":[1.3419766E2,9.142053E1,4.2777134E1,7.508075E1,1.6339787E1,2.7564627E1,1.5212507E1,1.194408E1,6.3136665E1],"tree_param":{"num_deleted":"0","num_feature":"4","num_nodes":"9","size_leaf_vector":"1"}},{"base_weights":[-0E0,-0E0,1.1954656E-3,-3.0048524E-3,1.5338911E-3,3.1850492E-3,-0E0,-0E0,-2.2358133E-3],"categories":[],"categories_nodes":[],"categories_segments":[],"categories_sizes":[],"default_left":[0,0,0,0,0,0,0,0,0],"id":121,"left_children":[1,3,5,7,-1,-1,-1,-1,-1],"loss_changes":[6.327812E-5,1.7408042E-3,7.307902E-3,7.3862853E-3,0E0,0E0,0E0,0E0,0E0],"parents":[2147483647,0,0,1,1,2,2,3,3],"right_children":[2,4,6,8,-1,-1,-1,-1,-1],"split_conditions":[1E0,1E0,1E0,1E0,1.5338911E-3,3.1850492E-3,-0E0,-0E0,-2.2358133E-3],"split_indices":[2,0,0,3,0,0,0,0,0],"split_type":[0,0,0,0,0,0,0,0,0],"sum_hessian":[1.3419766E2,9.1420525E1,4.277713E1,7.508074E1,1.6339787E1,2.7564625E1,1.5212505E1,1.194407E1,6.313667E1],"tree_param":{"num_deleted":"0","num_feature":"4","num_nodes":"9","size_leaf_vector":"1"}},{"base_weights":[-0E0,-3.0044056E-4,-0E0],"categories":[],"categories_nodes":[],"categories_segments":[],"categories_sizes":[],"default_left":[0,0,0],"id":122,"left_children":[1,-1,-1],"loss_changes":[1.542248E-4,0E0,0E0],"parents":[2147483647,0,0],"right_children":[2,-1,-1],"split_conditions":[1E0,-3.0044056E-4,-0E0],"split_indices":[1,0,0],"split_type":[0,0,0],"sum_hessian":[1.3391367E2,6.684348E1,6.7070175E1],"tree_param":{"num_deleted":"0","num_feature":"4","num_nodes":"3","size_leaf_vector":"1"}},{"base_weights":[-0E0,3.0044257E-4,-0E0],"categories":[],"categories_nodes":[],"categories_segments":[],"categories_sizes":[],"default_left":[0,0,0],"id":123,"left_children":[1,-1,-1],"loss_changes":[1.5422686E-4,0E0,0E0],"parents":[2147483647,0,0],"right_children":[2,-1,-1],"split_conditions":[1E0,3.0044257E-4,-0E0],"split_indices":[1,0,0],"split_type":[0,0,0],"sum_hessian":[1.3391364E2,6.684347E1,6.7070175E1],"tree_param":{"num_deleted":"0","num_feature":"4","num_nodes":"3","size_leaf_vector":"1"}},{"base_weights":[-0E0,-2.4168639E-4,-0E0],"categories":[],"categories_nodes":[],"categories_segments":[],"categories_sizes":[],"default_left":[0,0,0],"id":124,"left_children":[1,-1,-1],"loss_changes":[9.9799094E-5,0E0,0E0],"parents":[2147483647,0,0],"right_children":[2,-1,-1],"split_conditions":[1E0,-2.4168639E-4,-0E0],"split_indices":[1,0,0],"split_type":[0,0,0],